{"lstm.weight_ih_l0": [[0.004813035484403372], [0.0007593778427690268], [-0.0006687557324767113], [-0.027860477566719055], [0.024329274892807007], [0.005441971588879824], [-0.0003876422415487468], [0.010296827182173729], [-0.010537037625908852], [-0.004887121729552746], [0.007999422959983349], [0.06394711136817932], [0.0006310780299827456], [-0.00038481823867186904], [-0.0058913580141961575], [-0.09534023702144623], [-0.019567493349313736], [-0.007867274805903435], [0.0004203644930385053], [0.00347517104819417], [-0.0012875127140432596], [-0.008497915230691433], [0.005358923226594925], [0.002516868058592081], [0.028740741312503815], [0.07993412017822266], [-0.029972508549690247], [0.041277267038822174], [0.0029346991796046495], [0.04922289028763771], [-0.0007255527889356017], [0.0020273507107049227], [0.0034101863857358694], [0.00045297405449673533], [-0.00568839767947793], [-0.04272482171654701], [0.07154572755098343], [-0.014433196745812893], [0.00016682539717294276], [0.05707690119743347], [-0.01804928295314312], [-0.01423569954931736], [0.005035912152379751], [0.04770354926586151], [0.0006684758118353784], [-0.000711820088326931], [-0.00557672930881381], [-0.08553262799978256], [-0.02051546238362789], [-0.005876367911696434], [0.026550929993391037], [0.00031162891536951065], [-0.0005893442430533469], [-0.0029118466190993786], [0.0041203005239367485], [0.0015452936058863997], [-0.016656065359711647], [-0.08831854164600372], [0.08187586069107056], [-0.014177109114825726], [0.0422382578253746], [0.04685486853122711], [-0.0009050126536749303], [0.0017743430798873305], [-0.046776317059993744], [-0.016967110335826874], [-0.15902628004550934], [0.06656123697757721], [0.001624122611247003], [0.0016799182631075382], [-0.03423216566443443], [0.04781007394194603], [0.0537925586104393], [0.003092962084338069], [0.05569665879011154], [-0.16639941930770874], [0.018102966248989105], [0.037112005054950714], [-0.009778881445527077], [0.04539526253938675], [0.08818727731704712], [-0.07365664094686508], [-0.10394614934921265], [-0.06248128041625023], [-0.06471743434667587], [0.03514418005943298], [-0.07153342664241791], [-0.05993516743183136], [0.01843937858939171], [-0.05585917830467224], [0.12006717175245285], [-0.09631212055683136], [-0.12994851171970367], [0.13960090279579163], [-0.023606253787875175], [-0.05758169665932655], [0.0023234861437231302], [7.89786281529814e-06], [-0.004217322915792465], [-0.04359383508563042], [-0.047410998493433], [-0.031305942684412], [0.0005077717360109091], [0.011085433885455132], [0.05407872423529625], [-0.021963071078062057], [0.008892477490007877], [0.06250575184822083], [0.0006374086951836944], [-0.0007010882254689932], [-0.008054268546402454], [-0.08559795469045639], [-0.04828236997127533], [-0.007806131150573492], [0.005003603640943766], [0.006571476347744465], [-0.0009488128707744181], [0.0008757830364629626], [0.00518492516130209], [0.0027427072636783123], [0.010530182160437107], [-0.11266673356294632], [-0.0378086194396019], [0.0024450260680168867], [0.006953785661607981], [-0.031688109040260315], [-0.0009366342565044761], [0.0017454312182962894]], "lstm.weight_hh_l0": [[0.004673914518207312, 0.00010353426478104666, 0.0012840983690693974, -0.028756842017173767, 0.01632368564605713, -0.00032022083178162575, -0.00024122270406223834, -0.003737386781722307, -0.05165218934416771, -0.04207460582256317, 0.017283659428358078, -0.013801789842545986, 0.00129820650909096, -9.636757749831304e-05, -0.0002472444612067193, 0.010785798542201519, -0.09224975109100342, 0.002984616905450821, -0.0005535006639547646, -0.0018377387896180153, 0.01736609824001789, -0.012874514795839787, 0.0008386271074414253, 0.00625801645219326, -0.017037788406014442, -0.058065015822649, 0.044229522347450256, -0.0009118211455643177, 0.013559493236243725, -0.0001739252475090325, 3.9921069401316345e-05, -0.00014950767217669636], [-0.0014617640990763903, 8.833365427562967e-05, -0.002027006121352315, 0.011152361519634724, 0.0025474620051681995, -0.00019779520516749471, 0.00019412650726735592, 0.016800398007035255, 0.13443076610565186, -0.002516628708690405, 0.05499299615621567, -0.06016843020915985, -0.0007934035966172814, -7.567193097202107e-05, -0.00012280585360713303, 0.06596368551254272, -0.05057277902960777, -0.0067427922040224075, 0.0004079695791006088, -0.0022416538558900356, -0.034869853407144547, 0.016730323433876038, 0.004809644538909197, -0.01766935922205448, -0.001412734854966402, -0.11427292227745056, -0.01025314163416624, 0.0009075753041543067, -0.023665135726332664, -0.00030310277361422777, 6.077282887417823e-05, -6.971892435103655e-05], [-0.002926603192463517, 0.001245970488525927, 0.04187618941068649, 0.012339258566498756, -0.03545805811882019, -0.0014167572371661663, -0.00031033242703415453, -0.013470480218529701, -0.08540904521942139, 0.027361750602722168, -0.018540898337960243, -0.010377844795584679, 0.014801081269979477, -0.009702196344733238, -0.0028314869850873947, 0.062087494879961014, -0.02559947408735752, -0.0015303889522328973, -0.0025700561236590147, 0.0018643271178007126, 0.016927458345890045, -0.011993825435638428, -0.005214763805270195, -0.015711788088083267, -0.03372035175561905, -0.06617540121078491, 0.0026258891448378563, 0.01771719567477703, 0.011632868088781834, -0.004494491033256054, 0.0008522589923813939, 0.0010712560033425689], [0.06000085175037384, 0.019976258277893066, -0.0033659120090305805, -0.008928325027227402, -0.018600748851895332, -0.021388547495007515, -0.02125590108335018, 0.10766306519508362, 0.1552489846944809, 0.12754946947097778, -0.07446517795324326, 0.10597022622823715, -0.04245453700423241, -0.05471646040678024, -0.036061737686395645, -0.031220221891999245, 0.08407913148403168, -0.11548267304897308, 0.09125670045614243, 0.05871199443936348, -0.012049635872244835, -0.08775048702955246, 0.045041996985673904, -0.14826232194900513, 0.03364152833819389, -0.1721344292163849, -0.06513427942991257, 0.009153268299996853, 0.06794126331806183, -0.04692523553967476, -0.025717951357364655, -0.024465039372444153], [0.030370183289051056, 0.019263168796896935, 0.14900563657283783, 0.13330195844173431, 0.004436795134097338, -0.07425332069396973, 0.010633940808475018, -0.02157599665224552, 0.12920626997947693, 0.15774810314178467, -0.07102517783641815, 0.038869459182024, -0.14239950478076935, -0.09172505885362625, -0.0872393399477005, 0.0384298637509346, -0.0853080227971077, 0.011309047229588032, -0.09754469245672226, -0.012566933408379555, 0.013049079105257988, -0.06623978912830353, -0.08032602816820145, 0.016711516305804253, -0.005386019125580788, -0.1115427017211914, 0.036896053701639175, 0.06156308203935623, 0.09131873399019241, -0.03365412726998329, 0.06501930952072144, -0.05006958916783333], [-0.03217807784676552, 0.005804853979498148, 0.07669275254011154, 0.05609968304634094, -0.03296242281794548, 0.022393401712179184, 0.003048174548894167, 0.0017032102914527059, 0.09341508150100708, 0.11021213233470917, -0.08921777456998825, 0.07421939074993134, -0.05785343050956726, -0.027032656595110893, -0.0034029430244117975, 0.0708165317773819, 0.0024713834282010794, 0.0007615818758495152, -0.0034698161762207747, 0.008216794580221176, -0.019911468029022217, -0.06789495795965195, 0.036822639405727386, -0.05613422021269798, -0.09007824212312698, 0.036948028951883316, -0.15218864381313324, 0.049996569752693176, -0.03118222765624523, -0.009783697314560413, 0.005307753104716539, 0.002622307278215885], [0.004327923059463501, -5.077167588751763e-05, 0.04409879818558693, -0.006537402514368296, -0.012029272504150867, -0.00011599252320593223, -2.6395842724014074e-05, 0.007872709073126316, 0.08801684528589249, -0.03622306138277054, 0.05612670257687569, 0.017891591414809227, -0.012066314928233624, -2.5449067834415473e-05, -8.272262493846938e-05, 0.046573247760534286, -0.012784848921000957, -0.00030478936969302595, -9.521863830741495e-05, 0.0006649481365457177, -0.019647786393761635, -0.016140175983309746, 0.00026102998526766896, 0.00872301310300827, 0.0350266695022583, 0.026457369327545166, -0.02977152168750763, -0.00112715398427099, -0.004586379509419203, -4.002541027148254e-05, 2.9701255698455498e-05, 8.429070476267952e-06], [-0.010419022291898727, 0.006308088544756174, 0.010761086829006672, -0.06328398734331131, -0.17608419060707092, 0.05273602530360222, 0.02257208526134491, 0.02175070345401764, 0.06560894846916199, 0.14210981130599976, -0.1245662271976471, 0.04507778212428093, 0.11949480324983597, 0.028066162019968033, 0.026316041126847267, 0.17899878323078156, 0.05281992256641388, 0.040736258029937744, -0.06267254054546356, -0.0303085595369339, 0.00161972944624722, 0.08502428233623505, -0.03418753296136856, -0.011381817981600761, -0.0057660494931042194, 0.0036565258633345366, -0.06472507119178772, 0.07355821132659912, -0.037426818162202835, -0.011545093730092049, 0.03102397546172142, 0.03773122280836105], [0.035390861332416534, -0.000735276029445231, 0.0417012982070446, 0.044063519686460495, -0.013939755037426949, -0.044652558863162994, 0.020713666453957558, 0.1406116932630539, -0.1340068280696869, 0.09545030444860458, 0.12566794455051422, 0.11483439058065414, 0.0758150964975357, 0.013489683158695698, -0.023417526856064796, -0.07038889080286026, 0.11996329575777054, 0.03559253364801407, -0.01901925541460514, 0.0032847325783222914, -0.03194427117705345, 0.08500367403030396, 0.049430299550294876, 0.09163264185190201, 0.09910943359136581, -0.09691748768091202, 0.11355075240135193, 0.023037945851683617, 0.08834470808506012, -0.06246337667107582, 0.025164814665913582, -0.011250719428062439], [-0.02050328068435192, -0.002352955983951688, 0.037556640803813934, 0.08253015577793121, -0.14522026479244232, 0.04090915620326996, 0.032703109085559845, 0.048836346715688705, 0.05913456156849861, -0.05432687699794769, 0.0744454562664032, 0.04037722945213318, -0.09843799471855164, 0.012642941437661648, 0.003049251390621066, 0.11753051728010178, 0.11283916980028152, -0.01298601645976305, -0.0019800025038421154, 0.0009117304580286145, -0.10470084100961685, -0.07653512060642242, 0.049451444298028946, -0.1093733161687851, 0.06939072906970978, -0.1511927843093872, -0.09773096442222595, -0.02133038267493248, -0.005654928740113974, -0.03822038695216179, 0.010963201522827148, -0.009160913527011871], [-0.03573835641145706, -0.0039784712716937065, 0.019815005362033844, 0.020064251497387886, 0.018982866778969765, -0.0003214695316273719, 0.00034425072954036295, 0.03719136491417885, -0.002426904160529375, 0.004327522125095129, -0.06673762202262878, -0.08744757622480392, 0.02923850156366825, 0.00028289519832469523, 0.012134178541600704, -0.04631615802645683, -0.13566075265407562, -0.024153854697942734, -0.006242906209081411, 0.005506706424057484, 0.058455098420381546, 0.03612521290779114, -0.01514483243227005, 0.047271572053432465, 0.01788618229329586, 0.015711616724729538, 0.018505267798900604, 0.00446897279471159, 0.008675997145473957, -5.0622737035155296e-05, 0.001227540080435574, -0.0007249715854413807], [-0.08581407368183136, -0.022703086957335472, -0.039481062442064285, -0.04154205322265625, -0.0012052698293700814, 0.03964357078075409, -0.03202531859278679, -0.03659443557262421, 0.07985123246908188, 0.01882505603134632, 0.007582994177937508, 0.11030182987451553, 0.07187225669622421, -0.027033500373363495, -0.01988302357494831, -0.08443351089954376, -0.05203106254339218, -0.09284640848636627, 0.047257669270038605, 0.010580039583146572, -0.059789109975099564, -0.025311753153800964, -0.029173260554671288, -0.12512050569057465, 0.1468593031167984, 0.02421661466360092, 0.0992148146033287, 0.025257093831896782, -0.15065085887908936, 0.041950520128011703, 0.007026826497167349, -0.0160392913967371], [-0.00022179869120009243, -1.849618274718523e-05, 0.03911847993731499, 0.00475282222032547, -0.007118643261492252, -0.0012004638556391, -3.7217010685708374e-05, -0.0245775505900383, -0.014573373831808567, -0.06185038387775421, 0.024080224335193634, -0.02286851778626442, -0.0016932873986661434, 0.0018282196251675487, -5.507134483195841e-05, 0.07695118337869644, 0.03814896196126938, -7.477671169908717e-05, -4.450083724805154e-05, 7.690539496252313e-05, -0.017409006133675575, 0.028192736208438873, -0.0022779672872275114, 0.02987411804497242, -0.036244746297597885, -0.08518441021442413, -0.06583239138126373, -0.006288436241447926, -0.0026750857941806316, -0.00011833348253276199, 2.725559170357883e-05, -2.289401163579896e-05], [-0.000283338624285534, 4.0498711314285174e-05, -0.031883660703897476, -4.300161890569143e-06, -0.02665315940976143, -0.0007128173019737005, -3.2756283872004133e-06, 0.01917949691414833, 0.0505317784845829, -0.021670199930667877, 0.015483765862882137, -0.006873439531773329, -0.006821654736995697, -0.000664803315885365, -0.00011176892439834774, -0.04552973806858063, 0.03203107789158821, -3.439180727582425e-05, -7.956484478199854e-05, 0.00017418504285160452, 0.006561606656759977, 0.005757537204772234, 0.0010406903456896544, -0.019235767424106598, 0.023916898295283318, -0.11465366184711456, 0.03708360716700554, -0.0020011647138744593, -0.004942401312291622, -0.0003108558594249189, 4.645578155759722e-05, 0.00011753488797694445], [0.011342939920723438, 0.001350953709334135, -0.015868838876485825, -0.015413839370012283, -0.06745650619268417, -0.0010267120087519288, -0.0002485211589373648, -0.005458652973175049, -0.06278140842914581, 0.08656679838895798, 0.058989010751247406, -0.05467648059129715, 0.008119451813399792, -0.00047645834274590015, 0.00017732061678543687, 0.10652891546487808, -0.08885692059993744, -0.0007363331387750804, -5.519383557839319e-05, -0.0023358575999736786, 0.026882493868470192, -0.0013926923274993896, -0.00019762331794481725, 0.0015842110151425004, 0.041915420442819595, -0.12203289568424225, -0.061254821717739105, -0.0019074227893725038, -0.031746648252010345, -0.0018193501746281981, 0.0002544200688134879, 0.0011427683057263494], [0.059380680322647095, -0.0038388019893318415, -0.0630495473742485, 0.08876990526914597, -0.038088105618953705, 0.05678167566657066, -0.00039765529800206423, -0.10528086125850677, 0.020532771944999695, 0.12645834684371948, -0.1681138575077057, 0.12246767431497574, -0.015842899680137634, 0.0774625912308693, 0.0028340548742562532, -0.053906455636024475, -0.13289131224155426, 0.10324011743068695, 0.024121105670928955, -0.040656205266714096, -0.06498178839683533, -0.05718563497066498, -0.05309010669589043, -0.09651101380586624, 0.06692241877317429, -0.11637993901968002, 0.05771923065185547, 0.01800627075135708, 0.03331733122467995, -0.02637522853910923, 0.03705238178372383, 0.06595855951309204], [-0.07322611659765244, -0.01645534858107567, 0.04695786163210869, 0.009719135239720345, -0.08381670713424683, 0.011226038448512554, -0.004607003182172775, 0.006801349110901356, -0.08976460993289948, -0.12484720349311829, 0.01805005967617035, 0.05585967004299164, 0.016651950776576996, -0.03435201942920685, -0.03140738606452942, 0.012783901765942574, -0.10870781540870667, -0.06387335807085037, 0.07010868936777115, -0.09258374571800232, 0.07379511743783951, -0.05411432683467865, 0.048264648765325546, -0.11062479764223099, 0.14739477634429932, 0.07171179354190826, -0.13791726529598236, -0.025380218401551247, -0.08341549336910248, 0.0135407829657197, -0.037466343492269516, 0.007769064512103796], [0.005433632060885429, 0.00013805525668431073, 0.036374568939208984, 0.0034131784923374653, 0.013440835289657116, 9.027821943163872e-05, 1.7789541743695736e-05, 0.0024483869783580303, 0.0338926687836647, -0.0025206035934388638, -0.0018828167812898755, 0.024415692314505577, -0.0008099317783489823, -9.121339826378971e-05, -0.0007592845358885825, -0.004984539467841387, 0.03665449470281601, -0.002324395114555955, -0.00039648287929594517, 0.00015445350436493754, 0.019734598696231842, -0.006294041872024536, -0.00018726430425886065, -0.04097229242324829, -0.0022751055657863617, -0.014123581349849701, 0.0021135848946869373, -0.0007117072818800807, -0.029631394892930984, -0.0009286630665883422, 0.00012166549277026206, 0.00040409050416201353], [-0.012886357493698597, 0.0017065235879272223, -0.03114253841340542, -0.04190169647336006, -0.08640729635953903, -0.0016362053574994206, 0.00034531144774518907, 0.0008820806979201734, 0.1501934677362442, -0.030540764331817627, -0.06883470714092255, -0.06936994194984436, 0.006217693444341421, -0.001206821296364069, -0.007214183919131756, 0.07359281927347183, 0.013836492784321308, -0.017184816300868988, -0.009914243593811989, -0.0010019298642873764, 0.0034640796948224306, 0.05050494521856308, -0.0022299380507320166, -0.1033482700586319, -0.012249580584466457, -0.06934862583875656, 0.016880853101611137, 0.00011580750287976116, -0.07308457046747208, -0.0035741461906582117, 0.000819275330286473, 0.0015198385808616877], [0.002437635324895382, 0.00014872636529617012, 0.007480249274522066, -0.033064164221286774, -0.04250675067305565, -0.0012395823141559958, -0.00047548679867759347, -0.0078897001221776, 0.10210935771465302, 0.021929481998085976, -0.04719693958759308, -0.04659625142812729, 0.004806453827768564, -0.00040682224789634347, -0.0008385889232158661, -0.04492563381791115, -0.05038324370980263, -0.003727603703737259, -0.0014359294436872005, -0.0022909222170710564, -0.036641672253608704, 0.006989382207393646, -7.928342529339716e-05, -0.04239590838551521, -0.015366395935416222, 0.05964937061071396, -0.03222091123461723, -0.0012145162327215075, 0.003440450644120574, -0.0010713287629187107, 0.00031537917675450444, 0.00024864228907972574], [-0.033012036234140396, -0.001894292887300253, 0.07056937366724014, -0.06177566573023796, 0.03355884552001953, -6.319394742604345e-05, 0.0001141588727477938, 0.010745962150394917, 0.027949688956141472, -0.021161295473575592, -0.01915445737540722, -0.021860873326659203, -0.0288870707154274, -0.0006116497679613531, -0.002010050229728222, -0.014055426232516766, -0.07640187442302704, -0.00730650732293725, 0.0021517786663025618, -0.009835721924901009, -0.04628236964344978, 0.034249018877744675, 0.0034885641653090715, -0.018025994300842285, 0.004330718889832497, 0.015296845696866512, -0.05549909174442291, 0.00026914215413853526, 0.04065955430269241, 1.4862143871141598e-07, -0.00011097822425654158, -1.567675826663617e-05], [-0.016807766631245613, 0.0011556781828403473, 0.09818313270807266, 0.00622874591499567, 0.06241842359304428, -0.012766227126121521, 0.005171742755919695, 0.07767017930746078, 0.10019993782043457, 0.027013465762138367, -0.026748375967144966, -0.06027308106422424, 0.006457240786403418, 0.011885834857821465, -0.0009599078330211341, 0.015526628121733665, 8.602884190622717e-05, -0.004177501425147057, -0.0019550109282135963, 0.0042761326767504215, -0.04549012705683708, 0.021627509966492653, 0.030366528779268265, 0.010471303947269917, 0.06362516433000565, 0.06987875699996948, -0.11172659695148468, -0.0323222316801548, 0.022873297333717346, -0.0010886375093832612, 0.0007462967769242823, 0.0012154853902757168], [-0.00017810348072089255, -0.00011603793245740235, 0.031968362629413605, -0.0032500820234417915, -0.0653262510895729, -0.0005153172533027828, -2.3754084395477548e-05, -0.01951098069548607, -0.008365078829228878, 0.06342446058988571, -0.006441399920731783, 0.009067579172551632, 0.014895541593432426, 0.0007906884420663118, -0.0003211905714124441, -0.029665661975741386, 0.03657294064760208, 2.0032894099131227e-06, -0.00029287004144862294, -8.436055213678628e-05, -0.0005938122048974037, 0.013000805862247944, 0.006535389926284552, 0.0016599104274064302, 0.03977058082818985, 0.003481606487184763, -0.05470680072903633, 0.003381944727152586, 0.004686152562499046, 0.0001580578536959365, -1.9415336282690987e-05, -0.0005844967672601342], [-0.0016733399825170636, -0.0015192663995549083, -0.0006957037840038538, 0.007566229440271854, -0.10832273215055466, -0.00014554508379660547, -0.0016017985763028264, 0.038979507982730865, 0.003941546194255352, -0.015879176557064056, -0.04698101431131363, -0.10022891312837601, -0.02226661704480648, -0.0010883926879614592, -0.00745953805744648, -0.020037340000271797, -0.12555503845214844, 0.0051107569597661495, -0.0050911810249090195, -0.011638523079454899, 0.03329499065876007, -0.03623397275805473, 1.549326589156408e-05, 0.019427452236413956, -0.04068367928266525, -0.15866026282310486, 0.0335233099758625, 0.004557277541607618, 0.006205601152032614, 0.0002872708428185433, -0.0006377478130161762, -0.00021844933507964015], [-0.005534801632165909, 0.003510398557409644, -0.023427849635481834, -0.07313399016857147, -0.1384715586900711, 0.006149993743747473, 0.014184034429490566, 0.0919419452548027, 0.13337570428848267, 0.11603377014398575, 0.016980497166514397, 0.10458312928676605, -0.049702536314725876, -0.01837664656341076, -0.02056793123483658, -0.06455890834331512, 0.09499228000640869, 0.002723732963204384, -0.019264301285147667, -0.010383331216871738, 0.08433540910482407, -0.09124306589365005, 0.048243772238492966, -0.05606900528073311, 0.017646819353103638, -0.14869190752506256, -0.029960112646222115, 0.017676422372460365, 0.005632230546325445, 0.011503875255584717, 0.0029076947830617428, 0.00500896293669939], [-0.07324495911598206, 0.0380927138030529, -0.043069496750831604, 0.03290015086531639, 0.028056520968675613, 0.026516633108258247, 0.06457007676362991, -0.11486605554819107, 0.054053835570812225, 0.1508077085018158, 0.14027199149131775, 0.014316997490823269, -0.15257477760314941, -0.14802181720733643, -0.031732942909002304, -0.09843064099550247, 0.13336114585399628, 0.1266307830810547, -0.10573733597993851, 0.022757364436984062, 0.021564587950706482, 0.07082895934581757, -0.04047592729330063, 0.013146568089723587, 0.06793602555990219, -0.08768469840288162, 0.14432178437709808, -0.07605667412281036, 0.08414638042449951, -0.08810889720916748, -0.046706147491931915, -0.105478934943676], [-0.04258966073393822, 0.04537820816040039, -0.005443177651613951, 0.00911780633032322, 0.0032851232681423426, -0.04848970100283623, 0.07126586139202118, 0.13646891713142395, 0.15262675285339355, 0.09139590710401535, -0.10796745121479034, 0.009465298615396023, 0.11635372042655945, -0.06374429166316986, 0.006167155224829912, 0.07986562699079514, 0.120820552110672, -0.04026549309492111, -0.07256383448839188, -0.004718509968370199, -0.03818139061331749, 0.13840195536613464, 0.033192720264196396, -0.015026477165520191, 0.051248859614133835, -0.15528714656829834, 0.01228490099310875, 0.05280892550945282, 0.07467581331729889, -0.07012686878442764, 0.03577391058206558, -0.04043935239315033], [-0.04380327835679054, 0.005597441922873259, 0.03642696142196655, 0.0685603991150856, 0.11559904366731644, -0.04299318417906761, 0.022131145000457764, 0.04635467752814293, 0.11190257221460342, 0.13625140488147736, -0.021444013342261314, 0.006354641169309616, -0.06677131354808807, 0.01168510876595974, -0.002032191725447774, 0.044100213795900345, -0.10438347607851028, 0.003340383293107152, -0.011868508532643318, -0.0027823527343571186, -0.023123936727643013, -0.08498325198888779, 0.04852328449487686, -0.08984805643558502, 0.033982474356889725, -0.15299127995967865, 0.09727085381746292, -0.08264058083295822, 0.04228466749191284, -0.0354781411588192, 0.002024373272433877, 0.0009652443113736808], [-0.09752250462770462, -0.04299665987491608, -0.05569286271929741, 0.041730619966983795, 0.025948524475097656, -0.003049583174288273, 0.01232314296066761, 0.07735240459442139, -0.11467495560646057, 0.057288024574518204, -0.08388303220272064, -0.016026435419917107, -0.0026470643933862448, 0.007555218879133463, 0.02930937521159649, 0.013869610615074635, -0.052146703004837036, -0.07651180028915405, 0.03567320108413696, -0.0015801710542291403, 0.07717111706733704, 0.08579272776842117, -0.03979208692908287, 0.05059940740466118, 0.08408929407596588, -0.10861493647098541, -0.051376454532146454, -0.01942562684416771, -0.011939173564314842, 0.02003627084195614, 0.014933811500668526, 0.0012314710766077042], [0.004399583209306002, 0.000576024001929909, 0.027436750009655952, -0.011213164776563644, 0.013370485976338387, -0.0017763131763786077, -0.00015521305613219738, 0.012434071861207485, 0.06754547357559204, 0.010334540158510208, 0.07229414582252502, -0.024035438895225525, 0.009798518382012844, -0.0007375548593699932, -0.0019188616424798965, 0.09702727198600769, -0.09150417894124985, -0.0008705269428901374, -0.0019137661438435316, 0.0018153846031054854, 0.010808027349412441, -0.01483924686908722, -0.0011449886951595545, 0.0053374553099274635, -0.01057080365717411, -0.08918709307909012, -0.05766742303967476, -0.0022881038021296263, -0.04868707433342934, -0.0020047754514962435, 0.0005097737303003669, 0.0003238565113861114], [-0.0006291045574471354, 6.064110129955225e-05, 0.011585447005927563, -0.0017100464319810271, 0.0030766725540161133, -0.0001423700014129281, 2.624455555633176e-05, 0.001531150657683611, 0.0477093942463398, -0.009214930236339569, 0.004387119319289923, -0.00010030821431428194, 0.0011249457020312548, -3.1760202546138316e-05, -0.00012824170698877424, 0.012023331597447395, -0.025243062525987625, 3.700345769175328e-05, -7.650628685951233e-05, 7.566066778963432e-05, 0.005065649747848511, -0.000265456095803529, -5.400791997089982e-05, -0.009411372244358063, -0.003527883207425475, 0.017823386937379837, -0.014292089268565178, -0.0001404885115334764, 0.0029472308233380318, -0.0002234793792013079, 2.8154992833151482e-05, 0.00011612364323809743], [-0.0005346101243048906, -5.00898458994925e-05, 0.0005423084949143231, -0.0003040758892893791, -0.0028669340535998344, -0.0003140298940706998, -0.00016049997066147625, 0.00040171484579332173, 0.010532096959650517, 0.000530358636751771, 0.0005288774846121669, -0.000710930849891156, -1.732585769786965e-05, -0.00027621330809779465, -0.0006334263016469777, 0.0008521658601239324, -0.0006891128141433001, -0.0003161212371196598, -0.0016239200485870242, 0.0002730856358539313, 4.512014493229799e-05, 0.0004275576211512089, -0.0005372582236304879, -0.0002489329199306667, 0.0007684370502829552, -0.004830671939998865, -0.002608292270451784, -0.00045169200166128576, -0.0005198909784667194, -1.8953527614939958e-05, 0.0001447773538529873, -9.074970876099542e-05], [-0.010722300969064236, -4.466468089958653e-05, 0.028865352272987366, 0.012882583774626255, 0.04629284143447876, -0.000272895471425727, -0.00010975658369716257, 0.004400616977363825, 0.10780110210180283, -0.021100832149386406, -0.03810128569602966, 0.01702810823917389, -0.00852090585976839, -7.92188075138256e-05, -0.0001295087713515386, 0.010134926065802574, 0.03827635943889618, -0.0005415374180302024, -0.00038278018473647535, -2.7333662728779018e-05, 0.007834406569600105, -0.0014324249932542443, 0.000589504896197468, 0.04551687464118004, -0.014491627924144268, -0.0032357675954699516, -0.036101024597883224, -0.0010809884406626225, -0.04700838774442673, -0.00015297620848286897, 3.422846202738583e-05, -0.00013431200932245702], [-0.008527166210114956, -3.0350633096531965e-05, 0.029774969443678856, -0.007160137873142958, 0.011989988386631012, -0.00015130142855923623, -6.602206121897325e-05, 0.0032734875567257404, -0.007264604791998863, 0.046238869428634644, -0.02530338242650032, -0.04774344712495804, -0.004015234299004078, -2.8407488571247086e-05, -0.00021995579299982637, 0.06183220073580742, 0.008616936393082142, 0.0007923560333438218, -0.00012985132343601435, -0.00031280514667741954, -0.039695434272289276, 0.02415708266198635, 0.001209595357067883, 0.034937623888254166, 0.029362890869379044, 0.06578022986650467, -0.04909880459308624, -0.0006632053409703076, -0.04288665950298309, -0.00017891061725094914, 4.416989395394921e-05, -5.1784325478365645e-05], [-0.00649999687448144, 0.001219266909174621, 0.016350341960787773, 0.00941467098891735, -0.10185568779706955, 0.009196563623845577, 0.0008949202601797879, -0.010981699451804161, -0.1076788604259491, -0.048425257205963135, 0.07821612060070038, 0.02002108283340931, -0.01961643621325493, 0.0061139268800616264, -0.002619995502755046, 0.014559286646544933, -0.05586050823330879, -0.0016577884089201689, -0.0026228800415992737, 0.0017299018800258636, -0.023968106135725975, -0.04357689246535301, 0.02890150249004364, 0.03678461164236069, -0.053062111139297485, 0.1019628718495369, -0.021607443690299988, -0.03265704959630966, 0.021898018196225166, 0.0018015129026025534, 0.0008764559752307832, 0.000976408482529223], [-0.057895638048648834, 0.033404044806957245, 0.11313152313232422, -0.015970421954989433, -0.00578742241486907, 0.00040648976573720574, 0.012020384892821312, 0.004906365182250738, -0.07707149535417557, 0.070144422352314, 0.1624300181865692, 0.03121287003159523, -0.10266770422458649, 0.008435829542577267, 0.019437335431575775, -0.1265934854745865, 0.004318746738135815, -0.04120787978172302, -0.02640087716281414, -0.02936840057373047, -0.04810207709670067, 0.08165938407182693, -0.04897860810160637, 0.08157812058925629, -0.08820442855358124, -0.10422345995903015, 0.004270386882126331, -0.047980453819036484, -0.03336968272924423, 0.06456119567155838, 0.02794838696718216, 0.019884075969457626], [-0.07818563282489777, 0.0017153428634628654, -0.1198267936706543, -0.07199353724718094, -0.08686517924070358, 0.009948461316525936, -0.038957443088293076, -0.07030592858791351, -0.05242563784122467, 0.008479736745357513, 0.12351638823747635, 0.12626321613788605, -0.11625255644321442, 0.07514239847660065, -0.037804026156663895, 0.07783009111881256, 0.14048874378204346, -0.06655558198690414, -0.017595995217561722, 0.04333536699414253, 0.07275325059890747, -0.011915992945432663, 0.03084135241806507, 0.010211323387920856, -0.0737612172961235, -0.14439113438129425, 0.02099962905049324, -0.11315225809812546, -0.05707791820168495, 0.03319112956523895, 0.07664550095796585, -0.01020885445177555], [0.010741517879068851, 0.000863386900164187, -0.026447247713804245, 0.044726453721523285, -0.1458185464143753, -0.053899750113487244, 0.014836237765848637, 0.005601883865892887, 0.07151232659816742, -0.01886744424700737, -0.009268932044506073, -0.028391020372509956, -0.03551720827817917, -0.006936040241271257, -0.0028414521366357803, 0.04545058310031891, -0.01559939980506897, -0.0008570154313929379, -0.005792015697807074, 0.0073697688058018684, 0.011632171459496021, 0.0689902976155281, 0.000262642337474972, -0.0624174065887928, 0.11639749258756638, -0.1733369380235672, 0.05560978502035141, -0.00469510443508625, -0.0032946874853223562, 0.0058984169736504555, -0.0010886192321777344, 0.0010109046706929803], [-0.011857573874294758, -5.243632767815143e-05, 0.04243718832731247, 0.014734677970409393, -0.009877266362309456, -9.161887282971293e-05, -5.291949491947889e-05, 0.012580186128616333, 0.06812301278114319, 0.0574190691113472, 0.027653537690639496, 0.03111441433429718, -0.004415455739945173, 5.377856723498553e-05, -0.00019309110939502716, -0.03291470557451248, -0.06094148010015488, 0.002361565362662077, -8.845388947520405e-05, 0.0012335958890616894, -0.03610461950302124, 0.010207859799265862, 0.0026249089278280735, 0.010643847286701202, 0.02062479592859745, -0.12562507390975952, 0.02743510715663433, -0.002024817280471325, 0.007332637906074524, -0.00031271582702174783, 3.403234950383194e-05, 9.090834282687865e-06], [-0.06947813928127289, 0.049037110060453415, 0.09597565233707428, 0.09450293332338333, -0.10137055069208145, 0.026332110166549683, 0.028270404785871506, -0.007615399546921253, 0.1347348541021347, 0.00704003032296896, 0.10529002547264099, 0.007007708307355642, -0.09261112660169601, -0.08790707588195801, -0.007828949950635433, -0.12489844113588333, 0.1375553160905838, -0.0016170645831152797, -0.03318393975496292, 0.05470049008727074, 0.03106541931629181, 0.017897654324769974, -0.05370451882481575, 0.047265537083148956, 0.14044277369976044, -0.16171589493751526, 0.05753936991095543, -0.07354320585727692, -0.031518056988716125, 0.03586709126830101, 1.9355196855030954e-05, -0.030629269778728485], [0.025649618357419968, 0.007511836010962725, -0.023429660126566887, 0.05542067438364029, -0.03337930515408516, 0.04538104683160782, -0.015126332640647888, 0.0139490170404315, 0.10879936814308167, 0.08738034963607788, -0.053947702050209045, -0.07028920203447342, -0.022942548617720604, 0.020861679688096046, -0.007469833362847567, -0.06454551219940186, -0.14548370242118835, -0.01780974492430687, -0.03091392293572426, 0.03316177427768707, -0.060028672218322754, 0.11947042495012283, 0.047195516526699066, -0.013154935091733932, -0.022065745666623116, -0.14121493697166443, -0.07874796539545059, 0.04977468401193619, 0.10219895839691162, -0.05329518020153046, 0.027934197336435318, -0.02416028082370758], [-0.02369845099747181, 0.005219509359449148, 0.040287524461746216, 0.011575070209801197, 0.03418731316924095, -0.0020300813484936953, 0.007835530675947666, -0.07603953778743744, 0.09407250583171844, 0.01713036186993122, 0.03598479926586151, -0.0711803212761879, -0.05295833945274353, -0.033456798642873764, 0.00378177547827363, -0.10003791004419327, 0.01544862985610962, -0.007459316402673721, -0.007796101737767458, -0.015271848998963833, -0.0602240152657032, 0.09509643912315369, -0.011809848248958588, -0.0684412345290184, 0.09679178893566132, -0.06472522020339966, -0.01047197263687849, 0.006677035242319107, -0.01361786387860775, -0.013188225217163563, -0.005319842603057623, -0.002361909719184041], [-0.021831190213561058, -0.007258778903633356, 0.0019841783214360476, -0.05427927151322365, -0.11979889869689941, -0.00022342625015880913, -0.00753356609493494, 0.04855955392122269, 0.03948642313480377, -0.04588223993778229, 0.02860020473599434, -0.07427266240119934, -0.03498954325914383, -0.0012119825696572661, 0.014664851129055023, 0.1259373426437378, 0.023033631965517998, 0.009048295207321644, 0.007306600455194712, -0.005195632576942444, -0.05785004422068596, 0.04822542890906334, -0.0017779474146664143, 0.028985030949115753, 0.009026199579238892, 0.018684862181544304, -0.04294963926076889, 0.0077727800235152245, -0.0024260985665023327, 0.003532868344336748, -0.002566851442679763, -0.0006604396039620042], [-0.08615199476480484, -0.07583605498075485, 0.008620749227702618, 0.022365236654877663, -0.1037643700838089, -0.00860929861664772, -0.05387655645608902, -0.05162203311920166, 0.03156730532646179, -0.07895509898662567, 0.1552741974592209, 0.09545130282640457, 0.045045554637908936, -0.05558411031961441, -0.013317235745489597, 0.06258589029312134, 0.016576945781707764, -0.06574292480945587, 0.06971428543329239, 0.05978570133447647, 0.11325418204069138, 0.08094315230846405, 0.03974958509206772, -0.1079859510064125, 0.10413305461406708, -0.14336560666561127, -0.054456401616334915, 0.04018494114279747, -0.1222061887383461, 0.01716911792755127, -0.02795662358403206, 0.010774947702884674], [-8.549918675271329e-07, -2.0079140085726976e-05, 0.030165914446115494, -0.003187314374372363, 0.019744422286748886, 0.00016956703620962799, -3.3407639421056956e-05, -0.011485683731734753, 0.03603139892220497, 0.058992333710193634, 0.027759958058595657, -0.014764439314603806, -0.007601378485560417, 0.00036328737041912973, -4.862213245360181e-05, 0.08674731105566025, -0.030659019947052002, -6.109658716013655e-05, -3.896982889273204e-05, 6.352375203277916e-05, -0.00020713765115942806, 0.022307034581899643, 0.007845782674849033, 0.01504987757652998, -0.012234923429787159, -0.030757656320929527, -0.020263688638806343, 0.005461750086396933, 0.006907093338668346, -7.09892192389816e-05, 2.2883687051944435e-05, -3.747177106561139e-05], [-0.00021305671543814242, 3.905333869624883e-05, -0.016281183809041977, 0.0014165386091917753, 0.048870719969272614, -4.815023567061871e-05, 7.98137762103579e-07, 0.02095160260796547, 0.09979397803544998, 0.03357164189219475, -0.0051251365803182125, 0.002190476283431053, 0.006442979443818331, -1.5628858818672597e-05, -7.167143485276029e-05, 0.05870090425014496, -0.03995589166879654, -2.4225868401117623e-05, -4.174214700469747e-05, 0.00012375981896184385, -0.0008251763647422194, -0.0156254880130291, -0.0010880527552217245, -0.003553148824721575, -0.019038379192352295, -0.0443568117916584, -0.03573159873485565, -0.0026648950297385454, -0.004347612150013447, -0.00022215423814486712, 2.945217966043856e-05, 7.654706132598221e-05], [-0.00142941705416888, 0.0011011877795681357, -0.030631864443421364, -0.006429147440940142, 0.028154665604233742, -0.0009974162094295025, 0.00021844086586497724, 0.01598661206662655, 0.08217107504606247, 0.00874611921608448, -0.059631142765283585, 0.03975743055343628, -0.0014028794830664992, -0.0003270471643190831, -0.000558329513296485, 0.07881497591733932, -0.07300237566232681, -0.006712133064866066, 0.0005593171226792037, -0.004423853941261768, 0.010272309184074402, 0.012637092731893063, -0.0019906165543943644, -0.07847706973552704, -0.014379295520484447, 0.004705752246081829, -0.08489954471588135, -0.0009044751059263945, -0.06265835464000702, -0.00167762185446918, 0.0004529693687800318, 0.0009160673944279552], [-0.01980176754295826, -0.01512608677148819, 0.12366117537021637, -0.11855056136846542, 0.11421468108892441, -0.1385258585214615, 0.09846770763397217, -0.11501367390155792, -0.037169769406318665, -0.13428598642349243, -0.11614179611206055, -0.07825105637311935, 0.1249576061964035, 0.01911923661828041, -0.07213371247053146, -0.13772828876972198, 0.13064192235469818, -0.02575412392616272, -0.09841522574424744, 0.06285670399665833, -0.10753146559000015, 0.1601801961660385, 0.09747155010700226, 0.11843585968017578, -0.09682485461235046, -0.13855338096618652, 0.13753487169742584, -0.06324483454227448, 0.12694095075130463, 0.043939169496297836, 0.08082520216703415, -0.08667272329330444], [0.0727219432592392, 0.020210139453411102, 0.11136261373758316, 0.06073075905442238, -0.09629368036985397, -0.004319892730563879, -0.012855984270572662, 0.03127208352088928, 0.026763638481497765, -0.12417074292898178, 0.006258630193769932, 0.016394199803471565, -0.11716793477535248, 0.0015392189379781485, 0.06369185447692871, -0.08311987668275833, -0.09612977504730225, 0.011294289492070675, -0.04076080769300461, 0.07092100381851196, -0.08622163534164429, 0.14347653090953827, -0.060616180300712585, -0.03570407256484032, 0.05525016784667969, -0.08622715622186661, -0.13335561752319336, 0.059736497700214386, 0.03829455375671387, -0.016054658219218254, 0.039937231689691544, 0.01763884723186493], [-0.007215428631752729, 0.0002987500629387796, -0.004125408362597227, 0.022615592926740646, 0.03338325023651123, -0.0002913804491981864, -0.00011332451686030254, 0.0017048409208655357, -0.026122989133000374, 0.06640991568565369, -0.04778668284416199, 0.014105357229709625, 0.004896367900073528, -0.00010795114212669432, -0.0008180358563549817, 0.08494345843791962, 0.055350448936223984, 0.0038374627474695444, -2.5449608074268326e-05, -0.00011233067198190838, -0.008088176138699055, -0.0044594453647732735, 0.0008009521407075226, -0.04370022937655449, -0.005983375944197178, 0.01727447845041752, 0.009604108519852161, -0.0007201567059382796, 0.006051831413060427, -0.0011034123599529266, 0.00016432037227787077, 0.00047666527098044753], [-0.007329157553613186, 0.0022501228377223015, 0.1069515198469162, -0.04575829207897186, -0.0391564667224884, -0.0014659315347671509, -0.0002934830845333636, 0.01630007103085518, 0.025210769847035408, 0.09555495530366898, 0.0751999244093895, -0.09068480134010315, -0.015560821630060673, -0.0011361934011802077, 0.005050401668995619, 0.05712101608514786, -0.06994778662919998, -0.01982307992875576, -0.004181453492492437, -0.0001613109780009836, 0.04346912354230881, -0.023821426555514336, 0.0020817776676267385, -0.10285760462284088, 0.060675784945487976, 0.03180699050426483, 0.0026532288175076246, -0.0037602121010422707, -0.008421476930379868, -0.0033697066828608513, 0.0004095535259693861, 0.0016650984762236476], [0.005475393030792475, 0.00047099689254537225, 0.028203051537275314, -0.009733241982758045, -0.007300152909010649, -0.001144294161349535, -0.0003989201504737139, 0.005874238908290863, 0.08683355152606964, -0.04893689975142479, 0.048411961644887924, -0.00014252838445827365, -0.011804729700088501, -0.0003106499498244375, -0.0010997330537065864, -0.0494195781648159, -0.04473093897104263, -0.0049996222369372845, -0.0012519306037575006, -0.0014961215201765299, 0.025157814845442772, -0.02281034365296364, 0.0015236418694257736, -0.04060123488306999, 0.03490500897169113, -0.0013599859084933996, -0.0536484532058239, -0.0015224451199173927, -0.030307939276099205, -0.0010082764783874154, 0.00028585910331457853, 0.0003000605502165854], [0.012667846865952015, 0.0011540097184479237, -0.017891356721520424, 0.007972585037350655, -0.09405359625816345, -5.0422444473952055e-05, 0.0002130344946635887, -0.0037381593137979507, -0.03328070789575577, 0.06829420477151871, -0.054340675473213196, 0.002542091766372323, -0.008776300586760044, -5.9927315305685624e-05, -0.00034956602030433714, 0.017572656273841858, -0.050974246114492416, -0.004150365479290485, -0.001624704455025494, -0.00423912238329649, -0.02798079326748848, -0.009184472262859344, -0.004470650106668472, 0.010505595244467258, 0.01899724267423153, -0.03050106018781662, -0.00888705626130104, 0.00015279470244422555, 0.03617952764034271, -5.452095501823351e-05, -4.770330269820988e-05, -7.117731911421288e-06], [-0.01118768285959959, 0.0009447644115425646, 0.09265464544296265, -0.027363095432519913, 0.0520378053188324, 0.00634556170552969, -0.004100871738046408, 0.028111997991800308, 0.08618522435426712, 0.04296605661511421, -0.03831380978226662, 0.0615009143948555, -0.008748329244554043, 0.010777822695672512, -0.0020268887747079134, -0.011384306475520134, -0.09696713835000992, -0.0008254034910351038, -0.0016354796243831515, 0.004424339160323143, -0.04578462988138199, -0.04855133220553398, -0.03881917521357536, 0.036901503801345825, -0.06635554134845734, -0.012905280105769634, 0.017153697088360786, -0.0031619048677384853, -0.0009648095001466572, -0.0031468775123357773, 0.0012270802399143577, 0.0008657609578222036], [-2.2219905076781288e-05, -0.00011705891665769741, -0.04805580899119377, -0.004327978938817978, 0.05881837010383606, -0.0009332236368209124, 3.7902063922956586e-05, -0.02487664669752121, 0.1158587858080864, 0.06810858100652695, 0.012401183135807514, -0.015028745867311954, 0.024853374809026718, -0.004822644870728254, -0.0003111407859250903, 0.056925803422927856, 0.02345365472137928, 8.597598935011774e-07, -0.000175798442796804, -0.00012999371392652392, 0.0023406236432492733, 0.023445850238204002, -0.015798665583133698, -0.0425511971116066, 0.03338421508669853, 0.08957958221435547, 0.02489810436964035, -0.0015938280848786235, 0.009950699284672737, -7.944500248413533e-05, -3.549493703758344e-05, -0.0004210378392599523], [0.0018025118624791503, -0.003129448974505067, -0.03341102600097656, 0.02703992649912834, -0.11625517159700394, -0.00012291646271478385, 0.0013203276321291924, 0.01788431406021118, -0.02878445014357567, 0.030541816726326942, 0.029577162116765976, -0.07917333394289017, -0.01014585793018341, 5.76367492612917e-05, 0.009040124714374542, -0.006804811302572489, -0.04108819738030434, -0.009269620291888714, 0.005291622597724199, 0.003314047120511532, -0.06267833709716797, -0.002349241403862834, 0.001912247622385621, -0.08856692165136337, 0.04196048527956009, 0.0779612585902214, -0.11601060628890991, -0.0029765935614705086, -0.03744620829820633, -0.002416223054751754, 0.000152025546412915, -0.00022253340284805745], [0.026644868776202202, 0.012357107363641262, 0.12516257166862488, -0.002169419080018997, 0.05797472596168518, 0.023582013323903084, 0.0037107535172253847, 0.06740957498550415, 0.016105877235531807, 0.10971511155366898, 0.01942349039018154, 0.0915982648730278, -0.05896575376391411, -0.02411160059273243, 0.0031491746194660664, 0.06590207666158676, 0.009236583486199379, -0.014799431897699833, -0.007481883745640516, 0.006887384690344334, -0.02432195656001568, 0.06310459226369858, -0.004859554581344128, 0.060272421687841415, 0.10705875605344772, -0.07986915111541748, 0.004443366080522537, -0.04478367418050766, -0.04756147041916847, -0.01595766842365265, 0.0008536424138583243, 0.002292930381372571], [-0.0020260170567780733, 0.11132247745990753, 0.053126007318496704, -0.029407836496829987, -0.10086898505687714, -0.10482753813266754, 0.05685356631875038, 0.07145845144987106, -0.02536032535135746, 0.055140893906354904, -0.02329053357243538, 0.13963206112384796, -0.08846079558134079, 0.08506877720355988, -0.05261091887950897, 0.0787070095539093, -0.10692943632602692, -0.007943445816636086, -0.11407946050167084, -0.07749097049236298, -0.09414781630039215, 0.04063977301120758, 0.01182067021727562, -0.048740312457084656, -0.11365728825330734, -0.09861841052770615, 0.05857639014720917, -0.1696755737066269, -0.13456737995147705, 0.01110102143138647, 0.04894471913576126, -0.003213308984413743], [-0.044085294008255005, 0.05453956499695778, -0.040367744863033295, 0.015059981495141983, -0.16282759606838226, 0.04964302107691765, -0.032673805952072144, -0.10360334813594818, 0.15435947477817535, 0.08547087758779526, 0.12669433653354645, 0.10840820521116257, 0.045794785022735596, -0.0738697424530983, 0.025974387302994728, 0.1211865022778511, -0.1064654290676117, 0.017658958211541176, -0.047437358647584915, -0.042442578822374344, -0.12204735726118088, -0.006011306773871183, 0.07524601370096207, 0.03920925036072731, -0.10958265513181686, -0.030282292515039444, 0.08430853486061096, -0.06281060725450516, 0.10096586495637894, 0.002026147209107876, 0.036600302904844284, -0.011723333969712257], [0.009974579326808453, 0.0060623385943472385, -0.027425915002822876, 0.027944348752498627, -0.038106586784124374, -0.0343567319214344, -0.005412775557488203, 0.01921887882053852, 0.13138331472873688, 0.07035645842552185, -0.10132832825183868, -0.05744693800806999, -0.018825357779860497, -0.004053595941513777, -0.0048784734681248665, 0.15107540786266327, -0.06633194535970688, -0.005066149402409792, -0.008368897251784801, 0.004596206825226545, -0.009638017043471336, 0.030486179515719414, 0.0223857332020998, -0.05406653881072998, -0.0182949211448431, 0.05339039862155914, 0.09833645075559616, -0.07709444314241409, -0.035224273800849915, -0.015941230580210686, 0.003551568603143096, -0.0006798054673708975], [-0.05197744071483612, 0.02173524536192417, -0.022057870402932167, 0.057484425604343414, 0.08823814243078232, -0.007625281810760498, -0.04440620169043541, 0.05530354380607605, 0.1331193596124649, 0.019387083128094673, -0.10439903289079666, 0.09160303324460983, 0.006404557731002569, -0.00380878709256649, 0.04363539442420006, -0.08468832075595856, -0.012459668330848217, -0.009810666553676128, 0.04710174351930618, 0.04099126532673836, -0.02463308535516262, 0.07851430028676987, 0.05274057015776634, 0.09766431897878647, 0.09253834187984467, 0.09704551100730896, -0.12694300711154938, -0.009778239764273167, -0.05398080497980118, 0.025618067011237144, -0.006738077849149704, 0.0016758997226133943], [-0.0005889342282898724, 0.0004651847411878407, 0.02575055882334709, -0.0039027188904583454, 0.0029226583428680897, -0.0016552895540371537, 0.0005812622839584947, 0.014586280100047588, -0.059533171355724335, -0.04303456470370293, 0.08354901522397995, -0.044209133833646774, 0.005292728077620268, -0.000549106509424746, -0.001799078774638474, 0.0514971986413002, -0.05938471481204033, -0.0045027416199445724, -0.0018587278900668025, 0.0004878104664385319, -0.03173435851931572, 0.03383301943540573, 0.0017717625014483929, -0.015385742299258709, 0.051528993993997574, -0.0026247152127325535, -0.07085622102022171, -0.0034901145845651627, 0.035098809748888016, -0.004524620715528727, 0.0004945299588143826, 0.000310653995256871], [-0.001192548661492765, 4.733280002255924e-05, 0.022509092465043068, -0.0025452289264649153, -0.020293746143579483, -0.00012870505452156067, 1.2391890777507797e-05, 0.0007277157856151462, 0.014222820289433002, 0.011750800535082817, 0.037358563393354416, 0.006816470995545387, -0.0010982794919982553, -2.5983183149946854e-05, -0.00010759513679658994, 0.04430937394499779, -0.013971129432320595, 2.658478479133919e-05, -7.13127083145082e-05, 7.795902638463303e-05, -0.009667911566793919, -0.002956568729132414, -4.85894524899777e-05, -0.014799398370087147, 0.008544459007680416, -0.009455450810492039, -0.03180147707462311, -0.00012601391063071787, -0.0008249135571531951, -0.0001856918097473681, 3.008844214491546e-05, 0.00014387576084118336], [-0.00047707222984172404, -6.923176988493651e-05, 0.00047100053052417934, -0.00027413544012233615, -0.0025811640080064535, -0.0004838694294448942, -0.00012232607696205378, 0.00037251002504490316, 0.012819960713386536, 0.003962344955652952, 0.0005015757051296532, -0.000678424839861691, -7.96286894910736e-06, -7.793786789989099e-05, -0.0012012503575533628, 0.008883640170097351, -0.0022637159563601017, -0.00017640188161749393, -0.0014037402579560876, 0.00022783783788327128, 5.6668155593797565e-05, 0.0004055952013004571, -0.00040356075624004006, -0.00023209024220705032, 0.0007220828556455672, -0.012283584102988243, -0.002903564367443323, -0.00042029254836961627, -0.0005086907185614109, 1.4761348211322911e-05, 0.00011123348667751998, -9.610170673113316e-05], [0.0505281537771225, 0.08588838577270508, 0.11940672993659973, -0.06424169987440109, -0.1342535763978958, 0.02329127863049507, 0.07061979919672012, 0.10493332892656326, 5.253926428849809e-05, -0.02254938706755638, 0.11006703972816467, -0.17194244265556335, -0.09432898461818695, 0.07246025651693344, -0.11390827596187592, -0.12661664187908173, -0.1459716260433197, 0.02657257206737995, 0.09465230256319046, 0.028902888298034668, 0.07598477602005005, 0.12579266726970673, 0.017662420868873596, -0.011774932965636253, -0.0006373140495270491, 0.05114712193608284, -0.0846991091966629, 0.024477556347846985, -0.16641685366630554, 0.15487706661224365, -0.12080500274896622, 0.07062254846096039], [-0.10500985383987427, -0.16697083413600922, 0.0660451203584671, -0.0029053082689642906, -0.043834175914525986, -0.017604680731892586, -0.1704968512058258, 0.11847495287656784, 0.12155500054359436, 0.17943628132343292, -0.10976042598485947, 0.09646249562501907, -0.024446072056889534, 0.049191683530807495, 0.14372287690639496, 0.08628065139055252, 0.007014651317149401, 0.10386069864034653, 0.14796890318393707, 0.033660534769296646, 0.06027483940124512, 0.0961214229464531, -0.07286350429058075, -0.18529771268367767, 0.10112367570400238, 0.040273018181324005, 0.08618040382862091, 0.1398981362581253, 0.09749439358711243, 0.11374697089195251, 0.0036716782487928867, -0.00871899351477623], [0.12684853374958038, 0.033939871937036514, -0.16072462499141693, -0.09256066381931305, 0.19821050763130188, 0.1318836510181427, -0.13210532069206238, -0.1616046279668808, -0.16188599169254303, -0.08175349980592728, -0.04867606982588768, -0.1314389407634735, -0.12477624416351318, 0.16765300929546356, -0.017076218500733376, 0.016954561695456505, -0.046885982155799866, -0.09121391177177429, 0.10333937406539917, 0.10287757962942123, 0.1254463940858841, -0.1593068540096283, 0.0432194322347641, -0.09105872362852097, 0.05476415157318115, 0.13295069336891174, -0.04850360006093979, 0.1742449551820755, -0.04368392378091812, 0.06517169624567032, -0.041304294019937515, -0.045194391161203384], [-0.17538069188594818, -0.1450263410806656, -0.10186182707548141, -0.0796014815568924, 0.10189138352870941, -0.009038306772708893, 0.09525918960571289, 0.07382404059171677, -0.10690560191869736, 0.008151603862643242, -0.1063607931137085, -0.010797553695738316, -0.11628236621618271, 0.018465876579284668, -0.019413281232118607, -0.04277670383453369, -0.14427168667316437, -0.02562561258673668, -0.05972103402018547, -0.025312351062893867, -0.040218908339738846, -0.07817046344280243, -0.020244888961315155, -0.016664044931530952, 0.0093357739970088, -0.12755735218524933, -0.09680848568677902, 0.13524137437343597, 0.07332209497690201, 0.15181873738765717, -0.09191719442605972, 0.0716533437371254], [-0.017001863569021225, -0.09479351341724396, -0.05232837051153183, -0.010410516522824764, 0.16060440242290497, 0.06320247054100037, -0.04840268939733505, -0.10593926161527634, -0.012275654822587967, 0.065859355032444, -0.049274805933237076, 0.12060050666332245, 0.057789139449596405, -0.003938490059226751, -0.15361183881759644, -0.029971495270729065, 0.0578836053609848, -0.03705640882253647, -0.03810806944966316, 0.1755257546901703, 0.12511183321475983, -0.016284679993987083, 0.07247145473957062, -0.15400925278663635, 0.07975468784570694, 0.12178388983011246, 0.15158578753471375, 0.08976242691278458, -0.06566053628921509, -0.16756469011306763, -0.10502588748931885, -0.10619773715734482], [-0.10638169199228287, -0.10826897621154785, 0.138946071267128, -0.01722291111946106, 0.07344433665275574, -0.03170411288738251, 0.02101665548980236, -0.026519808918237686, -0.08661430329084396, -0.06259983777999878, -0.032107044011354446, -0.06929919868707657, -0.0034936151932924986, -0.08234140276908875, -0.20651893317699432, 0.09617577493190765, 0.07960513979196548, 0.053116973489522934, -0.2163657546043396, 0.08646885305643082, 0.041033219546079636, 0.08995068818330765, -0.004020319320261478, -0.07366987317800522, -0.16241507232189178, -0.05375469848513603, -0.08079251646995544, -0.008488871157169342, 0.1055445447564125, -0.13496264815330505, 0.016128510236740112, 0.08391234278678894], [0.08462356775999069, -0.03970241919159889, 0.16578678786754608, -0.16330993175506592, -0.04192550480365753, -0.12919388711452484, 0.07231655716896057, 0.09638568013906479, -0.013747184537351131, 0.09266974031925201, 0.15105389058589935, 0.14516431093215942, -0.017250139266252518, 0.15359148383140564, 0.11092496663331985, 0.030233385041356087, -0.12474989891052246, 0.012090391479432583, 0.11726054549217224, -0.06765371561050415, 0.14009413123130798, 0.03809244930744171, 0.09149814397096634, -0.07049043476581573, 0.048776932060718536, -0.13528026640415192, 0.09395697712898254, -0.15528032183647156, -0.014229290187358856, -0.02159574069082737, -0.14674149453639984, -0.028556963428854942], [0.06315909326076508, 0.08974970877170563, 0.07117229700088501, 0.11996009945869446, -0.08464113622903824, 0.06610406935214996, 0.07419707626104355, -0.02164192497730255, 0.08361037075519562, 0.04265913367271423, 0.1806933432817459, -0.07529708743095398, -0.1528521329164505, 0.1760784238576889, 0.18365854024887085, -0.09466420859098434, -0.040913425385951996, 0.08021221309900284, 0.011990852653980255, -0.014472869224846363, 0.02352154068648815, 0.15289278328418732, 0.05238407477736473, -0.17573370039463043, 0.07752078026533127, -0.09249036014080048, 0.08778202533721924, 0.1239897608757019, 0.014854117296636105, -0.05491640791296959, -0.12566782534122467, -0.02973630093038082], [0.11273230612277985, 0.03455238416790962, -0.14031071960926056, -0.14190731942653656, -0.07699128985404968, 0.04236780107021332, -0.09228318184614182, 0.12208975106477737, -0.1419232338666916, -0.16010645031929016, 0.02473490498960018, 0.080610491335392, -0.0768863707780838, -0.09317576140165329, 0.03741535544395447, -0.061516404151916504, -0.1437101513147354, -0.0778263732790947, 0.03764885663986206, 0.05369013175368309, 0.04571783170104027, -0.050633449107408524, -0.11372578144073486, 0.044244300574064255, -0.08386316895484924, -0.15111865103244781, -0.06288211047649384, -0.06633550673723221, -0.09642324596643448, 0.09730657935142517, -0.06761782616376877, -0.03506159037351608], [0.07106451690196991, 0.06685429811477661, 0.00220899167470634, -0.05515312775969505, 0.16749772429466248, -0.05764792114496231, -0.14811639487743378, 0.06964122503995895, -0.005845609121024609, 0.10164044797420502, 0.05112998187541962, 0.11618699878454208, 0.12792044878005981, 0.02085266262292862, 0.11688865721225739, 0.13050255179405212, 0.05332358926534653, 0.10811764746904373, 0.0812004953622818, 0.010593832470476627, -0.06702268868684769, -0.12022364139556885, 0.10439600795507431, 0.1312648355960846, -0.1672966629266739, 0.03884456679224968, 0.13579021394252777, 0.04201121628284454, -0.13659410178661346, -0.025128932669758797, 0.07103059440851212, 0.014294545166194439], [0.03425182029604912, -0.045378122478723526, -0.08739764988422394, 0.10563594847917557, -0.05776083096861839, 0.007713715545833111, -0.012865898199379444, -0.1860632598400116, 0.018186604604125023, 0.03841330111026764, -0.18108826875686646, -0.02834191918373108, -0.0634152889251709, -0.07751728594303131, -0.09366600960493088, -0.20373035967350006, 0.11785244196653366, -0.06414685398340225, -0.06458386033773422, 0.017222367227077484, 0.044061530381441116, -0.07377057522535324, -0.039939165115356445, 0.004775804001837969, -0.16092923283576965, -0.0015694164903834462, 0.1596476286649704, 0.1461845487356186, 0.0928933247923851, 0.019657984375953674, 0.13758467137813568, -0.09752464294433594], [-0.06960880756378174, -0.09831453114748001, 0.010971881449222565, -0.08533534407615662, -0.12477398663759232, -0.08517182618379593, 0.058861665427684784, -0.11840258538722992, 0.1127159595489502, -0.08639601618051529, 0.20191717147827148, -0.10789622366428375, 6.58002682030201e-05, -0.03903941065073013, -0.1201702281832695, -0.027210604399442673, 0.048180222511291504, 0.025213032960891724, -0.09877432882785797, 0.02360282465815544, 0.1261315643787384, 0.15847966074943542, -0.13470424711704254, 0.003994130529463291, -0.06606827676296234, 0.0803239643573761, 0.00577817065641284, -0.13473950326442719, -0.009616673924028873, 0.05514011159539223, 0.06540607661008835, 0.17175845801830292], [-0.05834208428859711, 0.1248503252863884, -0.13851401209831238, -0.0694933608174324, 0.12390445917844772, 0.04188848286867142, 0.026271572336554527, 0.06949923187494278, -0.04911479353904724, 0.059095047414302826, -0.13910411298274994, 0.05322311818599701, 0.03171442076563835, -0.15625353157520294, -0.016544759273529053, 0.18873070180416107, 0.11617331951856613, -0.06951730698347092, -0.05313131585717201, 0.03554973378777504, -0.03453395143151283, -0.10708054900169373, -0.006118158344179392, 0.03118751384317875, -0.006933375261723995, -0.1556399017572403, -0.15393295884132385, -0.14429573714733124, -0.12724262475967407, -0.015196265652775764, 0.02770220674574375, -0.025691211223602295], [0.12782053649425507, 0.09743290394544601, 0.15225400030612946, 0.0531010702252388, 0.09150861203670502, -0.00045250175753608346, -0.02905101515352726, -0.0166948065161705, -0.1501692235469818, 0.1210644319653511, -0.048706986010074615, -0.11996335536241531, -0.09750053286552429, -0.09785732626914978, -0.01483716070652008, 0.13135504722595215, 0.0774245485663414, 0.11462623625993729, 0.05908600613474846, 0.12108832597732544, -0.07298526912927628, 0.0455080084502697, 0.07781399041414261, 0.012029056437313557, 0.06028148531913757, 0.07965798676013947, -0.12486172467470169, 0.09228406101465225, 0.09034084528684616, -0.18596556782722473, 0.1500357836484909, 0.10041169822216034], [-0.10862148553133011, 0.09747634083032608, 0.09429777413606644, -0.003095256397500634, -0.11054608225822449, -0.08451154828071594, -0.09498699754476547, 0.024211186915636063, -0.10363709181547165, -0.032775525003671646, -0.11205588281154633, 0.03904752433300018, 0.12036073207855225, 0.07578650861978531, 0.049452148377895355, 0.015157755464315414, -0.019992200657725334, 0.08906307071447372, 0.03479399532079697, -0.08527051657438278, -0.09009899199008942, 0.15609987080097198, 0.11198174953460693, -0.14881443977355957, -0.17608365416526794, -0.08031834661960602, 0.08866162598133087, -0.04215453192591667, 0.13748860359191895, 0.029333919286727905, 0.056398216634988785, 0.12760165333747864], [0.09289093315601349, 0.0767427459359169, 0.10712168365716934, -0.046468835324048996, -0.12059392035007477, 0.02469772845506668, -0.06241218000650406, -0.03393186628818512, 0.13686834275722504, 0.12334942072629929, 0.03368726000189781, -0.026598289608955383, -0.03164465352892876, 0.12445678561925888, 0.007883659563958645, 0.027327530086040497, -0.16792449355125427, -0.10259553790092468, 0.021243475377559662, -0.025409547612071037, -0.14504386484622955, -0.06651312857866287, 0.11008570343255997, 0.1300044059753418, -0.11016751825809479, 0.01727759651839733, 0.04555099830031395, 0.1553983837366104, -0.05318807065486908, -0.0116826631128788, 0.059209488332271576, 0.072214774787426], [-0.005149372853338718, 0.05300704017281532, 0.0028271926566958427, 0.017862262204289436, -0.07614637166261673, -0.05057205632328987, -0.15644238889217377, -0.1097429096698761, 0.16656672954559326, -0.0076662045903503895, -0.07869306206703186, 0.020694026723504066, -0.1584787666797638, 0.10798301547765732, -0.01155175268650055, 0.007122569251805544, -0.19585424661636353, 0.024161379784345627, 0.09246396273374557, -0.027581503614783287, -0.1014992967247963, -0.045220453292131424, -0.10109800845384598, 0.0966380313038826, 0.06788431853055954, 0.09203232824802399, 0.11959129571914673, 0.016498085111379623, -0.004374769516289234, 0.03216066583991051, -0.05510518699884415, 0.058191150426864624], [-0.13450950384140015, -0.06210440769791603, 0.06563372164964676, 0.07371056079864502, 0.0022444247733801603, -0.08160242438316345, -0.1711602658033371, 0.031005859375, 0.09208101779222488, 0.17965854704380035, 0.10415499657392502, 0.02677726000547409, -0.01483829040080309, -0.03623424470424652, 0.03538226708769798, 0.14068585634231567, 0.013040854595601559, -0.040283072739839554, 0.09320298582315445, -0.12186150252819061, 0.08260352909564972, 0.03096095845103264, -0.07171165198087692, -0.08080988377332687, 0.018993394449353218, -0.1837189644575119, -0.13656064867973328, 0.05596287548542023, -0.04690931364893913, 0.06546464562416077, 0.030817922204732895, -0.1289084255695343], [0.02295112982392311, 0.12306354939937592, 0.1584896743297577, -0.13830862939357758, -0.12853699922561646, 0.14120136201381683, 0.15832573175430298, 0.07424396276473999, -0.03460719808936119, 0.04321993142366409, 0.03288118168711662, 0.04269390180706978, 0.0960734635591507, -0.03288576379418373, -0.13673625886440277, -0.12358951568603516, -0.13337667286396027, -0.08883634209632874, 0.10655389726161957, -0.009734188206493855, 0.004559382330626249, 0.1213647797703743, -0.1620049774646759, 0.06002487614750862, -0.07524605840444565, 0.16450925171375275, -0.053838543593883514, -0.17405077815055847, 0.17088583111763, 0.03015909716486931, 0.13492386043071747, -0.09581035375595093], [0.036463674157857895, -0.08778814971446991, -0.11566963791847229, -0.06204879283905029, -0.055041857063770294, -0.03752388432621956, -0.059011198580265045, 0.12965188920497894, -0.1436009258031845, -0.15979814529418945, -0.10900061577558517, -0.1641174703836441, 0.014658012427389622, -0.03274273872375488, 0.08551774173974991, -0.14312750101089478, -0.13561804592609406, 0.01090992521494627, 0.20298078656196594, -0.18214082717895508, 0.11949359625577927, -0.14118337631225586, 0.011628271080553532, 0.06924910843372345, -0.08038506656885147, 0.10320194065570831, -0.10060074925422668, -0.03711383789777756, 0.03400823101401329, 0.06565787643194199, -0.17928002774715424, 0.12325796484947205], [-0.14992789924144745, -0.08406845480203629, 0.07404939830303192, -0.12091672420501709, -0.19708247482776642, 0.047185320407152176, -0.12053707242012024, 0.06192401424050331, -0.07124899327754974, 0.06453000754117966, 0.043664515018463135, -0.027978859841823578, -0.18462274968624115, 0.03888040781021118, 0.001082535833120346, 0.0302963238209486, 0.024638045579195023, -0.021365107968449593, -0.07856885343790054, -0.008119999431073666, 0.037596601992845535, -0.10085771977901459, -0.04213613644242287, 0.0750824511051178, 0.18265891075134277, 0.0701882466673851, 0.02579343132674694, -0.18028685450553894, -0.17977933585643768, -0.03346840292215347, 0.021874738857150078, -0.007760628592222929], [-0.10803763568401337, -0.0380118303000927, 0.015681354328989983, -0.06755669414997101, -0.011210652068257332, -0.00825182069092989, -0.04150070250034332, 0.13473738729953766, -0.10027764737606049, -0.0583404116332531, 0.0973743125796318, -0.08535071462392807, 0.1227785050868988, -0.02731313742697239, -0.010415908880531788, -0.15906479954719543, 0.09405104070901871, 0.017344944179058075, 0.17618395388126373, -0.09651830047369003, -0.1429157704114914, 0.1267790049314499, -0.011390319094061852, -0.15752843022346497, -0.12644022703170776, 0.09015651047229767, -0.04466617852449417, 0.1814064234495163, -0.057491715997457504, 0.11922366172075272, 0.016675541177392006, 0.15140649676322937], [0.100975900888443, -0.05451461300253868, -0.1772880107164383, -0.082388736307621, 0.17206966876983643, -0.08854132145643234, 0.07102310657501221, -0.12539580464363098, -0.1255185455083847, 0.10617174208164215, 0.12129993736743927, -0.08020864427089691, 0.11327866464853287, 0.024944817647337914, -0.06728700548410416, -0.1772308498620987, -0.10017157346010208, 0.08251164108514786, 0.08539474010467529, 0.04518767446279526, 0.01592985913157463, -0.10166129469871521, 0.009905237704515457, -0.027047280222177505, 0.09867286682128906, -0.055670756846666336, 0.11346639692783356, 0.10022670775651932, -0.13391579687595367, 0.04508465901017189, 0.07905423641204834, -0.07583104074001312], [-0.15146584808826447, -0.10085729509592056, -0.09294981509447098, -0.1980711966753006, -0.008331209421157837, -0.04979010671377182, -0.12961538136005402, 0.057402465492486954, 0.11143925786018372, 0.02751913294196129, 0.019903168082237244, -0.13163475692272186, 0.03841986134648323, -0.08642581105232239, 0.08511464297771454, 0.10005674511194229, -0.04062304645776749, -0.007700357586145401, -0.08134621381759644, -0.13565050065517426, 0.08238756656646729, 0.08062832057476044, -0.045042961835861206, -0.07836426794528961, 0.18881206214427948, -0.04241034761071205, -0.1792006492614746, -0.14588645100593567, -0.17390577495098114, 0.08278071880340576, 0.01805267669260502, 0.06067405268549919], [-0.09545999020338058, -0.1333928108215332, -0.07644891738891602, 0.03278496488928795, -0.11069440096616745, 0.05199289694428444, -0.0421842560172081, -0.08423496782779694, -0.140250101685524, -0.001643428928218782, 0.13496962189674377, -0.011916005052626133, -0.16182586550712585, -0.13369382917881012, 0.14470914006233215, -0.13109663128852844, -0.06523851305246353, -0.0828578919172287, 0.02198071777820587, 0.03642084822058678, 0.10110008716583252, -0.011003168299794197, -0.047064159065485, -0.08864592760801315, -0.0958893895149231, -0.030945878475904465, -0.03037480264902115, 0.00885407067835331, -0.1423511803150177, 0.06619350612163544, -0.13265283405780792, 0.023796644061803818], [0.062527596950531, 0.03977103531360626, -0.09424664080142975, -0.10654017329216003, -0.022446662187576294, 0.08624129742383957, 0.16572993993759155, -0.15369395911693573, -0.16739307343959808, 0.12831048667430878, -0.081064872443676, -0.024855466559529305, 0.1589306741952896, 0.13001513481140137, 0.0376119539141655, 0.08840163052082062, 0.003118891501799226, 0.008220918476581573, 0.023586928844451904, -0.1035512313246727, 0.09218360483646393, -0.07963848114013672, -0.058485016226768494, 0.1716202050447464, 0.07654900848865509, 0.12225278466939926, 0.14683295786380768, 0.05052301287651062, 0.1370590478181839, 0.000489342724904418, 0.13559862971305847, 0.11205289512872696], [-0.003899057861417532, 0.16103073954582214, -0.052077993750572205, -0.13880398869514465, -0.06608353555202484, 0.016765885055065155, -0.0004440481134224683, -0.0007998929941095412, 0.026756636798381805, 0.16809403896331787, 0.12017086893320084, 0.011709877289831638, -0.09535738080739975, 0.007917495444417, -0.1954931914806366, 0.1317717432975769, -0.004218953661620617, 0.16093562543392181, -0.10250964015722275, 0.031609341502189636, 0.14499492943286896, 0.12502934038639069, 0.11606474220752716, 0.06443481147289276, 0.0024354674387723207, 0.04445257410407066, 0.07513288408517838, 0.10385159403085709, -0.04409690201282501, -0.055557988584041595, -0.054318346083164215, -0.1145850270986557], [-0.08220995962619781, 0.16294126212596893, 0.036076292395591736, -0.029222723096609116, -0.00801112875342369, -0.05141943693161011, 0.11841803789138794, -0.027938736602663994, -0.1719861477613449, 0.1004764586687088, -0.1056913211941719, 0.07044952362775803, -0.02687092497944832, 0.00166798394639045, 0.021335143595933914, 0.11925430595874786, -0.1328558623790741, -0.09396257251501083, 0.09637513011693954, -0.1348760575056076, 0.09100155532360077, -0.08193907141685486, -0.13174092769622803, 0.07763049006462097, 0.0471610426902771, 0.11891093105077744, -0.1382729709148407, -0.02519320510327816, 0.19060954451560974, -0.05458080768585205, 0.0453181266784668, -0.14043517410755157], [0.004163993522524834, -0.04575731232762337, 0.13973432779312134, 0.06615009158849716, -0.06405828893184662, -0.0894353911280632, 0.08901374042034149, -0.050663720816373825, -0.07827629894018173, 0.15419837832450867, 0.1334887146949768, -0.019876321777701378, -0.06887632608413696, 0.08253761380910873, 0.1592041701078415, 0.12325194478034973, -0.11605925858020782, -0.035512156784534454, 0.0448918491601944, -0.045225270092487335, 0.010714666917920113, 0.13862423598766327, -0.14878006279468536, 0.061841029673814774, 0.042670659720897675, 0.11867796629667282, 0.002958431374281645, 0.05770140513777733, -0.0968947783112526, -0.09678998589515686, -0.05668768286705017, 0.11180594563484192], [-0.0973505973815918, 0.14336545765399933, -0.10439800471067429, -0.09860506653785706, 0.06702954322099686, 0.05424647033214569, 0.08425900340080261, -0.009047017432749271, 0.06511182337999344, -0.057324107736349106, 0.05241522938013077, -0.1094009056687355, 0.06031310558319092, -0.09764441847801208, 0.01172088086605072, 0.15069741010665894, -0.02641858160495758, -0.046924516558647156, -0.05607860907912254, -0.023536507040262222, 0.12941724061965942, 0.02329403907060623, 0.1347760409116745, 0.10597307980060577, -0.03516041487455368, -0.02587227337062359, 0.07227975130081177, -0.054460786283016205, -0.13347522914409637, -0.08903531730175018, -0.05855969339609146, -0.07837200909852982], [-0.11893866211175919, 0.07381918281316757, -0.11390691995620728, -0.15039025247097015, 0.009875195100903511, 0.001196148805320263, -0.06654487550258636, -0.03917399421334267, 0.10531043261289597, -0.11998515576124191, 0.0008759003248997033, -0.17942465841770172, -0.15134559571743011, -0.08154358714818954, -0.09057454764842987, -0.08332639187574387, 0.13278265297412872, 0.045868903398513794, -0.058468546718358994, 0.08395467698574066, -0.09643092006444931, 0.0887877345085144, 0.11603487282991409, -0.09932132065296173, -0.06399650871753693, 0.13439121842384338, -0.05744267255067825, 0.021001238375902176, -0.16195565462112427, -0.06421896815299988, -0.11726568639278412, -0.045726075768470764], [0.062163159251213074, 0.05655653402209282, 0.0609392374753952, -0.11157435923814774, 0.062358416616916656, 0.10036808252334595, -0.05307355523109436, 0.04073144495487213, -0.07119850814342499, -0.05476468801498413, 0.08684056997299194, -0.13109028339385986, 0.0006140866316854954, -0.0906899943947792, -0.038480211049318314, -0.010356779210269451, 0.06924343854188919, 0.07432961463928223, -0.010161350481212139, -0.05944002419710159, 0.049989622086286545, 0.13560771942138672, 0.04110151156783104, 0.03386770933866501, 0.003017153823748231, -0.033384133130311966, -0.05178801342844963, 0.1059672012925148, 0.11368618905544281, -0.07800048589706421, 0.03785084933042526, -0.010583260096609592], [-0.012463984079658985, 5.8832265494856983e-05, 0.04669351130723953, -0.020919883623719215, 0.004628100898116827, -0.0002927212044596672, -0.00012966794020030648, 0.006569386925548315, -0.045965708792209625, 0.05448255315423012, -0.023403720930218697, -0.02555668354034424, -0.0007610713364556432, -9.019295976031572e-05, -0.0002665710053406656, -0.03345804288983345, -0.028832033276557922, -0.0015755014028400183, -0.00043009439832530916, -0.0016682936111465096, -0.0032995124347507954, -0.009067296981811523, -0.0006310399039648473, -0.013191059231758118, 0.02626314014196396, 0.061307091265916824, 0.016282210126519203, -0.0008210411760956049, -0.01716763712465763, -0.00014799779455643147, 3.709322845679708e-05, -0.00014370647841133177], [-0.009247351437807083, 0.00011651145905489102, 0.04328705742955208, 0.01480241771787405, -0.03821829706430435, -0.00018827017629519105, -4.746897320728749e-05, 0.0018601207993924618, -0.000757586385589093, 0.01680881716310978, 0.03278564661741257, -0.038500458002090454, 0.0005922433920204639, 1.7128619219874963e-05, -0.00022288309992291033, 0.04441110044717789, 0.03947511687874794, -0.0009940224699676037, -2.0616595065803267e-05, 0.00014515960356220603, -0.040544379502534866, -0.001109106233343482, 0.0016015412984415889, 0.035620518028736115, 0.012832693755626678, -0.12372266501188278, -0.03062717616558075, -0.00023848477576393634, -0.004844693932682276, -0.00022496805468108505, 5.232639887253754e-05, -6.0090045735705644e-05], [-0.002588315401226282, 0.0011772740399464965, 0.006238763686269522, -0.0019899902399629354, -0.07065588980913162, -0.004284604452550411, -0.0003398075350560248, 0.026107074692845345, -0.029587440192699432, 0.05322424694895744, 0.018625816330313683, -0.015006623230874538, 0.018480490893125534, 0.004873412195593119, -0.0025389590300619602, 0.04303701967000961, 0.051529791206121445, -0.0010931133292615414, -0.0021584120113402605, 0.0015957849100232124, -0.011487634852528572, -0.00499338936060667, 0.0059234886430203915, 0.025778302922844887, 0.048702776432037354, -0.06761689484119415, -0.01146739162504673, -0.0071350387297570705, 0.010743685998022556, -0.0038115407805889845, 0.000717967574018985, 0.0009564061765559018], [0.009513496421277523, -0.0134122921153903, -0.04305822774767876, -0.11956289410591125, -0.11406461149454117, 0.02936333790421486, -0.05984501540660858, -0.004224481526762247, 0.06947541981935501, -0.1067623645067215, 0.027226271107792854, -0.03903451934456825, -0.06477715075016022, -0.0203633364289999, 0.01932363398373127, 0.1141078844666481, -0.13389445841312408, 0.04766862094402313, 0.062179189175367355, -0.048726607114076614, 0.07147736847400665, -0.015248673036694527, -0.032897450029850006, 0.0519622378051281, 0.04155019670724869, -0.06699912995100021, 0.11152574419975281, 0.03385644778609276, 0.1055743396282196, -0.003755240235477686, -0.036197319626808167, 0.013490316458046436], [0.11406973749399185, 0.08781201392412186, 0.11362789571285248, 0.02090277522802353, -0.15178096294403076, -0.06222035363316536, -0.028552304953336716, 0.08810791373252869, -0.002849848475307226, 0.08757517486810684, -0.017546210438013077, -0.02021794766187668, 0.07758691161870956, -0.005269436165690422, -0.010880056768655777, 0.0998409315943718, 0.1274263560771942, -0.018686288967728615, 0.013941551558673382, -0.04325579106807709, -0.0780445784330368, 0.040812794119119644, 0.1263677030801773, 0.1261080503463745, -0.12109202891588211, -0.08764658123254776, -0.024647515267133713, -0.1413540244102478, 0.06139541417360306, -0.07704216986894608, -0.03759324923157692, -0.058188546448946], [-0.004367009736597538, 0.00369109190069139, -0.013180524110794067, 0.04109574109315872, -0.12543515861034393, -0.035599641501903534, 0.011625789105892181, 0.10274689644575119, 0.03486011549830437, 0.12264053523540497, -0.0017756001325324178, -0.0061256736516952515, -0.05921564996242523, -0.027166733518242836, -0.0029630078934133053, -0.057200901210308075, -0.11982081085443497, -0.00029925565468147397, -0.002667431952431798, -0.003566199680790305, 0.0027140716556459665, 0.054650794714689255, 0.04699249938130379, 0.0033602111507207155, -0.058036863803863525, -0.16886402666568756, 0.07602130621671677, 0.05033031478524208, 0.037994783371686935, 0.005172226577997208, 0.002810828387737274, 0.0008539175614714622], [-0.008004944771528244, -1.8676128092920408e-05, 0.0576997846364975, -0.03411072492599487, -0.007931588217616081, -0.00011961993004661053, 4.3750478653237224e-05, 0.016724063083529472, 0.03742849454283714, 0.05292186513543129, 0.07487006485462189, 0.021495768800377846, -0.004475064110010862, 1.4218077922123484e-05, -0.0004157894873060286, -0.02627083845436573, -0.03848331794142723, 0.001235842239111662, -0.00010796984861372039, -0.0006565831718035042, -0.02325139194726944, 0.024002717807888985, 0.002662851708009839, 0.03607258200645447, 0.02778160572052002, -0.10905542969703674, -0.04661141708493233, -0.0027026862371712923, -0.047275789082050323, 1.8535896742832847e-05, 4.4653515942627564e-05, 8.180779332178645e-06], [-0.026061533018946648, 0.045181456953287125, -0.010322284884750843, -0.10416566580533981, 0.07507618516683578, -0.008868467062711716, -0.02973194234073162, -0.0716157779097557, -0.04183067008852959, -0.11054560542106628, 0.02437121421098709, -0.10000549256801605, 0.055325496941804886, -0.09052827954292297, -0.004417531192302704, -0.03017999231815338, 0.044849105179309845, -0.013910213485360146, -0.024881839752197266, 0.007499439641833305, 0.061090536415576935, -0.008997244760394096, 0.07524798065423965, -0.04592370241880417, 0.0719277486205101, 0.13152942061424255, -0.032653532922267914, 0.04982864856719971, -0.03309562802314758, -0.04481983557343483, -0.0017463605618104339, 0.007589505519717932], [-0.06638000905513763, -0.011933259665966034, 0.009621852077543736, -0.018748991191387177, 0.04335140436887741, -0.08969409763813019, 0.03124266117811203, 0.12592759728431702, 0.05432699993252754, -0.00859166868031025, 0.029810253530740738, -0.0696125254034996, -0.06566867977380753, -0.06626619398593903, -0.027209287509322166, 0.016549859195947647, 0.03978704288601875, 0.024564458057284355, -0.021033674478530884, 0.011075184680521488, 0.03887166082859039, 0.10442319512367249, 0.05423708260059357, 0.1229531317949295, 0.013517606072127819, 0.062211547046899796, -0.031695406883955, -0.09255772829055786, 0.03298734128475189, -0.07795587927103043, 0.014587841928005219, 0.011016451753675938], [-0.02518499456346035, 0.006981911137700081, 0.030642930418252945, -0.010372196324169636, 0.1018759086728096, -0.0551501102745533, -9.513534314464778e-05, 0.0663427785038948, 0.1525879055261612, 0.07048594951629639, 0.044774413108825684, 0.030349479988217354, -0.011273075826466084, -0.046280212700366974, 0.0013018872123211622, 0.10107699781656265, -0.08579695224761963, -0.005546060390770435, -0.007498329039663076, 0.008893914520740509, -0.048907697200775146, -0.051133640110492706, -0.012105213478207588, 0.0818672627210617, 0.0016631489852443337, 0.017727725207805634, -0.023375406861305237, -0.0773397833108902, 0.013653933070600033, -0.038537584245204926, 0.001655531581491232, -0.0018147901864722371], [-0.03478182107210159, 0.0025328602641820908, 0.07205408811569214, -0.10389183461666107, 0.03226299211382866, -0.00032436358742415905, -0.0017883164109662175, -0.013561179861426353, 0.01982910931110382, 0.040558964014053345, 0.08451708406209946, -0.04108675941824913, 0.0012366247829049826, -0.000480250280816108, -0.0010722298175096512, 0.08760911971330643, 0.00879987608641386, 0.016956409439444542, 0.010998756624758244, -0.008936101570725441, 0.04266366362571716, 0.01536080427467823, -0.01739412359893322, 0.061213355511426926, 0.08762165904045105, -0.14176952838897705, 0.012978714890778065, -0.00803313311189413, 0.006411840207874775, 0.0038106506690382957, -0.0006918933941051364, -0.0007639054674655199], [-0.0026961578987538815, -0.010063190013170242, 0.00998933706432581, -0.05233496427536011, -0.015088677406311035, 0.04583299905061722, -0.05786985903978348, 0.1053926944732666, 0.0812574177980423, 0.011184295639395714, 0.1282767802476883, 0.10629238188266754, -0.01873817853629589, 0.0027726113330572844, -0.023367319256067276, -0.1240171268582344, -0.10970292240381241, 0.014982041902840137, 0.011076309718191624, 0.06521797180175781, -0.11658720672130585, 0.10506036132574081, -0.04072080925107002, -0.1090531125664711, 0.050458796322345734, 0.01880132034420967, 0.006256188731640577, -0.06546518951654434, -0.15609316527843475, -0.048960790038108826, -0.03764890506863594, 0.02297656238079071], [-0.00013257369573693722, -3.0703267839271575e-05, 0.003998731262981892, -0.002936453325673938, 0.016406038776040077, -6.105717329774052e-05, -4.186868682154454e-05, 0.015945157036185265, 0.05084643140435219, -0.013391377404332161, -0.02961629070341587, -0.012884899973869324, 0.013188817538321018, 0.00021511994418688118, -4.9439811846241355e-05, 0.007360084448009729, -0.010507996194064617, -8.626023191027343e-05, -4.115077172173187e-05, 7.867095700930804e-05, -0.008673988282680511, -0.007155909668654203, -0.00027166001382283866, -0.02560202032327652, 0.019735602661967278, -0.06535718590021133, -0.04721246659755707, 0.00035804056096822023, 0.003316121408715844, -8.626904309494421e-05, 3.097199078183621e-05, -3.688434662763029e-05], [-0.00029672530945390463, 4.301408989704214e-05, 0.008457785472273827, -0.0019460971234366298, 0.04807735234498978, 0.00023865817638579756, -3.6151511721982388e-06, 0.01734750345349312, 0.09996271878480911, 0.06497728824615479, -0.021042294800281525, 0.0022353725507855415, -0.014823506586253643, 0.0012767871376127005, -0.00016177137149497867, -0.040381014347076416, -0.05280737206339836, -3.87498912459705e-05, -9.553771087666973e-05, 0.00017392387962900102, -0.0014326999662443995, 0.019605254754424095, -0.0027071237564086914, 0.023409342393279076, -0.00145589595194906, -0.04805551841855049, -0.014341281726956367, -0.005173110868781805, -0.005239974241703749, -0.00030939705902710557, 4.501104194787331e-05, 0.00011660798918455839], [0.01640588417649269, -6.33957824902609e-05, -0.05377557501196861, 0.01296327542513609, -0.039262354373931885, -0.001214102958329022, 0.0012252118904143572, 0.024567918851971626, 0.1287708729505539, 0.025951959192752838, 0.04780375957489014, 0.0012223718222230673, -0.005021301098167896, -0.0007057905313558877, -0.00425905454903841, 0.09678110480308533, -0.09861484915018082, -0.003735043341293931, -0.0009423880837857723, 0.002326334360986948, -0.014367586933076382, 0.016954703256487846, 0.00046882207971066236, 0.017932994291186333, -0.008763953112065792, -0.09320036321878433, -0.06298709660768509, -0.001157901482656598, -0.04352077469229698, -0.0020876964554190636, 0.0002789721474982798, 0.0012365267612040043], [0.014456364326179028, -0.04245557263493538, 0.031143609434366226, 0.050752464681863785, 0.12087519466876984, 0.05413765832781792, 0.08215045183897018, -0.1269306093454361, -0.09007804095745087, 0.17238248884677887, 0.09075544029474258, 0.05437072366476059, -0.09477093070745468, -0.10801738500595093, -0.0848361998796463, -0.05592624843120575, 0.1010424941778183, 0.02806698903441429, -0.04070834070444107, -0.03211599588394165, 0.01553494855761528, -0.09511714428663254, 0.0011362498626112938, 0.04070237651467323, 0.08788549900054932, 0.007296320516616106, 0.06519430875778198, -0.12170562893152237, 0.03189634904265404, -0.1426335722208023, 0.06408105045557022, 0.04352647438645363], [0.030964836478233337, -0.07465706765651703, 0.011057727970182896, -0.0048368703573942184, 0.033790841698646545, -0.030494840815663338, -0.0031146269757300615, 0.05065610259771347, 0.009196962229907513, -0.07058245688676834, 0.1295691877603531, -0.10961594432592392, 0.01980758085846901, -0.040875207632780075, 0.010808410122990608, -0.08363046497106552, -0.11077964305877686, -0.07024185359477997, -0.05533488094806671, 0.05545143038034439, -0.0681324154138565, -0.07806282490491867, 0.06094924733042717, -0.06853101402521133, 0.0077974931336939335, -0.028352834284305573, -0.051306888461112976, 0.03759661689400673, -0.14994442462921143, 0.016509944573044777, -0.00630844384431839, 0.03541848808526993], [-0.0028444193303585052, 0.0002076851815218106, 0.0232100747525692, -0.025992654263973236, -0.06434013694524765, 0.00016642535047139972, 8.5663610661868e-05, 0.0056021506898105145, 0.050478048622608185, -0.007103836629539728, 0.02121473103761673, -0.00936652161180973, -0.006912035867571831, -0.00011077562521677464, -0.0004080058424733579, 0.010964677669107914, -0.002818593056872487, 0.0015114732086658478, -0.0004660328559111804, 0.00016876813606359065, -0.028795136138796806, 0.0032164088916033506, 4.8901038098847494e-05, -0.02195059135556221, 0.010430989786982536, -0.010400095954537392, 0.024805771186947823, -0.0007917691254988313, -0.010690777562558651, -0.0010440470650792122, 0.00012108689406886697, 0.0003652985324151814], [0.02217690460383892, 0.00345339672639966, 0.06527338922023773, -0.06433892995119095, -0.13618139922618866, -0.0018819316755980253, -0.0022667860612273216, -0.005338639486581087, -0.04781809821724892, 0.12490765005350113, 0.03699309378862381, -0.039855387061834335, -0.008234835229814053, -0.0016520234057679772, 0.004097344819456339, 0.09202437847852707, -0.1280554085969925, -0.026186536997556686, -0.001937738386914134, -0.0022803153842687607, 0.027589404955506325, 0.010841422714293003, 0.0037345108576118946, -0.052794843912124634, 0.05188865587115288, -0.03649026155471802, -0.0837397649884224, -0.012012135237455368, -0.056345585733652115, -0.003917403053492308, -0.0004877973406109959, 0.0015462614828720689], [-0.014292819425463676, 6.857870175736025e-05, -0.035585202276706696, 0.020131245255470276, 0.025460034608840942, -0.0012122852494940162, -0.0002550628560129553, -0.003453774144873023, 0.11333337426185608, 0.041527073830366135, 0.06267233937978745, 0.04213466867804527, 0.0034318193793296814, -0.0006396531825885177, -0.0003902979660779238, 0.09444664418697357, 0.05227389559149742, -0.0018541240133345127, -0.001258070464245975, -0.0037863159086555243, -0.03516385704278946, 0.032861825078725815, -0.003860450815409422, -0.036140669137239456, -0.011984904296696186, 0.0876811295747757, 0.01961541175842285, -0.00014241097960621119, -0.03704621270298958, -0.0012285546399652958, 0.0003045538906008005, 0.0003741651598829776], [-0.021342109888792038, -0.0010561123490333557, 0.08079317212104797, -0.05485743284225464, 0.027529779821634293, -5.636599235003814e-05, 0.0011736020678654313, 0.018409553915262222, 0.017838383093476295, -0.044776879251003265, 0.07748489826917648, 0.04723411798477173, -0.019993731752038002, 1.7874737750389613e-05, -0.0018515277188271284, 0.09599009901285172, -0.02564847096800804, -0.007688334211707115, 0.00037497241282835603, -0.002857411280274391, -0.049093954265117645, 0.03433779999613762, -0.005042420234531164, -0.07058800756931305, 0.014117494225502014, -0.10162390768527985, -0.0626123771071434, -0.0025276425294578075, -0.016544952988624573, -9.175678860628977e-05, -3.6215362342773005e-05, -1.3435019354801625e-05], [0.03069000132381916, 0.0023710590321570635, -0.042477820068597794, 0.04721825197339058, 0.10534369945526123, -0.0006755467038601637, 0.010930655524134636, -0.04758267477154732, 0.06551990658044815, -0.039866965264081955, 0.06214099004864693, -0.012373252771794796, 0.035417888313531876, -0.03433821722865105, -0.0011578152189031243, 0.018642274662852287, -0.08889897912740707, 0.0036989510990679264, -0.0015979984309524298, -0.0005956615786999464, 0.0440768338739872, -0.039505455642938614, 0.061410535126924515, -0.0510171502828598, 0.07212208956480026, 0.0381559394299984, -0.1072431430220604, -0.0541924424469471, -0.01831449754536152, -0.020687520503997803, 0.0021189150866121054, 0.0024629158433526754], [-0.0001620804105186835, -0.00012234754103701562, -0.032723601907491684, -0.00036608034861274064, -0.0038750232197344303, -0.0016368107171729207, -2.1293157260515727e-05, 0.03840003162622452, 0.0923377126455307, -0.03196555748581886, -0.006961760111153126, -0.01257786899805069, 0.00083327223546803, 0.0007720339926891029, -0.00032895858748815954, -0.07097578048706055, -0.056307800114154816, 3.347238089190796e-05, -0.00015700733638368547, -0.00011692053521983325, -0.01001546811312437, 0.044001802802085876, -0.0021467090118676424, -0.007497679907828569, -0.003928035963326693, -0.07712431252002716, 0.05630475655198097, 0.01349006686359644, 0.00722228130325675, 0.00016242217679973692, -3.088777884840965e-05, -0.0005680001340806484], [0.010045590810477734, 0.002018954372033477, -0.034867532551288605, 0.008678320795297623, -0.04153390973806381, -0.00015327708388213068, 0.0023474630434066057, 0.031520359218120575, -0.02632988430559635, -0.01045177411288023, 0.024739135056734085, 0.05057524889707565, -0.020607883110642433, -0.00044062628876417875, -0.0036622839979827404, 0.03935583308339119, -0.07468399405479431, 0.008861245587468147, 0.003966901451349258, -0.004746167454868555, 0.04200887680053711, 0.026709487661719322, 0.010784024372696877, -0.09697632491588593, 0.010420273058116436, -0.09853025525808334, 0.01089291088283062, -0.0028647631406784058, -0.014988573268055916, -0.0006455438560806215, 0.0007322623860090971, -0.00024085924087557942], [-0.018136318773031235, 0.005965600721538067, 0.00504396902397275, 0.03746512904763222, 0.1214851513504982, 0.02487390674650669, 0.0043446398340165615, 0.09252254664897919, -0.013446573168039322, -0.024547815322875977, 0.07964245975017548, 0.051419712603092194, -0.07254341244697571, -0.024968398734927177, -0.007056401111185551, -0.016602886840701103, -0.050527796149253845, 0.008571231737732887, -0.0001254524104297161, 0.018535004928708076, 0.08598088473081589, 0.09543921053409576, -0.05256321653723717, -0.09838838875293732, -0.09948521852493286, 0.08838190138339996, -0.05429612472653389, -0.028433907777071, -0.08039244264364243, -0.008532876148819923, 0.001739422557875514, -0.0015528039075434208], [0.014618145301938057, 0.11857976764440536, -0.023759352043271065, -0.0038279227446764708, 0.10162017494440079, 0.06371099501848221, 0.09370642900466919, -0.03166118264198303, -0.154557004570961, 0.06323045492172241, -0.15700846910476685, 0.14381791651248932, -0.07111439108848572, -0.07198106497526169, 0.009853493422269821, -0.13659650087356567, -0.14769016206264496, -0.06489022076129913, 0.039406683295965195, -0.08675103634595871, 0.1505328267812729, -0.13494376838207245, -0.09715894609689713, 0.14344097673892975, 0.05142292007803917, -0.023080527782440186, 0.06340131163597107, -0.021963562816381454, -0.10195364058017731, -0.144444540143013, -0.03139331936836243, 0.060714367777109146], [0.0599810890853405, -0.01814204454421997, -0.014816402457654476, 0.12338558584451675, -0.03410446643829346, -0.06208046153187752, -0.01110018976032734, -0.07536984980106354, -0.11650186032056808, 0.05068539083003998, -0.13012200593948364, -0.11524985730648041, 0.11456730216741562, 0.0706888884305954, -0.021956028416752815, -0.05745450034737587, 0.13451309502124786, 0.04245347902178764, 0.014280927367508411, -0.03861013427376747, 0.12230440974235535, 0.07307423651218414, -0.014325873926281929, 0.005463578272610903, 0.05650577321648598, 0.11119437962770462, 0.09966962039470673, -0.06197790801525116, -0.11513742804527283, 0.008786780759692192, -0.011915422044694424, 0.04852820187807083], [-0.035866629332304, 0.005770762916654348, -0.07718757539987564, -0.029873525723814964, -0.1084626242518425, -0.0009826873429119587, 0.008945982903242111, 0.07027005404233932, 0.021052081137895584, -0.09086860716342926, 0.0921415165066719, 0.05804736912250519, 0.004443230573087931, -0.01709754951298237, -0.004484762437641621, 0.08262943476438522, -0.027427274733781815, 0.0023831380531191826, -0.005532697308808565, 0.0014716701116412878, 0.0696309432387352, -0.058699458837509155, 0.03664563596248627, 0.06480032950639725, 0.003194369375705719, 0.009781301952898502, 0.0338590107858181, -0.003731795586645603, -0.023572782054543495, -0.0012131260009482503, 0.0012659910134971142, 0.00282806484028697], [-0.06617017090320587, -0.0231877863407135, 0.021612796932458878, 0.07911507785320282, -0.10889517515897751, 0.0005654927808791399, -0.04320404306054115, -0.03259247913956642, -0.010278590023517609, -0.10412982851266861, 0.14583049714565277, -0.14577949047088623, 0.04763748496770859, -0.02848852425813675, -0.0315617136657238, -0.08305598050355911, 0.0017017731443047523, -0.05807901918888092, -0.013165012001991272, -0.022158516570925713, 0.020266905426979065, 0.04208560660481453, -0.0044413404539227486, -0.0467793345451355, -0.08317722380161285, 0.03933357074856758, -0.07081618160009384, -0.0504414439201355, 0.033897172659635544, -0.023418918251991272, -0.02731969580054283, -0.004335070960223675], [-0.0009242366068065166, 0.0007068951963447034, 0.03415626659989357, -0.020578565075993538, 0.03485129028558731, -0.002046990441158414, 0.0008756146999076009, -0.006192708387970924, 0.014341039583086967, -0.013475575484335423, 0.07611526548862457, -0.04615338519215584, 0.015653356909751892, -0.0003745742724277079, -0.0022787703201174736, -0.049890633672475815, -0.11091441661119461, 0.001799867139197886, -0.002240746980533004, 0.003977988380938768, -0.03923133388161659, 0.024930685758590698, 0.0036704803351312876, 0.0489179752767086, 0.02235732227563858, -0.0080636665225029, -0.09141600131988525, -0.010392614640295506, -0.01816016621887684, -0.0052177379839122295, 0.00033120487933047116, 0.0003899989533238113], [0.00014662486501038074, 6.260647205635905e-05, 0.002160917269065976, 0.0010598825756460428, -0.02967066504061222, -0.00011751031706808135, 3.7327365134842694e-05, 0.0007530416478402913, 0.07403247803449631, 0.012317660264670849, -0.0023716273717582226, 0.00541191129013896, -0.00011406969861127436, -2.917423626058735e-05, -0.00011273026757407933, -0.009276483207941055, -0.036371372640132904, 3.949637175537646e-05, -6.658439815510064e-05, 6.25249813310802e-05, -0.00232692644931376, -0.00046605998068116605, -6.332839257083833e-05, -0.009532703086733818, -0.004517876543104649, 0.004207409918308258, -0.021461473777890205, -0.00012101451284252107, -0.0031016923021525145, -0.00018478179117664695, 1.9439941752352752e-05, 7.880336488597095e-05], [-0.0004712087975349277, -5.874277121620253e-05, 0.0010284065501764417, -0.0003502486797515303, -0.0051916963420808315, -0.0004707330372184515, -0.00040933251148089767, 0.00045050919288769364, 0.029043911024928093, 0.006127927452325821, 0.0006286349962465465, -0.0008050657925195992, -1.865938611445017e-05, -0.00021103225299157202, -0.0006058399449102581, 0.014536582864820957, -0.0007972617167979479, -0.00029154037474654615, -0.0005497846286743879, 0.0006099455058574677, 2.6956697183777578e-05, 0.0005094835651107132, -0.0003845054598059505, -0.0002788175770547241, 0.0009499875013716519, -0.009480813518166542, -0.002625357825309038, -0.00043817528057843447, -0.0005839364021085203, -1.3084119927952997e-05, 0.0002013782795984298, -0.00010439969628350809]], "lstm.bias_ih_l0": [-0.03848636522889137, -0.05996270105242729, -0.003142912872135639, -0.11350146681070328, -0.13807500898838043, -0.16923558712005615, -0.15174242854118347, -0.049967408180236816, 0.05435594916343689, -0.08212593197822571, -0.010923284105956554, -0.0966922864317894, -0.11964941024780273, 0.10148979723453522, -0.1388341635465622, -0.0527653805911541, 0.004247555509209633, 0.08025578409433365, 0.07696329057216644, 0.0689326599240303, -0.0025451930705457926, 0.12181445211172104, 0.12018052488565445, -0.06509292125701904, 0.00855154450982809, 0.14354799687862396, 0.15446269512176514, -0.1801423281431198, 0.11543522775173187, 0.018109682947397232, -0.013597212731838226, -0.026301775127649307, -0.1816188395023346, -0.17183580994606018, 0.10837021470069885, -0.12601390480995178, 0.148641899228096, 0.1349429488182068, -0.05072420835494995, -0.1802140772342682, -0.08470413088798523, -0.04586687311530113, 0.009952133521437645, -0.15802204608917236, -0.08073670417070389, -0.17716941237449646, -0.06522587686777115, -0.10385966300964355, -0.010072918608784676, 0.10805942863225937, -0.15647943317890167, 0.00661645969375968, -0.044230591505765915, -0.15311086177825928, 0.01990352012217045, 0.07048794627189636, -0.1334216147661209, 0.16603875160217285, -0.035945165902376175, -0.10431189090013504, -0.011196767911314964, -0.059690482914447784, 0.00375022878870368, 0.03787706047296524, 0.10650566220283508, -0.07274843007326126, -0.022046763449907303, -0.048308007419109344, 0.14183342456817627, 0.1608668565750122, 0.10969705134630203, -0.06726543605327606, -0.16559027135372162, -0.12305130064487457, -0.03622979670763016, 0.08383790403604507, 0.07780729979276657, 0.15282177925109863, 0.06480898708105087, -0.12451409548521042, 0.1341613382101059, 0.040196336805820465, -0.120702363550663, 0.059958040714263916, 0.06408970057964325, 0.0249586533755064, -0.10923638939857483, 0.022141162306070328, -0.038958486169576645, 0.17985540628433228, 0.15288342535495758, 0.07912176102399826, 0.10851383209228516, -0.04371632635593414, 0.15874351561069489, -0.05907142907381058, 0.02782278135418892, -0.04243732988834381, 0.09285330772399902, 0.1272205412387848, 0.08077666908502579, 0.074672631919384, -0.09188570082187653, -0.03260877728462219, 0.005863205064088106, 0.1351521760225296, -0.0808129608631134, -0.09326810389757156, 0.11637718975543976, -0.15385651588439941, -0.175150528550148, -0.03307080268859863, -0.07244087755680084, -0.031237106770277023, 0.08753747493028641, -0.10024722665548325, -0.09653918445110321, -0.06941733509302139, 0.09567535668611526, -0.15131708979606628, 0.06718746572732925, -0.03027517907321453, -0.1271764039993286, -0.005770361982285976, 0.11959832161664963, -0.15110117197036743, 0.07778780907392502, -0.16875514388084412], "lstm.bias_hh_l0": [-0.07074403017759323, -0.17792309820652008, -0.17073185741901398, 0.11387710273265839, 0.054575931280851364, -0.09275086224079132, 0.036652568727731705, -0.0787433460354805, 0.12020379304885864, 0.047142792493104935, 0.040930673480033875, 0.12813085317611694, -0.1193804070353508, -0.16452227532863617, 0.11586890369653702, 0.11738280206918716, -0.009193984791636467, -0.07794690132141113, 0.04050370305776596, -0.03464556485414505, -0.1986292451620102, 0.08247532695531845, 0.10286568105220795, -0.12184489518404007, -0.05997317284345627, -0.1692005842924118, 0.07652058452367783, -0.13679757714271545, -0.1716109663248062, 0.09689705073833466, -0.026880616322159767, -0.057732220739126205, -0.006409341003745794, -0.05916622281074524, 0.056784920394420624, 0.021744273602962494, 0.09788146615028381, -0.13907888531684875, 0.08275040239095688, -0.04144686087965965, 0.0685359463095665, 0.017515994608402252, -0.18030931055545807, -0.19001805782318115, -0.10094376653432846, 0.022886820137500763, 0.06668905913829803, 0.08247052133083344, -0.008166550658643246, -0.06898550689220428, -0.13191963732242584, -0.013754276558756828, -0.11471296101808548, -0.12713037431240082, -0.13415129482746124, -0.09309415519237518, -0.04899848625063896, -0.08704402297735214, -0.1376546323299408, 0.08122935891151428, 0.02526683732867241, 0.0310497023165226, -0.05031328275799751, -0.1078748032450676, -0.023217884823679924, 0.10656215250492096, -0.13426992297172546, 0.10112465918064117, -0.025294601917266846, -0.12206487357616425, -0.05163370817899704, 0.03408356383442879, -0.10075663030147552, -0.09590008109807968, -0.09943731129169464, 0.030396640300750732, -0.03340590000152588, -0.148918017745018, -0.031102927401661873, -0.07895483076572418, 0.05252206698060036, 0.0668734610080719, 0.13704077899456024, -0.1403539627790451, -0.042858485132455826, -0.1453721672296524, 0.08519899100065231, 0.10316114872694016, -0.09028510749340057, 0.12741361558437347, 0.08081628382205963, -0.03618136793375015, -0.02664938196539879, 0.10574780404567719, -0.1859571486711502, 0.05924574285745621, -0.02749679423868656, 0.07182871550321579, 0.08233090490102768, 0.07210633903741837, 0.02086493745446205, -0.05352512374520302, -0.13354454934597015, 0.05837836489081383, 0.0835031196475029, 0.0986476019024849, 0.06991452723741531, 0.08487299829721451, 0.029206622391939163, 0.03077780082821846, -0.1719808131456375, 0.01735922321677208, -0.10082169622182846, -0.16395533084869385, -0.18184371292591095, -0.08440980315208435, 0.11369697004556656, -0.11290156841278076, -0.0929744765162468, 0.10288497805595398, 0.01763221248984337, 0.16627535223960876, 0.13076013326644897, -0.011443546041846275, -0.20148347318172455, -0.13873274624347687, 0.06219310685992241, -0.13988375663757324], "dense.weight": [[-0.006714728195220232, 0.034756869077682495, 0.04022381827235222, 0.1233043372631073, -0.06655502319335938, -0.12412881851196289, 0.01395684015005827, 0.14505022764205933,