{"lstm.weight_ih_l0": [[0.08954703062772751], [0.25913694500923157], [-0.19349384307861328], [-0.047175828367471695], [0.04844391718506813], [0.1835944801568985], [-0.18112215399742126], [-0.24938802421092987], [-0.024273397400975227], [0.05318808928132057], [0.005846838466823101], [0.08209094405174255], [0.15190258622169495], [-0.03554333746433258], [-0.0488462969660759], [-0.0796612873673439], [0.13683009147644043], [0.03330279886722565], [-0.037205398082733154], [0.019230330362915993], [-0.10927953571081161], [0.07968348264694214], [-0.14065606892108917], [0.08529122173786163], [0.04113297536969185], [0.04123607650399208], [0.09751313179731369], [-0.03286098688840866], [-0.0060434588231146336], [0.06375228613615036], [0.09958288818597794], [-0.10244295746088028], [0.08788040280342102], [0.6829836964607239], [0.4613063335418701], [0.1436651051044464], [-0.04320881888270378], [-0.25956597924232483], [-0.1903652846813202], [-0.04432772472500801], [-0.6852249503135681], [0.040213990956544876], [-0.5478283762931824], [0.09001147747039795], [0.27488458156585693], [-1.6035372018814087], [-6.353251934051514], [-0.08385930210351944], [0.09989266097545624], [-0.22680918872356415], [-0.15831606090068817], [0.030177239328622818], [0.07968686521053314], [0.09312549233436584], [0.1312778741121292], [-0.055691372603178024], [0.07421357929706573], [0.11713255941867828], [0.29549527168273926], [-0.13118717074394226], [0.23758235573768616], [-0.8906624913215637], [-0.01909809000790119], [-0.06955760717391968]], "lstm.weight_hh_l0": [[-0.005635654553771019, 0.6530219316482544, -0.10508456081151962, -0.16941769421100616, -0.11137842386960983, -0.31829705834388733, 0.10222984105348587, -0.03858651965856552, -0.130814328789711, -0.41277748346328735, -0.1689513921737671, 0.3914695084095001, -0.3412724733352661, 0.12624959647655487, 0.4595683813095093, 0.384760320186615], [-0.15601496398448944, -0.24391165375709534, 0.3206927478313446, -0.12744376063346863, 0.12689240276813507, -0.288540244102478, 0.5225328803062439, -0.12501400709152222, -0.007865000516176224, -0.039608776569366455, 0.06377331912517548, 0.12329019606113434, 0.4138786792755127, -0.2399999499320984, -0.37521564960479736, 0.09062344580888748], [0.1333884447813034, 1.0036343336105347, 0.0034944473300129175, -0.04542522504925728, -0.3224092423915863, -0.7096971869468689, 0.6237658858299255, 0.04139091074466705, -0.2482564002275467, -0.6370253562927246, 0.5829343795776367, 0.17254596948623657, 0.09669779986143112, 1.2216647863388062, -0.2665412127971649, -0.14541995525360107], [-0.24525874853134155, 0.24443911015987396, 0.6020261645317078, 1.2021461725234985, -0.106463223695755, -0.5147591829299927, 0.665923535823822, -0.219720721244812, 0.08352994918823242, -0.9872326254844666, -0.21469703316688538, -0.2519838809967041, -0.39220160245895386, 0.13214907050132751, -0.04668120667338371, -0.048309076577425], [0.04705450311303139, 0.2830236554145813, 0.08046650141477585, -0.02403443679213524, 0.18354693055152893, -0.1325608640909195, 0.2605724036693573, 0.09785645455121994, -0.1692848801612854, -0.34295469522476196, -0.38574454188346863, 0.1666749119758606, -0.12011722475290298, 0.24486848711967468, 0.7444313168525696, -0.0765378326177597], [0.5283588767051697, 0.13490861654281616, -0.28716257214546204, 0.7832609415054321, -0.3947613537311554, -0.12556247413158417, -0.0075136697851121426, -0.5029977560043335, -0.1557873636484146, 0.2884068191051483, -0.458993524312973, 0.012568667531013489, 0.041893769055604935, 0.024287760257720947, -0.31876665353775024, 0.6918392181396484], [0.9776415824890137, 0.5707936882972717, 0.37380436062812805, -1.1435707807540894, 0.3409324288368225, -0.36780139803886414, -0.9268743991851807, -0.20179152488708496, 0.02765043079853058, -0.2511809170246124, -1.1524196863174438, -0.5675407648086548, -0.23589199781417847, 0.375003844499588, -0.14593219757080078, -0.21732573211193085], [-0.27138563990592957, 0.09419263899326324, 0.0269637368619442, 0.062326520681381226, -0.14343293011188507, -0.10153226554393768, 0.48008155822753906, 0.033813633024692535, 0.366092711687088, 0.17581985890865326, 0.5205769538879395, 0.3644685745239258, -0.2838616371154785, -0.09941080957651138, -0.33907386660575867, 0.08031316846609116], [-0.14754197001457214, 1.3222492933273315, -0.11163754016160965, -0.05486321821808815, 0.1125662699341774, -0.4925020635128021, 0.5546644926071167, 0.39873436093330383, 0.1379963755607605, -0.34830185770988464, 0.33739545941352844, 0.1879953294992447, 0.0982380360364914, 1.5015548467636108, -0.5701823234558105, 0.27860116958618164], [-0.24078983068466187, -0.0028369573410600424, 0.17745274305343628, -0.4332551658153534, -0.284420371055603, 0.20164820551872253, 0.12485947459936142, -0.046214837580919266, -0.034829139709472656, 0.4451128840446472, -0.6830535531044006, 0.55037522315979, 0.13696691393852234, 0.2881709337234497, -0.13093523681163788, -0.12035416811704636], [-0.03947015106678009, -0.687670111656189, 0.21384839713573456, 0.2115900218486786, 0.40680453181266785, 0.3277178406715393, -0.5693366527557373, -0.2691631317138672, 0.030234649777412415, 0.3580178916454315, -0.07066534459590912, -0.3123098611831665, -0.1565050631761551, -0.43919798731803894, 0.0647735595703125, -0.038323644548654556], [0.15729308128356934, -0.0860169380903244, 0.020578714087605476, -0.6742570996284485, -0.6684048175811768, 0.21774399280548096, 0.26096099615097046, -0.5574554204940796, -0.25933897495269775, -0.1852559596300125, -0.10433994978666306, -0.05201670527458191, 0.30465996265411377, 0.13352319598197937, 0.21644282341003418, -0.48030799627304077], [0.2433532476425171, 1.2207952737808228, 0.1475425511598587, -0.1409243941307068, -0.09568268805742264, -0.27493715286254883, 0.49383026361465454, 0.7761819958686829, -0.4243418574333191, -0.2518458664417267, -0.17359231412410736, 0.6013109087944031, 0.4761892259120941, 1.2185801267623901, -0.3939961791038513, 0.15687252581119537], [0.05770189315080643, -0.10646570473909378, 0.4550037384033203, -0.01423514075577259, 0.2687646150588989, -0.27046480774879456, 0.09210602194070816, -0.1305444836616516, -0.630056619644165, -0.15023404359817505, 0.3017835021018982, -0.10340219736099243, 0.06568953394889832, 0.32488906383514404, 0.6203484535217285, -0.07475090771913528], [-0.04502482712268829, -0.6720293164253235, 0.2830868661403656, 0.4998059868812561, 0.6951497197151184, 0.18661566078662872, -0.6283354759216309, -0.41406717896461487, 0.10999681800603867, 0.30333733558654785, -0.12221778929233551, -0.27182963490486145, -0.25420576333999634, -0.3644137978553772, -0.13457073271274567, -0.06635311245918274], [0.3761116862297058, 0.844710111618042, 0.48861557245254517, -0.21690301597118378, -0.807665228843689, -0.049791280180215836, 1.021148443222046, 0.07881523668766022, 0.19370236992835999, -0.3111705780029297, 0.033653803169727325, 0.5521500110626221, -0.47281530499458313, 0.07390744239091873, 0.11571325361728668, 0.21928569674491882], [0.25627678632736206, -0.9344243407249451, -0.05875201150774956, -0.03849336504936218, -0.3644590973854065, 0.7808224558830261, -0.5508753061294556, -0.6046374440193176, -0.3295082151889801, 0.7919709086418152, -0.2044382393360138, 0.1340315341949463, 0.18302984535694122, -0.4745175838470459, -0.24855898320674896, 0.3745204508304596], [-0.14149098098278046, -0.5812492370605469, 0.5118502974510193, -0.13009469211101532, -0.14366166293621063, -0.2598821520805359, 0.22027821838855743, -0.14867709577083588, -0.10751006007194519, -0.0777515098452568, 0.0833270326256752, 0.5383726358413696, 0.5791317224502563, -0.15404975414276123, 0.40652626752853394, -0.010774942114949226], [-0.20565210282802582, -0.8888664841651917, 0.2496759295463562, 0.20030654966831207, 0.17104178667068481, 0.5088638663291931, -0.7803844213485718, -0.733542799949646, 0.12872782349586487, 0.5850033760070801, 0.16257700324058533, -0.09472465515136719, -0.10317190736532211, -0.46796730160713196, -0.17305374145507812, 0.031110011041164398], [-0.2122928947210312, -0.7083964347839355, 0.059498708695173264, -0.85894376039505, -0.28632044792175293, 0.29005396366119385, -0.6462560892105103, 0.0794198215007782, -0.22832614183425903, 0.21219398081302643, -0.35770028829574585, -0.23752689361572266, -0.2042238563299179, -0.15566296875476837, -0.0923474058508873, 0.17970436811447144], [0.21082936227321625, 0.003535876050591469, 0.16810235381126404, 0.12910684943199158, -0.14580561220645905, 0.363072007894516, -0.385874480009079, -0.2503320574760437, 0.08803209662437439, 0.23536504805088043, 0.40701937675476074, 0.985611617565155, -0.37068963050842285, -0.5521867871284485, 0.5142619013786316, 0.32747945189476013], [0.6818163394927979, -0.21509765088558197, -0.05045963078737259, 0.38803452253341675, 0.40774470567703247, 0.1994200497865677, -0.057669904083013535, 0.1730044037103653, -0.19853676855564117, 0.0019065981032326818, 0.6643285751342773, 0.490622341632843, 0.12435515969991684, 0.16945679485797882, 0.2526317238807678, 0.12622468173503876], [0.2922671437263489, 0.04182535409927368, 0.45564034581184387, -0.8198683261871338, -0.15912145376205444, -0.4562642574310303, -1.058447241783142, 0.9313217401504517, 0.2837544083595276, -0.04167952015995979, -0.9185456037521362, -0.38941219449043274, -0.43409115076065063, 0.4398565888404846, -0.2834600806236267, -0.6262813806533813], [-0.22196170687675476, -0.25431233644485474, 0.4156886041164398, -0.10595589131116867, 0.48204973340034485, 0.16143204271793365, -0.3938937485218048, -0.007947894744575024, -0.05117272585630417, 0.519264280796051, -0.006722062360495329, 0.07806413620710373, 0.08723850548267365, -0.17760314047336578, 0.1717611402273178, -0.24859443306922913], [-0.1493079662322998, -1.2422065734863281, 0.6663731932640076, 0.021531136706471443, -0.22610068321228027, 0.09409116208553314, -0.5679514408111572, -0.5038078427314758, 0.29610592126846313, 0.5627008676528931, -0.06384585797786713, -0.03540497273206711, 0.08513098955154419, -0.9561308026313782, -0.052686192095279694, -0.017298173159360886], [-0.2557467520236969, 0.03442505747079849, 0.06559524685144424, -0.435330331325531, -0.3713472783565521, 0.4118453562259674, 0.5267486572265625, -0.4402165114879608, -0.053242847323417664, 1.1055835485458374, -1.2927135229110718, 0.33731386065483093, -0.20986421406269073, 0.2882387340068817, -0.528675377368927, -0.2777910828590393], [-0.14514991641044617, -0.1705419421195984, -0.8655616044998169, -0.1843705028295517, -0.31388983130455017, 0.23241527378559113, -0.2911532521247864, -0.01094074361026287, -0.11543957889080048, 0.26883184909820557, 0.21936243772506714, 0.22992484271526337, 0.6069448590278625, -0.007573265116661787, 0.18831594288349152, -0.16310599446296692], [0.3294695317745209, -0.12185973674058914, -0.4073931574821472, 0.27486684918403625, -0.22936032712459564, 0.37751320004463196, -0.16836582124233246, -0.5962534546852112, -0.17835526168346405, -0.3682428002357483, -0.507540225982666, 0.22648979723453522, 0.06817977875471115, 0.10613328963518143, -0.30873504281044006, -0.07073099911212921], [0.0804079994559288, -1.303104281425476, 0.23239177465438843, 0.44679704308509827, 0.590392529964447, 0.4647507667541504, -0.1417141854763031, -0.4521314203739166, 0.020550429821014404, 0.6909427642822266, 0.37492871284484863, -0.04930447041988373, 0.20982752740383148, -0.6196622848510742, 0.26707732677459717, -0.023594550788402557], [-0.009639402851462364, -0.3159269094467163, 0.2730996012687683, -0.26422086358070374, -0.4094262421131134, -0.3232795298099518, 0.39408332109451294, -0.2158033847808838, -0.431792676448822, 0.11035631597042084, -0.10042687505483627, 0.421407014131546, -0.32583358883857727, 0.1790461242198944, -0.8069210648536682, -0.07508431375026703], [-0.17779210209846497, -0.6146164536476135, 0.4386831521987915, -0.0032807860989123583, 0.47785651683807373, 0.47784101963043213, -0.2665991187095642, -0.611074686050415, 0.08931109309196472, 0.16675056517124176, 0.07300128787755966, -0.4561960697174072, -0.2267732471227646, -0.2449161410331726, 0.11714345961809158, 0.032893598079681396], [-0.0050350637175142765, -0.7331610918045044, -0.0014962595887482166, 0.2609339952468872, 0.3417244553565979, 0.5785202980041504, -0.28970301151275635, -0.2927766442298889, -0.06384981423616409, 0.5008354783058167, -0.053377531468868256, -0.07087396085262299, 0.10199236124753952, 0.13527989387512207, 0.02154758758842945, -0.1743587702512741], [0.40795576572418213, 0.47192174196243286, 0.2718234956264496, -0.37379541993141174, -0.0412231907248497, 0.44415032863616943, -0.021196892485022545, -0.15663503110408783, 0.09918344020843506, -0.24367810785770416, 0.37983372807502747, -0.33125418424606323, -0.04618097096681595, -0.10804123431444168, -0.20513799786567688, -0.42443519830703735], [-0.07361659407615662, 0.3746030628681183, -0.10564906895160675, -0.11293548345565796, -0.1901838630437851, 0.18845346570014954, 0.06618385016918182, 0.1975032389163971, -0.1474776268005371, 0.1884833723306656, 0.6116316318511963, 0.24490951001644135, 0.14740043878555298, 0.2522857189178467, -1.214191198348999, 0.012679723091423512], [-0.06086805462837219, 0.013834205456078053, 0.3778191804885864, 0.13033448159694672, 0.08933888375759125, -0.1395277976989746, 0.24693824350833893, 0.030879762023687363, 0.34868043661117554, 0.26771196722984314, 0.01747024431824684, 0.1307227462530136, 0.23210975527763367, -0.42486605048179626, -1.178296446800232, -0.23830048739910126], [0.7464880347251892, -0.27090707421302795, -0.082520991563797, 0.01764281466603279, -0.48228320479393005, 0.034645602107048035, -0.523705780506134, -0.19232052564620972, -0.12253015488386154, 0.30458325147628784, -0.39712953567504883, -0.11022970080375671, -0.2894260287284851, 0.04118765518069267, -0.023797040805220604, 0.5527555346488953], [-0.2889333963394165, -0.08439645171165466, 0.14485003054141998, 0.34838056564331055, 0.09474034607410431, 0.49465686082839966, -0.5466960072517395, -0.5713370442390442, 0.09295433014631271, 0.16570238769054413, 1.2452837228775024, -0.49752917885780334, 0.4346831142902374, 0.05604672059416771, 0.29204773902893066, -0.686820387840271], [0.11801773309707642, -0.1323634386062622, -0.07400155812501907, -0.23837853968143463, -0.31815701723098755, -0.15385155379772186, 0.1577826887369156, 0.04768643528223038, 0.07923351228237152, 0.01873907819390297, 0.3013112246990204, -0.22275546193122864, 0.30965131521224976, -0.14545871317386627, 1.0827934741973877, 0.4433954358100891], [0.3781862258911133, 0.2931020259857178, -0.19449980556964874, -0.34182819724082947, 0.2638385593891144, -0.27264660596847534, 1.031423807144165, -0.38111579418182373, -0.28657424449920654, -0.38480281829833984, 0.6386529207229614, -0.7038319706916809, 0.3940722346305847, 0.6258084774017334, -0.1229899525642395, -0.14820604026317596], [-0.0001244778250111267, -0.20418018102645874, 0.05038616061210632, 0.0949953943490982, -0.2150544375181198, -0.7012405395507812, 0.19879749417304993, -0.09343179315328598, -0.06404987722635269, -0.24799786508083344, 0.9804204702377319, 0.406713604927063, 0.12780265510082245, 0.1537630558013916, 0.390315979719162, -0.34523841738700867], [-0.01820417307317257, -0.1412757933139801, -0.5346949696540833, 0.05444817990064621, 0.04350508376955986, 0.08409862220287323, 0.03363920375704765, -0.0398029200732708, 0.09373772144317627, -0.07322531193494797, 0.20196369290351868, -0.001677960273809731, -0.6589480042457581, 0.07284313440322876, 0.6721837520599365, -0.14030858874320984], [-0.024856436997652054, -0.07285001128911972, -0.05671180412173271, 0.2302962839603424, 0.5378497242927551, 0.6442819833755493, 0.6976818442344666, 0.22784969210624695, -0.1553630828857422, 0.0786624401807785, -0.29708343744277954, -0.1583985686302185, -0.36000725626945496, -0.08219574391841888, -0.6801683902740479, 0.6912984848022461], [-0.13303741812705994, -0.23314152657985687, 0.6890396475791931, 0.08090381324291229, 0.20147624611854553, 0.5645288228988647, 0.07371420413255692, 0.055841270834207535, -0.6082757711410522, -0.3935040235519409, 1.7263257503509521, -0.24768659472465515, 0.3982762098312378, 1.2254056930541992, 6.465383529663086, -0.1423606276512146], [0.004341952037066221, 0.09129633009433746, 0.026678066700696945, 0.14564546942710876, -0.9121163487434387, 0.37643560767173767, 0.020750295370817184, -0.35035690665245056, 0.13258704543113708, 0.36573025584220886, 1.3860259056091309, 0.2017827332019806, 0.31771281361579895, 0.45922112464904785, 0.04457353800535202, -0.8994360566139221], [-0.004538038279861212, -0.01726725324988365, -0.22048723697662354, -0.05879659950733185, -0.23353026807308197, -0.13828030228614807, -0.21531006693840027, -0.10008486360311508, 0.13442203402519226, -0.17049755156040192, -0.36924177408218384, -0.1321718543767929, 0.2688055634498596, -0.3018723428249359, -1.1673327684402466, -0.04269956424832344], [-0.005739326123148203, 0.6733593344688416, 0.1186443343758583, -0.13850444555282593, -0.09561117738485336, 0.15007656812667847, 0.0060410513542592525, 0.021231673657894135, -0.3081546723842621, 0.07510057836771011, -0.2548784911632538, -0.020241927355527878, 0.08207743614912033, -0.3040131628513336, 1.022918939590454, -0.013670622371137142], [-0.025896670296788216, 0.450062096118927, 1.2966947555541992, -0.027176830917596817, -0.019936559721827507, -0.1545906364917755, 0.0012989691458642483, -0.05195987597107887, -2.717851400375366, 0.058572448790073395, -0.2032558023929596, 0.02197168953716755, 1.0439064502716064, -0.755121648311615, 0.02171919122338295, -0.08467711508274078], [0.5143968462944031, -0.21492937207221985, -0.002939775353297591, 0.07297555357217789, -0.138217493891716, 0.01730424165725708, -0.2098287045955658, 0.0911577045917511, 0.20735888183116913, 0.23791038990020752, 0.9156661629676819, -0.03285292908549309, 0.12880952656269073, 0.24546979367733002, -0.1942005753517151, 0.4837254285812378], [-0.18892359733581543, -0.4702431261539459, 0.1738324612379074, 0.18312855064868927, -0.26563411951065063, 0.21114955842494965, -0.21475593745708466, 0.22497816383838654, -0.1701512634754181, -0.1765291541814804, -0.34068700671195984, -0.020442187786102295, -0.043328091502189636, -0.2464873492717743, 0.22934478521347046, -0.36874374747276306], [-0.2631697952747345, -0.8079530000686646, -0.36108529567718506, 0.004333225544542074, 0.18334661424160004, -0.23625487089157104, -0.01942332461476326, -0.08465791493654251, 0.10431911051273346, -0.28220057487487793, 1.0528606176376343, -0.11110376566648483, -1.0322692394256592, -0.772224485874176, 1.2238701581954956, 0.038561124354600906], [-0.23024889826774597, 0.18177811801433563, -0.03593141585588455, -0.08804645389318466, 0.20749598741531372, 0.3431890904903412, -0.2793318033218384, -0.017199227586388588, -0.13584725558757782, 0.10642129927873611, 0.03042183257639408, -0.07566323131322861, 0.270914226770401, 0.26570314168930054, -0.834036648273468, 0.19984616339206696], [-0.16204281151294708, -0.28776583075523376, 0.12091872096061707, 0.23436053097248077, -0.1795457899570465, -0.1841791272163391, -0.40367525815963745, 0.17423751950263977, -0.04310362786054611, -0.06716150045394897, -0.25665393471717834, -0.585259199142456, 0.08148561418056488, -0.13346794247627258, 0.27508604526519775, -0.16846860945224762], [-0.3874468505382538, -0.16008193790912628, 0.1164981946349144, 0.16320018470287323, -0.014960983768105507, -0.0254671648144722, -0.02440182864665985, -0.33790212869644165, 0.04287204146385193, 0.2690066993236542, -0.796055257320404, -0.11422310024499893, -0.35329705476760864, -0.7953618764877319, 0.028613099828362465, -0.1909044235944748], [-0.15813370048999786, -0.1587509959936142, -0.010496515780687332, -0.9992725849151611, 0.15907947719097137, 0.533549964427948, -0.038737859576940536, 0.2115083634853363, 0.12136664986610413, 0.3233617842197418, -0.5360626578330994, 0.9808825850486755, 0.31114745140075684, -0.14929600059986115, 0.24436461925506592, -0.9631397724151611], [0.46940377354621887, -0.39685678482055664, 0.07707661390304565, 0.5833997130393982, -0.14168456196784973, 0.21814870834350586, -0.8539339900016785, 0.8896092772483826, -0.11540583521127701, 0.32296016812324524, 0.9869897365570068, 1.2683327198028564, -0.08539972454309464, -0.6093930602073669, -0.038592059165239334, 0.8618040084838867], [-0.26450616121292114, -0.39456048607826233, 0.22555017471313477, 0.2835127115249634, 0.30427250266075134, 0.2851417660713196, 0.22424039244651794, -0.21847409009933472, -0.13202708959579468, 0.24192559719085693, 0.6040446162223816, 0.08513262867927551, -0.08027345687150955, 0.0044920253567397594, 0.512620747089386, -0.17202045023441315], [-0.05880219116806984, -0.30547431111335754, 0.021534249186515808, 0.09185053408145905, 0.06826092302799225, 0.1902136653661728, -0.08848562836647034, 0.08974660933017731, -0.06176688149571419, 0.4187532663345337, -0.2591896057128906, 0.07524890452623367, 0.27124887704849243, -0.477976530790329, -0.13733993470668793, 0.3769041895866394], [0.2683176100254059, -0.260353684425354, -0.2954525947570801, -0.044931042939424515, 0.5323100686073303, 0.27795353531837463, -0.1920657902956009, -0.03868480026721954, -0.16030260920524597, 0.8384336233139038, 1.5463722944259644, 0.4769098460674286, 0.25864699482917786, 0.11401460319757462, 0.11509209871292114, 0.2623993754386902], [-0.021562080830335617, 0.037486299872398376, 0.37064749002456665, 0.6261152029037476, 1.1715291738510132, -0.17977674305438995, -1.956939935684204, -0.5454397201538086, -0.011208039708435535, 0.47535139322280884, -0.09320002794265747, -0.08910074084997177, -1.0501735210418701, 0.22797590494155884, 0.06937896460294724, 0.07750926911830902], [0.12861692905426025, -0.2345927357673645, -0.1457277089357376, -1.319352388381958, -0.9118290543556213, 0.3667277991771698, -0.14064155519008636, 0.25077491998672485, -0.07074421644210815, -0.3348073959350586, 0.3404620289802551, -0.5209473371505737, 0.1411188542842865, -0.07634976506233215, 0.06649599224328995, -0.08475907891988754], [-0.015223382040858269, -0.22892425954341888, 0.22138987481594086, 0.05856630206108093, -0.11174417287111282, -0.28248071670532227, -0.49703362584114075, -0.2532435357570648, -0.1169641837477684, 0.2760562598705292, 0.012440080754458904, -0.07038979977369308, 0.26937225461006165, -0.6836423277854919, 0.0670132264494896, -0.23149773478507996], [-0.23823876678943634, -0.18655675649642944, -0.49516043066978455, 0.32925716042518616, -0.19454799592494965, 0.3308660686016083, -0.009905515238642693, 0.2056930810213089, 0.1899053156375885, -0.36689385771751404, 1.363742709159851, -0.17246279120445251, 0.11261836439371109, 0.8040056228637695, -1.3382468223571777, -0.17228546738624573], [-0.007689641322940588, -0.6308940649032593, 0.25809821486473083, 0.35132747888565063, 0.4188658893108368, 0.2532634437084198, -0.6032291054725647, -0.40470877289772034, 0.025873428210616112, 0.3613261878490448, -0.11688335239887238, -0.22821003198623657, -0.14164534211158752, -0.4184124171733856, -0.16485539078712463, -0.15246345102787018], [0.06113918870687485, -0.444576621055603, 0.06716129183769226, -0.283171683549881, 0.31730079650878906, 0.20699849724769592, -0.13154827058315277, 0.019421588629484177, 0.06119130924344063, 0.14156538248062134, 0.3284320831298828, -0.1686788648366928, -0.03074049763381481, -0.3548028767108917, 0.058816369622945786, -0.33163124322891235]], "lstm.bias_ih_l0": [-1.4697351455688477, 0.18771202862262726, -0.6196703314781189, -0.7178276181221008, 0.10941154509782791, -0.05910397693514824, 0.28989043831825256, -0.10481105744838715, -0.7716681361198425, 0.06883856654167175, 0.8031003475189209, 0.20715494453907013, -0.8285126686096191, 0.286627858877182, 0.7682191729545593, -0.7982286810874939, 1.4445286989212036, 0.4827006757259369, 1.1854928731918335, 1.3415025472640991, 0.29105764627456665, 0.2845759987831116, 0.3228062689304352, 0.3131527304649353, 1.3473197221755981, 0.33165720105171204, -0.18261688947677612, 0.13617806136608124, 1.302247166633606, 0.6838093400001526, -0.439818799495697, 1.375145673751831, 0.06341219693422318, -0.33394986391067505, 0.011692973785102367, -0.23991486430168152, -0.35830968618392944, 0.43168994784355164, 0.14973857998847961, 0.10073404759168625, -0.06723345816135406, 0.28624847531318665, -0.056082550436258316, -0.0619320273399353, -0.08275406062602997, -0.20934399962425232, -0.05704590305685997, -0.11791569739580154, 0.18080668151378632, 0.463348388671875, 0.6166149377822876, 0.5154711604118347, 0.23146602511405945, 0.24396270513534546, 0.3848229646682739, 0.1749044805765152, 0.6962887644767761, 0.1826554536819458, -0.5841878056526184, 0.4181554615497589, 0.3194471001625061, 0.4761095643043518, 1.000327706336975, 0.44699928164482117], "lstm.bias_hh_l0": [-1.4736155271530151, 0.18771202862262726, -0.6350303292274475, -0.7178276181221008, 0.1094115749001503, -0.05897975340485573, 0.28970932960510254, -0.10481105744838715, -0.7716701626777649, 0.06874564290046692, 0.8031003475189209, 0.20715494453907013, -0.8385753035545349, 0.286627858877182, 0.7682191729545593, -0.7973410487174988, 1.444528341293335, 0.4827006757259369, 1.185500144958496, 1.3414911031723022, 0.29105302691459656, 0.2849900424480438, 0.3229161500930786, 0.3131527304649353, 1.3474836349487305, 0.3311837911605835, -0.18261750042438507, 0.13617810606956482, 1.3033850193023682, 0.6838132739067078, -0.4398203194141388, 1.3741886615753174, 0.05420611798763275, -0.33385857939720154, -0.044395141303539276, -0.2605810761451721, -0.34510648250579834, 0.4339441657066345, 0.15474343299865723, 0.10082194209098816, -0.08095718175172806, 0.2920028269290924, -0.051718659698963165, -0.06399572640657425, 0.038097772747278214, -0.21762433648109436, -0.06308452039957047, -0.12912848591804504, 0.18081197142601013, 0.4633437991142273, 0.6165884137153625, 0.5154711604118347, 0.23146602511405945, 0.24438166618347168, 0.38481658697128296, 0.1749044805765152, 0.6962887644767761, 0.1826869696378708, -0.5841878056526184, 0.4181554615497589, 0.31944721937179565, 0.47611889243125916, 1.000327706336975, 0.44699928164482117], "dense.weight": [[-0.21936623752117157, 0.34504616260528564, 0.17800036072731018, -0.20933884382247925, -0.4282051622867584, 0.6918779015541077, -0.21939300000667572, -0.4484620690345764, 0.05454646050930023, -0.4090844690799713, 1.0934988260269165, -0.5612732768058777, -0.07397419959306717, 0.20306815207004547, -0.11246978491544724, -0.5335463285446167]], "dense.bias": [0.005191699601709843]}