{"lstm.weight_ih_l0": [[-0.00018150400137528777, -0.0009207474649883807], [-0.0164549108594656, 1.361602783203125], [-0.0005932182539254427, -0.003197281388565898], [0.006739638280123472, 0.15075752139091492], [9.12678733584471e-05, 0.002242438029497862], [-0.09466049075126648, 0.12392532080411911], [0.04415905103087425, 0.20877423882484436], [-0.0003862924058921635, -0.0006024881731718779], [-0.0005448391893878579, -0.0006011193036101758], [-0.0003434625396039337, -0.00015020582941360772], [0.0012406717287376523, -0.01160843763500452], [0.06906753778457642, 0.3224230706691742], [0.009877336211502552, 0.09942059963941574], [-0.0008904073620215058, -0.001790870912373066], [0.00022788804199080914, -0.003176207887008786], [-0.001624303637072444, -0.0034516414161771536], [0.006763060577213764, 0.6470627188682556], [-0.0002431008470011875, -0.0004681370919570327], [-0.0001670906349318102, 0.001218568067997694], [-0.0002416938223177567, 9.294551273342222e-05], [1.030412022373639e-05, 0.006964844185858965], [-0.004531066864728928, 0.014060579240322113], [-0.00013072862930130213, 0.0007701920112594962], [0.0005251275142654777, 0.37274980545043945], [-0.056252606213092804, 0.24399419128894806], [-0.00877865869551897, -0.18903592228889465], [-0.0007551110466010869, 0.2107086032629013], [0.0012503281468525529, -0.07966165244579315], [-0.0004049872513860464, -0.001956891966983676], [0.0014959933469071984, -0.0016185319982469082], [7.079967326717451e-05, 0.0005991034558974206], [0.02902563475072384, 0.1174798458814621], [-0.0001308922510361299, 0.0003445474139880389], [0.011378718540072441, -0.07552698999643326], [-0.000609266571700573, 0.0005038418457843363], [0.014850624836981297, 0.024659413844347], [0.0005987294716760516, 0.009728603065013885], [-0.04996231198310852, -0.13602977991104126], [-0.04357112571597099, 0.08990991115570068], [-0.0004511481965892017, 6.113731069490314e-05], [-0.0005333582521416247, 0.0013302654260769486], [-0.00039339353679679334, 0.00045890590990893543], [0.001419708481989801, -0.016773365437984467], [0.0403311587870121, -0.02715521864593029], [0.008148301392793655, 0.11436186730861664], [-0.0007335875416174531, -0.0010446333326399326], [0.00027367888833396137, -0.0019804255571216345], [-0.0016103649977594614, -0.0001946691336343065], [-0.008497139438986778, -0.06811021268367767], [-0.00024322366516571492, 5.8208614063914865e-05], [-0.00010865966760320589, 0.0028346912004053593], [-0.00024271986330859363, 0.0006722561665810645], [0.0006306825671344995, 0.015919730067253113], [-0.003703183261677623, -0.006365652661770582], [-3.9446251321351156e-05, 0.0035513986367732286], [0.03335033357143402, -0.1487637460231781], [-0.056261394172906876, -0.07459753751754761], [-0.01254050713032484, -0.11642206460237503], [0.031466737389564514, 0.15905456244945526], [-0.006268233992159367, 0.08479486405849457], [-0.00042161461897194386, -0.0020620787981897593], [0.001338797970674932, 0.0022451751865446568], [0.00016906193923205137, 0.0030224190559238195], [0.041201476007699966, 0.1587476134300232], [0.005929911974817514, 0.010795342735946178], [-4.390030860900879, -0.006117813289165497], [0.0041939010843634605, -0.020272405818104744], [0.08360978215932846, -0.25933772325515747], [0.028399180620908737, 0.07782241702079773], [-0.6851595044136047, 0.7769134640693665], [-0.562828540802002, -0.8833889961242676], [0.0027514654211699963, -0.048938002437353134], [0.003302347380667925, -0.02827015519142151], [0.0024201965425163507, -0.041505999863147736], [0.00737068010494113, 0.08376646041870117], [-0.4001370668411255, 0.09355214983224869], [0.0680144652724266, 0.42622408270835876], [-0.006984222214668989, 0.016491027548909187], [-0.007839160040020943, -0.029761290177702904], [0.009117013774812222, -0.04829469323158264], [2.1492369174957275, 0.0009595777373760939], [-0.0026843685191124678, 0.009066625498235226], [0.008456888608634472, -0.002372780116274953], [0.0063126967288553715, -0.014670346863567829], [-0.03382951766252518, -0.08047210425138474], [-0.03754958510398865, 0.1971658170223236], [-0.018358668312430382, -0.03671671077609062], [-2.0629775524139404, -0.04785258322954178], [0.17278675734996796, -0.08900196105241776], [-0.1886598765850067, -0.03467179462313652], [-0.22940123081207275, 0.29405084252357483], [-0.10965333878993988, 0.03811033070087433], [0.0024929477367550135, 0.025836659595370293], [-0.0005176628474146128, -0.013121350668370724], [-0.00948870275169611, -0.014461677521467209], [0.002570288022980094, 0.2387354075908661], [-0.00023595835955347866, -0.0009800156112760305], [-0.02842871844768524, 1.0585737228393555], [-0.0006951815448701382, -0.0034290470648556948], [0.016818726435303688, 0.14457334578037262], [-0.0003072753606829792, 0.0021304793190211058], [-0.12050790339708328, 0.06135661527514458], [0.014433324337005615, 0.24022290110588074], [-0.0004101589438505471, -0.0007155719795264304], [-0.0006053043762221932, -0.0007106148987077177], [-0.00036247281241230667, -0.00022969295969232917], [0.002275521634146571, -0.01319779921323061], [0.12821201980113983, 0.29939115047454834], [-0.013773635029792786, 0.2327362596988678], [-0.0009419881971552968, -0.0018956584390252829], [0.00018187466775998473, -0.0032693708781152964], [-0.0018016933463513851, -0.00398451229557395], [0.007668279577046633, 0.6751598119735718], [-0.0002506747841835022, -0.0005049826577305794], [-0.00021672503498848528, 0.0012006554752588272], [-0.00022761728905607015, 5.661208342644386e-05], [-0.0004304750182200223, 0.006833319086581469], [-0.0021484331227838993, 0.004956602118909359], [-0.000265859387582168, 0.0004542918468359858], [0.011000555008649826, 0.35865911841392517], [-0.0913928672671318, 0.1813863068819046], [-0.012739351019263268, -0.24041080474853516], [0.021959315985441208, 0.2806551456451416], [0.00393548421561718, -0.05949996039271355], [-0.00039459593244828284, -0.0020978515967726707], [0.0012835962697863579, -0.0017217113636434078], [-2.4749997464823537e-05, 0.0005731980782002211], [0.038076307624578476, 0.18021048605442047]], "lstm.weight_hh_l0": [[6.751354521838948e-05, -0.00041008112020790577, 3.352038038428873e-05, -0.0005270070396363735, 0.00015807045565452427, 0.000428193889092654, -0.00045301314094103873, 1.411225093761459e-05, 3.8111855246825144e-05, 2.142882476618979e-05, 0.00010422531340736896, -0.0007460335036739707, 0.00042261480120941997, 1.8989454702023068e-06, -5.351320214685984e-05, 1.1834591532533523e-05, -0.0002850434393621981, -4.12497938668821e-05, 6.402678991435096e-05, 4.175740832579322e-05, -0.00018521692254580557, 0.00024795139324851334, -0.00012478312419261783, 0.0007167733274400234, 0.00040803634328767657, 3.323900455143303e-05, 0.000968464941252023, -0.0005232771509326994, -1.5353289199993014e-05, -4.049458584631793e-05, -6.908989598741755e-05, 0.0011192088713869452], [0.012882184237241745, 0.005159486550837755, 0.009286814369261265, -0.32882529497146606, 0.02814057469367981, 0.8832873702049255, -1.0494588613510132, -0.011220448650419712, 0.0016632898477837443, -0.006852312479168177, 0.054479554295539856, 0.0671682059764862, 0.5423634648323059, 0.005912733264267445, -0.01910375989973545, -0.007099356967955828, -0.015666238963603973, -0.004154141992330551, 0.010224790312349796, 0.0016121658263728023, -0.029354337602853775, 0.15953561663627625, -0.021425195038318634, 0.011063210666179657, 0.05202019587159157, -0.020265012979507446, 0.4631301164627075, -0.017934981733560562, 0.0027252044528722763, -0.023082870990037918, -0.017420802265405655, 0.3989071846008301], [1.467805850552395e-05, -0.0010372353717684746, -5.820295336889103e-05, -0.0008362741209566593, -6.5369581534469035e-06, -0.0009300007950514555, -0.0016047355020418763, -5.7215434935642406e-05, -4.705910760094412e-05, -4.402130434755236e-05, 0.0001053933592629619, -0.000639153819065541, 0.0011505743023008108, 2.1857829779037274e-05, -4.6105185901978984e-05, -0.00011369281128281727, -0.0007923369994387031, 1.2572610103234183e-05, -8.539749615010805e-06, -2.765772478596773e-05, 3.842805381282233e-05, 0.000549675605725497, 8.123312227326096e-07, -0.00036271070712246, 0.0014789828564971685, 0.00030200069886632264, 0.00044334380072541535, 4.6401259169215336e-05, 2.8613942049560137e-05, 1.0004085197579116e-05, -6.211160780367209e-06, 0.001109094824641943], [0.0001917170884553343, -0.03519099950790405, 0.004368307068943977, 0.024998154491186142, 0.002027953742071986, -0.016562556847929955, -0.06327258050441742, 0.005292645655572414, 0.004896532278507948, 0.0033784769475460052, -0.011378065682947636, -0.003050110535696149, -0.01098241750150919, 0.003274737624451518, -0.00013340837904252112, 0.008030484430491924, -0.052191730588674545, 0.0006484101759269834, 0.001528133056126535, -0.0006561506888829172, -0.0010514825116842985, -0.017616702243685722, -0.0022934451699256897, -0.006454280111938715, 0.06033456325531006, -0.007512184325605631, -0.03223343566060066, -0.04353971779346466, 0.0008168488857336342, -0.0032510978635400534, -0.0019809307996183634, -0.02280622534453869], [0.0001941890368470922, -0.005592011380940676, 0.0001423145004082471, -0.003986737225204706, 0.000775711378082633, -6.590801058337092e-05, -0.0027753098402172327, -0.00012802107085008174, 7.548626308562234e-05, -6.062623288016766e-05, 0.00044794147834181786, -0.004541798960417509, 0.0017861273372545838, -2.914270771725569e-05, -0.0004486701509449631, -0.00014559926057700068, -0.0009150556870736182, -0.00011554998491192237, 0.00018592175911180675, 7.08063380443491e-05, -0.000627686851657927, 0.002445516176521778, -0.00039038906106725335, -0.00021229140111245215, 0.0021041352301836014, -1.0889693839999381e-05, 0.0005918471142649651, -0.0028893265407532454, 9.712989412946627e-05, -0.0003648538258858025, -0.00028699389076791704, 0.004715654067695141], [-0.0038741312455385923, 0.21043811738491058, -0.007265610620379448, -0.06257717311382294, 0.0049947211518883705, -0.022695267572999, 0.16886456310749054, -0.0070234728045761585, -0.006063941866159439, -0.006138213444501162, -0.01055159792304039, 0.07021819800138474, -0.0696154534816742, 0.011099334806203842, 0.002397780539467931, -0.011930598877370358, 0.016521338373422623, 0.004814154002815485, -0.002372319810092449, -0.005271464120596647, -0.003309328807517886, 0.03809347748756409, 0.0019275632221251726, 0.048345454037189484, 0.063939169049263, 0.0609113946557045, -0.03961502015590668, 0.045461151748895645, 0.0059303827583789825, -0.0006750380271114409, 0.00017663720063865185, -0.0070778620429337025], [0.0027377584483474493, -0.09539270401000977, -0.005532061215490103, -0.0637136772274971, 0.003508379217237234, -0.16391290724277496, -0.054251302033662796, -0.0011539116967469454, -0.002136450493708253, -0.0006384108564816415, 0.0018855672096833587, 0.10456924885511398, -0.14320315420627594, 0.0053116269409656525, -0.0035091242752969265, -0.007617119699716568, 0.0010670338524505496, 0.00025206824648194015, 0.00092261319514364, -0.0013186141150072217, -0.0011913380585610867, 0.03904329240322113, -0.006295002996921539, -0.013353454880416393, 0.14765125513076782, -0.046925194561481476, 0.04813102260231972, -0.054034776985645294, 0.001503455569036305, 0.002467277692630887, -0.0015131034888327122, 0.09779365360736847], [2.4793591364868917e-05, -0.0009654001332819462, 1.0382917935203295e-05, -0.00043943553464487195, 7.1680519795336295e-06, -0.0007359645678661764, -0.0008936785161495209, -3.5150148960383376e-06, 8.09519497124711e-06, 1.0660411362550803e-06, 5.5190477723954245e-05, -0.0007700119749642909, 0.0003463805769570172, -9.3771393494535e-07, -2.5797671696636826e-05, -9.460572982789017e-06, -0.0004870683769695461, -1.323908509220928e-05, 1.469892231398262e-05, 8.150385838234797e-06, -3.144885567962774e-06, 0.00026480434462428093, -1.9305951354908757e-05, -8.439474913757294e-05, 0.001519871293567121, 0.0006665148539468646, 8.826894190860912e-05, -0.00016284263983834535, -3.641784132923931e-06, -2.0932406187057495e-05, -1.737680759106297e-05, 0.0007460930501110852], [1.0678814760467503e-05, -0.00016437398153357208, -1.7982411009143107e-05, -0.0005145028699189425, -2.3862072339397855e-05, -0.0002681260521057993, -0.0008015980129130185, -9.27664677874418e-06, -1.051532854035031e-05, -5.2575069275917485e-06, 4.917869227938354e-05, -7.1361696427629795e-06, 0.0008657010039314628, 5.956268978479784e-06, -2.062335806840565e-05, -3.402475704206154e-05, -0.00042395625496283174, -2.33049377129646e-06, 2.393599061178975e-06, 1.4229956946110178e-07, 3.183899389114231e-05, 0.00028146913973614573, -6.916857728356263e-06, 0.00028943855431862175, 0.0012928411597386003, 0.00043639674549922347, 0.0008076090016402304, 9.362078708363697e-05, -1.9925237211282365e-06, 1.1529840776347555e-05, -1.6377292695324286e-06, 0.0007050423882901669], [2.052261152130086e-05, -0.0006273310864344239, 3.8003629470040323e-06, -0.0003349793842062354, -1.0222635182799422e-08, -0.0005128855700604618, -0.0006923994515091181, -1.370568440961506e-07, 5.343244083633181e-06, 2.867027433239855e-06, 4.572671605274081e-05, -0.00046916198334656656, 0.0004589517193380743, 7.479093255824409e-07, -2.3329403120442294e-05, -7.119484052964253e-06, -0.0003147967508994043, -1.0963891327264719e-05, 1.1724780051736161e-05, 7.818502126610838e-06, 1.3258005537863937e-06, 0.00019320477440487593, -1.4551567801390775e-05, 5.818056524731219e-05, 0.0012001954019069672, 0.000556349114049226, 0.0003760613326448947, -3.364195436006412e-05, -4.804836407856783e-06, -7.825086868251674e-06, -1.233626881003147e-05, 0.0006668639252893627], [0.00026422759401611984, -0.0036836164072155952, -1.72298005054472e-05, -0.000524474773555994, 0.00041040097130462527, -0.00042415899224579334, 0.0006327698356471956, 1.8521743186283857e-05, 3.177234611939639e-05, 3.8786827644798905e-05, 0.00022103640367276967, -0.0008130883215926588, 0.0008204071200452745, -1.6062098438851535e-05, -0.0002694655559025705, -7.74073414504528e-05, -0.0010335900587961078, -0.00014429196016862988, 0.00016080746718216687, 0.00012435489043127745, -0.00034227847936563194, -0.00010856086009880528, -0.00046213713358156383, -0.0010823261691257358, -0.0007492113509215415, 0.0005998070118948817, -0.0020886182319372892, -0.00038622799911536276, -1.5542264009127393e-05, 1.0910852324741427e-05, -0.00017540124827064574, 0.0003335171495564282], [0.008517438545823097, -0.20220275223255157, -0.0020773904398083687, -0.08512144535779953, 0.006454011891037226, -0.036146409809589386, -0.3008337914943695, -0.00031578977359458804, -1.9249562683398835e-05, 0.001055857283063233, 0.02583746798336506, 0.010922898538410664, 0.25556182861328125, -0.0009180975612252951, -0.008044419810175896, -0.004929754417389631, 0.009350454434752464, -0.004505261778831482, 0.003977810498327017, 0.0038784113712608814, -0.005325799807906151, 0.05522384122014046, -0.014240177348256111, -0.06880059093236923, 0.12620818614959717, -0.018200229853391647, 0.2062898874282837, -0.05900613218545914, -0.002353380201384425, 0.004342440981417894, -0.003034804714843631, 0.1815432459115982], [-0.00040178769268095493, -0.009829404763877392, -0.0037637599743902683, -0.023935476318001747, 0.001376108848489821, -0.052639834582805634, 0.026350267231464386, -0.0012033897219225764, -0.0019668566528707743, -0.0010353196412324905, -0.0012619586195796728, 0.08577636629343033, -0.09125017374753952, 0.0031543211080133915, 0.0007065725512802601, -0.004964963998645544, 0.01630762778222561, 0.001082595088519156, -0.00045363197568804026, -0.0011952314525842667, -0.0008079677354544401, 0.023462751880288124, -0.0019520039204508066, 0.006829161196947098, 0.052947744727134705, -0.02398231439292431, 0.004516164306551218, -0.03679582476615906, 0.0010170051828026772, 0.002180537674576044, 0.00026918714866042137, 0.030696943402290344], [-9.409508493263274e-06, -0.0001009182960842736, -1.208386765938485e-05, 8.058155799517408e-05, 3.867352643283084e-05, -0.00015740683011244982, -7.809075032128021e-05, -2.6072382297570584e-06, -2.0273154177630204e-07, -2.2591168544749962e-06, -2.0671534002758563e-05, -0.00013479116023518145, -0.000422993500251323, 2.9376762540778145e-05, 2.0404631868586875e-05, -3.3006040212057997e-06, -0.0003275010676588863, 2.6838081339519704e-06, 2.827778189384844e-07, -1.0740693596744677e-06, -3.962018308811821e-05, -3.7613332096952945e-05, 6.404709438356804e-06, 0.000666265666950494, 0.0002917085657827556, 0.0007320971344597638, -0.0001894039596663788, 0.0004177238151896745, 2.978118573082611e-06, 2.3200350369734224e-06, -3.150194970658049e-06, -5.8819328842218965e-05], [6.560280598932877e-05, -0.00040867459028959274, 8.776177855907008e-05, -0.0003266697167418897, 0.00034953386057168245, 0.0002984798338729888, -3.7911584513494745e-05, 1.2487281310313847e-05, 5.9756392147392035e-05, 1.997159415623173e-05, 8.117388642858714e-05, -0.0011650820961222053, -0.0008738992037251592, 1.5826732123969123e-05, -4.312625605962239e-05, 5.0453279982320964e-05, -0.00021732610184699297, -4.063214873895049e-05, 8.034767961362377e-05, 4.118341894354671e-05, -0.00035174371441826224, 8.818563219392672e-05, -0.0001485624088672921, 0.0006296523497439921, 0.00011538006219780073, -0.00018507128697820008, -0.0002614922996144742, -0.0009012744412757456, -5.805913133372087e-06, -0.0001264575112145394, -9.502010652795434e-05, 0.0008733909926377237], [-2.2882984922034666e-05, -0.0006712116301059723, -0.0001365705975331366, -0.0010532718151807785, -0.000166668338351883, -0.0012250649742782116, -0.001814729650504887, -8.177007111953571e-05, -0.00011020430247299373, -6.759107782272622e-05, 7.153112528612837e-05, 4.120607627555728e-05, 0.0006744492566213012, 6.8834219746349845e-06, -1.4714736607857049e-05, -0.0001941693772096187, -0.0016757966950535774, 3.4279491956112906e-05, -6.425996980397031e-05, -4.631381307262927e-05, 0.00021914496028330177, 0.0006217996124178171, 6.324606511043385e-05, 0.00010851073602680117, 0.0026645606849342585, 0.000704966310877353, 0.000676261552143842, 0.0009910350199788809, 2.119606506312266e-05, 0.00010339577420381829, 6.494264380307868e-05, 0.0005503101856447756], [0.003407233627513051, -0.005297040566802025, -0.007527509238570929, -0.19783328473567963, 0.008902267552912235, 0.049798402935266495, -0.16629761457443237, -0.007978581823408604, -0.005900504533201456, -0.006190337240695953, 0.013121915981173515, 0.20569340884685516, 0.21453280746936798, 0.006400011014193296, -0.005631580948829651, -0.014766029082238674, -0.0146305738016963, 0.0019381335005164146, 0.0009437340195290744, -0.0034383637830615044, -0.0060207112692296505, 0.11075489968061447, -0.009279929101467133, -0.0352550707757473, 0.1279486119747162, -0.021514669060707092, 0.19701556861400604, 0.0016051214188337326, 0.005049780011177063, 0.0005171342054381967, -0.003578185336664319, 0.15710841119289398], [2.4170933102141134e-05, -0.0001573304907651618, 1.14420140562288e-06, -0.00024204135115724057, 4.264359813532792e-05, 9.426484757568687e-05, -0.00029994823853485286, 4.03667854698142e-06, 7.449179975083098e-06, 6.6270413299207576e-06, 4.7458674089284614e-05, -0.00024264548846986145, 0.00022046282538212836, 3.585317926990683e-06, -2.1520974769373424e-05, -5.471158146974631e-06, -0.00019599837833084166, -1.3808086805511266e-05, 1.898543087008875e-05, 1.3783071153739002e-05, -4.390341564430855e-05, 0.00011846006964333355, -4.2618587031029165e-05, 0.0002840986126102507, 0.0003569919499568641, 0.00023534198408015072, 0.0005846364656463265, -5.808104469906539e-05, -6.390176622517174e-06, -2.445222435198957e-06, -1.9767492631217465e-05, 0.0004900064668618143], [5.465511276270263e-05, -0.00044438010081648827, 1.7721922631608322e-05, -0.0006441593286581337, 8.908476593205705e-05, 0.00026644300669431686, -0.0009554240386933088, 2.9249597446323605e-06, 2.3540571419289336e-05, 1.04337577795377e-05, 9.930937812896445e-05, -0.00023543501447420567, 0.0012646950781345367, -2.5261920200136956e-06, -5.79129955440294e-05, -5.303791112964973e-06, -0.00011384191748220474, -2.9938029911136255e-05, 4.497337431530468e-05, 2.6239391445415094e-05, -8.55144826346077e-05, 0.0003257286152802408, -8.970354247139767e-05, 0.0003809912595897913, 0.0008575800457037985, 8.136569522321224e-05, 0.0012291523162275553, -0.00036251891287975013, -8.854544830683153e-06, -2.7676620447891764e-05, -4.953539610141888e-05, 0.00119757407810539], [3.059611117350869e-05, -0.00027082301676273346, 7.957128218549769e-07, -0.0003749846073333174, 3.416339313844219e-05, -8.069661816989537e-06, -0.0006915591075085104, -1.9512506241881056e-06, 4.385585725685814e-06, 2.283345338582876e-06, 6.892295641591772e-05, -0.0002322270447621122, 0.000658940349239856, -1.104211492020113e-06, -3.44862237398047e-05, -1.2397566933941562e-05, -0.00016991161101032048, -1.5274124962161295e-05, 1.8869703126256354e-05, 1.2403375876601785e-05, -2.9364131478359923e-05, 0.00020103745919186622, -4.632112541003153e-05, 0.0001394348219037056, 0.0005921845440752804, 0.00029134773649275303, 0.0006983103230595589, -2.3183200028142892e-05, -4.372850526124239e-06, -5.128786142449826e-06, -2.1694013412343338e-05, 0.0006974170682951808], [0.0003355718217790127, -0.0054191527888178825, 0.00010141816892428324, -0.005344019737094641, 0.0005848442669957876, 0.00012908590724691749, -0.0041116997599601746, -0.000164472745382227, 2.694866998353973e-05, -9.214622696163133e-05, 0.0004969654255546629, -0.0023829746060073376, 0.0035426795948296785, 4.535452535492368e-05, -0.0008863947005011141, -0.00018841550627257675, -0.0008516976376995444, -0.00018252742302138358, 0.000204876356292516, 9.89921172731556e-05, -0.0005193723482079804, 0.0032075857743620872, -0.00032084001577459276, -0.0005226380890235305, 0.0029023257084190845, -0.0001409093092661351, 0.00397737929597497, -0.0021356011275202036, 6.374099757522345e-05, -0.000322688021697104, -0.0003623667871579528, 0.006100927479565144], [0.0003172784636262804, -0.006862353067845106, -0.0017003034008666873, -0.009576933458447456, -0.0004786985809914768, -0.012760954909026623, -0.015654806047677994, -0.001374513260088861, -0.001419481122866273, -0.001099734683521092, 0.0008479988900944591, 0.00429022591561079, -0.0035427850671112537, 0.00014109343464951962, -0.0011858330108225346, -0.0026888984721153975, -0.010883031412959099, 0.0002581525477580726, -0.00046810953062959015, -0.000628349429462105, 0.0010856237495318055, 0.004514311905950308, -9.892008529277518e-05, -0.012511120177805424, 0.016366366297006607, -2.42215483012842e-05, -0.005038730800151825, 0.0094047412276268, 0.0006975007127039135, 0.0007527328561991453, 0.00020719524763990194, -0.005940553266555071], [0.00019376951968297362, -0.0008462365949526429, 7.51030893297866e-05, -0.002159612951800227, 0.00038115348434075713, 0.0020277597941458225, -0.001477011013776064, 4.411509507917799e-05, 8.758388867136091e-05, 7.112063758540899e-05, 0.0003106500953435898, -0.0018245389219373465, 0.0024936948902904987, -3.400018249521963e-05, -0.00017538158863317221, -9.971255167329218e-06, -0.00027649954427033663, -0.00012959913874510676, 0.00018250606080982834, 0.00012483284808695316, -0.0004289652861189097, 0.001134422025643289, -0.0003773598000407219, 0.0019544861279428005, 0.0007892177673056722, -0.00011843995162053034, 0.00279833166860044, -0.0015494305407628417, -3.7583762605208904e-05, -9.52496993704699e-05, -0.0002173312968807295, 0.0032909486908465624], [0.0033613555133342743, 0.04879581928253174, -0.0038479019422084093, -0.11584481596946716, -0.012016535736620426, -0.015938714146614075, -0.16656336188316345, 0.004526908975094557, 0.0002108344779117033, 0.004399858880788088, 0.009357530623674393, 0.1746838539838791, 0.4954588711261749, -0.005020675249397755, -0.002290452364832163, -0.0023115985095500946, 0.05078493058681488, -0.002959728706628084, 0.0006912329117767513, 0.003180415602400899, 0.01448866631835699, 0.05109024420380592, -0.0020898820366710424, -0.012364932335913181, 0.08249103277921677, 0.010539509356021881, 0.3501449525356293, -0.024065067991614342, -0.004882545210421085, 0.009977025911211967, 0.0023856698535382748, 0.20334061980247498], [0.0009916344424709678, 0.21363872289657593, -0.002642745850607753, -0.13640907406806946, -0.007688707672059536, 0.18683496117591858, -0.07452257722616196, -0.004893444012850523, -0.0037884623743593693, -0.004240971989929676, 0.006139339879155159, 0.18167439103126526, 0.1755516082048416, -0.0005088686011731625, -0.005610672291368246, -0.0055151889100670815, 0.052778590470552444, 0.0014500274555757642, -0.002177297603338957, -0.002743098186329007, 0.010813609696924686, 0.0703703761100769, 0.00035719008883461356, 0.005838677752763033, -0.054512690752744675, -0.021828483790159225, 0.3019685447216034, 0.025524962693452835, 0.002782802563160658, 0.002676930744200945, 0.0012714954791590571, 0.10836608707904816], [-0.002877530874684453, -0.033834539353847504, -0.009288668632507324, 0.038265660405159, -0.0031009006779640913, -0.12964725494384766, 0.15853530168533325, -0.0006661923252977431, -0.0044431244023144245, -0.0012868825579062104, -0.014242642559111118, -0.05544506385922432, -0.32115188241004944, 0.004376470111310482, 0.003799478290602565, -0.009103926829993725, -0.006945043336600065, 0.002447417238727212, -0.0031560203060507774, -0.002501873066648841, 0.0036559742875397205, -0.010085434652864933, 0.00021624595683533698, 0.002255452563986182, 0.023360395804047585, 0.005219115875661373, -0.10814783722162247, 0.010708876885473728, 0.0002439078816678375, 0.007824059575796127, 0.0038706762716174126, -0.07501598447561264], [0.0031667090952396393, -0.06930968165397644, 0.0029070049058645964, -0.023201417177915573, 0.0022743751760572195, -0.026863129809498787, -0.1707795262336731, 0.0022958123590797186, 0.003007231280207634, 0.0018813549540936947, 0.0044752140529453754, 0.03993166610598564, 0.06130816042423248, -0.0007486686808988452, -0.0035753215197473764, 0.004548883531242609, -0.03251079097390175, -0.0015280682127922773, 0.001829859334975481, 0.001114366576075554, -0.0014740884071215987, 0.01042196899652481, -0.0038553897757083178, -0.03387187793850899, 0.1516777127981186, -0.016500016674399376, 0.09825111925601959, -0.042996492236852646, 0.00021002886933274567, -0.0006337037193588912, -0.0016555569600313902, 0.06672503799200058], [0.0010386203648522496, -0.007770562544465065, -1.659388726693578e-05, -0.006746856030076742, 0.005605831742286682, -0.023256458342075348, 0.02712947502732277, -0.001927704201079905, 1.7294547433266416e-05, -0.0015913479728624225, -0.002241893671452999, -0.06756044924259186, -0.0900944322347641, 0.0033291575964540243, -0.00236133998259902, -0.0025338518898934126, 0.004368823952972889, 0.000546159571968019, 0.0016191883478313684, -0.0012010200880467892, -0.004642971791327, 0.005969620775431395, -0.0021084011532366276, 0.009335740469396114, -0.037578433752059937, 0.0032859803177416325, -0.018193591386079788, -0.0028170710429549217, 0.0021153707057237625, -0.003085897071287036, -0.003029502695426345, 0.0022891375701874495], [2.2093718143878505e-06, -0.0005114771192893386, 9.38075299927732e-06, -0.0002012948098126799, 2.7539312213775702e-05, -0.0003839988785330206, -0.0003912743122782558, -8.457331205136143e-06, 2.0686304651462706e-06, -7.238202670123428e-06, 2.475218934705481e-05, -0.0008191759116016328, 0.00018416978127788752, 1.1718230780388694e-05, 1.7907603933053906e-06, 7.494969054278044e-07, -0.00013514260353986174, 1.8481078996046563e-06, 2.155798483727267e-06, -2.2443371108238352e-06, -1.2340071407379583e-05, 0.00011549554619705305, -1.915290704346262e-05, -0.00013634470815304667, 0.0005895693320780993, 0.0005288218380883336, -0.00017082606791518629, 1.6975647668004967e-05, 6.361075975291897e-06, -2.0497420337051153e-05, -7.424898285535164e-06, 0.00044810245162807405], [0.00019845124916173518, -0.006131743546575308, 2.260088876937516e-05, -0.0015873843804001808, 0.00040996490861289203, -0.00222482206299901, -0.004488796461373568, -0.00015129809617064893, -1.6550997088415897e-06, -0.00010593909246381372, 0.00038904944085516036, -0.0038599485997110605, 0.0021080339793115854, 6.360343104461208e-05, -0.00020359412883408368, -0.00016288482584059238, -0.0008155066752806306, -3.8555084756808355e-05, 0.00010667114838724956, -4.074385287822224e-05, -0.00031747331377118826, 0.0012088720686733723, -0.0002455430512782186, -0.003926759585738182, 0.0016348111676052213, -0.0012173043796792626, -0.0017172946827486157, -0.0020442898385226727, 0.00012550243991427124, -0.00024299333745148033, -0.00020656052220147103, 0.003217441728338599], [7.858450408093631e-05, -0.0011689147213473916, 5.050356776337139e-05, -0.0009195930906571448, 0.00017992648645304143, 8.930981130106375e-05, -0.0013934241142123938, -1.8497899873182178e-05, 4.168956002104096e-05, -3.4138356568291783e-06, 0.00013464594667311758, -0.0007855026051402092, 0.001174173434264958, 9.446878721064422e-06, -8.710447582416236e-05, -1.0144020052393898e-05, -6.246966222533956e-05, -3.519753227010369e-05, 7.607595762237906e-05, 2.2880583856021985e-05, -0.0001829421380534768, 0.0005241631879471242, -0.00012158585741417482, -3.2556803489569575e-05, 0.0009224641253240407, -5.2036593842785805e-05, 0.0007241162238642573, -0.0008810099679976702, 1.323778724326985e-05, -0.0001072558225132525, -0.0001008248291327618, 0.0016973245656117797], [0.0050510079599916935, -0.08257105201482773, 0.0028615815099328756, -0.021719854325056076, 0.007811623625457287, 0.013406299985945225, -0.08139599114656448, 0.0024241849314421415, 0.0033380051609128714, 0.0024642804637551308, 0.003112419741228223, -0.021106122061610222, 0.06485745310783386, 0.0004051590512972325, -0.004382495302706957, 0.003989598713815212, -0.019720807671546936, -0.0026724408380687237, 0.004463329445570707, 0.0025432913098484278, -0.00720802741125226, -0.004413759335875511, -0.008218917064368725, -0.008955895900726318, 0.04155291989445686, -0.004009867552667856, 0.04588199779391289, -0.04459863156080246, -0.0007220751722343266, -0.002650628099218011, -0.004876342136412859, 0.056797273457050323], [8.70062576723285e-05, -0.0005219547892920673, 1.8672544683795422e-05, -0.000840489286929369, 0.00016582239186391234, 0.00042436676449142396, -0.0010438852477818727, 8.807843187241815e-06, 3.112262857030146e-05, 1.9402741600060835e-05, 0.00015361973783001304, -0.0003987490781582892, 0.0011082800338044763, 7.218025075417245e-07, -8.067572343861684e-05, -1.3006827430217527e-05, -0.00029024184914305806, -4.839139000978321e-05, 6.959422898944467e-05, 4.495308530749753e-05, -0.0001903557131299749, 0.0004432637069839984, -0.00015278474893420935, 0.0006464831531047821, 0.0008699727477505803, -6.678501813439652e-05, 0.0015220643253996968, -0.0005907277227379382, -1.740518564474769e-05, -3.187184120179154e-05, -7.610913598909974e-05, 0.0015952173853293061], [0.008394642733037472, 0.0419284887611866, 0.016875792294740677, -0.11389345675706863, -0.0008926726295612752, 0.19993926584720612, -0.37628477811813354, -0.006076647900044918, 0.004747137892991304, -0.0027227557729929686, 0.04477846249938011, 0.4816773235797882, 0.41867807507514954, -0.01074174977838993, -0.016794200986623764, 0.008995666168630123, 0.039520300924777985, -0.006742921192198992, 0.0035329589154571295, 0.004870282020419836, -0.004045065958052874, 0.04008670896291733, 0.0023337013553828, -0.21659807860851288, 0.28964126110076904, -0.03134191408753395, 0.22840051352977753, -0.02613874338567257, 0.0016600913368165493, -0.019660519436001778, -0.006806584540754557, 0.2532905638217926], [6.0007885622326285e-05, -0.0016101689543575048, -7.159533561207354e-05, -0.001659054891206324, 2.0054058040841483e-05, -0.0007439960027113557, -0.002727539511397481, -5.790362411062233e-05, -4.4166063162265345e-05, -3.7999674532329664e-05, 0.0002177769783884287, 0.0003930850652977824, 0.0025542296934872866, 2.948362089227885e-05, -0.00013101700460538268, -0.00014879026275593787, -0.0009303928236477077, -7.121851012925617e-06, 1.6056845197454095e-05, -1.4529246072925162e-05, 2.4401517293881625e-05, 0.0010099021019414067, -7.06323262420483e-05, -0.00023690788657404482, 0.0027371589094400406, 0.0002951915957964957, 0.002078719437122345, -0.00023799111659172922, 2.028400376730133e-05, 2.1528874640353024e-05, -2.9155606171116233e-05, 0.0023001895751804113], [0.0004480599018279463, -0.0249593798071146, 0.007165441755205393, 0.06866105645895004, -0.0002529593475628644, -0.00027487927582114935, -0.017652330920100212, 0.00989898107945919, 0.008299763314425945, 0.006805534940212965, -0.01975240744650364, -0.0476924292743206, -0.03594252094626427, 0.002107536420226097, 0.00015155479195527732, 0.0163106732070446, -0.05047335848212242, -0.0002590463263913989, 0.002304350957274437, 0.0005383179523050785, 0.0010520704090595245, -0.05547525733709335, -0.0011927374871447682, 0.007174402475357056, 0.016610179096460342, -0.006241136230528355, -0.0928049236536026, -0.04310205951333046, -0.0009336810326203704, -0.0035436050966382027, -0.002046547830104828, -0.067762091755867], [0.0005445003625936806, -0.011261992156505585, 6.964125350350514e-05, -0.006734112743288279, 0.0009984058560803533, -0.0010251025669276714, -0.009902703575789928, -0.00013368693180382252, 7.817854930181056e-05, -2.8401633244357072e-05, 0.0011111111380159855, -0.0040394640527665615, 0.007883420214056969, -4.788823571288958e-05, -0.0009491769014857709, -0.0003042896860279143, -0.0022725039161741734, -0.00028436380671337247, 0.00040924540371634066, 0.0001721846201689914, -0.000797407643403858, 0.0040685152634978294, -0.0008661990868858993, -0.001190523849800229, 0.007016724906861782, -0.0010633249767124653, 0.005920791532844305, -0.004837391432374716, 4.650280243367888e-05, -0.0002965896565001458, -0.000589626666624099, 0.009919805452227592], [-0.00028417445719242096, 0.10790736973285675, 0.002360041020438075, 0.01781163550913334, -0.0009200036292895675, 0.032811131328344345, 0.030434750020503998, 0.003770410316064954, 0.0031153736636042595, 0.003262443235144019, -0.006802253890782595, -0.059498630464076996, 0.16135400533676147, 0.0027243972290307283, 0.002540568122640252, 0.004712539725005627, 0.041576024144887924, -0.0009546732762828469, 0.0013938320335000753, 0.0017437790520489216, 0.0011764438822865486, -0.034993987530469894, 0.0007965513505041599, 0.07026346027851105, 0.09549793601036072, 0.059382468461990356, -0.0801677331328392, 0.02979251928627491, -0.00149696902371943, -0.0018908448982983828, -0.00032758337329141796, 0.006042870692908764], [0.015483389608561993, -0.10580392181873322, 0.0027482991572469473, -0.13611142337322235, -0.007463425397872925, 0.05030980706214905, -0.10810928046703339, 0.011253501288592815, 0.007147600874304771, 0.011516731232404709, 0.011897042393684387, 0.26825881004333496, 0.11328307539224625, -0.007876181043684483, -0.01489475928246975, 0.007763218134641647, -0.05842139571905136, -0.01238215807825327, 0.008524295873939991, 0.011161163449287415, 0.008734081871807575, 0.009151237085461617, -0.01287882961332798, -0.020648326724767685, 0.036234669387340546, 0.043229732662439346, 0.37361377477645874, 0.012176197953522205, -0.011921961791813374, 0.004987248685210943, -0.004922522697597742, 0.2454070746898651], [2.4684335585334338e-05, -0.0009805086301639676, 6.572463462362066e-06, -0.00048632684047333896, 7.312785783142317e-06, -0.0006724527920596302, -0.0010373370023444295, -7.487675247830339e-06, 5.098028850625269e-06, -2.319529130545561e-06, 5.5340999097097665e-05, -0.0006741160759702325, 0.0006189406849443913, 3.999452019343153e-06, -2.9269593142089434e-05, -1.3937426956545096e-05, -0.0005300031043589115, -1.135585262090899e-05, 1.3773060345556587e-05, 5.8111340877076145e-06, -2.507241333660204e-06, 0.00029575114604085684, -1.9933046132791787e-05, -0.00010553480387898162, 0.001524570514447987, 0.0007415815489366651, 0.000197461704374291, -8.963612344814464e-05, -4.4115535047239973e-07, -1.851705565059092e-05, -1.7654123439569958e-05, 0.0007872690912336111], [3.1335333915194497e-05, -0.0003043175383936614, -3.0831637559458613e-05, -0.0009166909148916602, -1.4477800505119376e-05, -7.001092308200896e-05, -0.0013734003296121955, -1.56697969941888e-05, -1.5439236449310556e-05, -7.5750763244286645e-06, 0.00010104533430421725, 0.0004925102111883461, 0.001684253686107695, 9.620273885957431e-06, -4.9172394938068464e-05, -5.995319224894047e-05, -0.0004436643503140658, -9.716943168314174e-06, 1.0270530765410513e-05, 3.4350305213592947e-06, 2.9972819902468473e-05, 0.0005127690965309739, -3.734469646587968e-05, 0.0002735997550189495, 0.0017346310196444392, 0.00045581921585835516, 0.0015162272611632943, 3.0153987609082833e-05, -2.701107405300718e-06, 2.1025129171903245e-05, -9.867145308817271e-06, 0.0012687118723988533], [2.0624329408747144e-05, -0.0006306944997049868, -1.188469127555436e-06, -0.0003906751226168126, -8.345905939677323e-07, -0.0004697158874478191, -0.0007829013629816473, -4.47013962912024e-06, 1.794888135009387e-06, -7.188620543274737e-07, 4.808459198102355e-05, -0.00038248239434324205, 0.0006793054053559899, 4.512530722422525e-06, -2.6461644665687345e-05, -1.3646602383232675e-05, -0.00034487113589420915, -9.166880772681907e-06, 1.0742061931523494e-05, 5.460407919599675e-06, 3.2492791888216743e-06, 0.00023048522416502237, -1.5732859537820332e-05, 3.71379719581455e-05, 0.0012250629952177405, 0.0006283979746513069, 0.0004423301143106073, 4.694725794252008e-05, -1.7126592410932062e-06, -4.821480615646578e-06, -1.2428658919816371e-05, 0.0007088161073625088], [0.00024100592418108135, -0.0031989074777811766, -1.3765995390713215e-05, 0.000264343514572829, 0.00032070899032987654, -0.0004916933248750865, 0.0007128251600079238, 5.73244433326181e-05, 4.439752592588775e-05, 6.402884173439816e-05, 0.00017575477249920368, -0.002310104900971055, -0.00048516460810787976, -2.453377965139225e-05, -0.0002628539805300534, -1.788293411664199e-05, -0.000661111029330641, -0.00013477080210577697, 0.00013467487588059157, 0.00011862716928590089, -0.00025004727649502456, -0.0005449140444397926, -0.0004158343654125929, -0.0008746162056922913, -0.001518799108453095, 0.0004178377566859126, -0.0029608518816530704, -0.0003823131264653057, -3.6978362913941965e-05, 4.8434900236316025e-05, -0.00013428016973193735, -0.00012595772568602115], [0.0005874583730474114, 0.032348036766052246, -0.007292292546480894, 0.005246798507869244, -0.009475095197558403, -0.0624561570584774, -0.13555286824703217, 0.0018249205313622952, -0.0035625193268060684, 0.0019198684021830559, 0.015271947719156742, -0.01624445989727974, 0.05093765631318092, -0.0020051191095262766, 0.0018989858217537403, -0.0031322534196078777, 0.05411530286073685, -0.0010862309718504548, -0.0025684537831693888, 0.0021985736675560474, 0.007655356545001268, -0.009716392494738102, -0.002418344374746084, 0.09419114142656326, 0.02068844810128212, 0.013686725869774818, 0.22511428594589233, 0.005972055718302727, -0.004178362432867289, 0.016369130462408066, 0.0066713690757751465, 0.05818325653672218], [0.00020775466691702604, -0.020759494975209236, -0.006465912330895662, -0.033674456179142, 0.0012950748205184937, -0.08888698369264603, 0.07366081327199936, -0.0006003710441291332, -0.002627507783472538, -0.0005157347768545151, -0.004244562238454819, 0.14800940454006195, -0.19874818623065948, 0.0045396508648991585, 0.0007046994287520647, -0.007796330843120813, 0.023555835708975792, 0.0013240119442343712, -0.0006244449177756906, -0.0014688379596918821, -0.0001831138361012563, 0.035130612552165985, -0.004264504183083773, 0.021592481061816216, 0.07632820308208466, -0.03115452453494072, 0.015977639704942703, -0.06001831963658333, 0.0006518462323583663, 0.004747400060296059, 0.0008613786194473505, 0.04619671404361725], [-7.770535376039334e-06, 0.00011413044558139518, -2.1886884496780112e-05, 6.029437372490065e-06, 3.9029462641337886e-05, -9.615511953597888e-05, -0.00022319475829135627, -7.134778570616618e-06, -5.691480509995017e-06, -5.753031473432202e-06, -1.9882472770405002e-05, -3.3055614039767534e-05, -0.00016781975864432752, 3.085918797296472e-05, 1.4607775483455043e-05, -1.6200539903366007e-05, -0.00031875623972155154, 3.639114083853201e-06, -6.891759767313488e-07, -3.162741222695331e-06, -3.851636211038567e-05, 1.3791684068564791e-05, 3.8024538753234083e-06, 0.0007274452946148813, 0.00031536532333120704, 0.000633664196357131, -6.789437611587346e-05, 0.0005126733449287713, 5.279955075820908e-06, 4.563668881019112e-06, -3.5191915230825543e-06, 1.8972572433995083e-05], [8.70121075422503e-05, -0.000414547132095322, 7.306495535885915e-05, -0.0006664394750259817, 0.00037316608359105885, 0.00032440252834931016, -0.0005994770326651633, 6.235310138436034e-06, 5.2034480177098885e-05, 1.7529599062982015e-05, 0.00014006761193741113, -0.0008729763794690371, -0.0004189231258351356, 1.4711578842252493e-05, -7.250725320773199e-05, 2.1840198314748704e-05, -0.00018802635895553976, -4.8390131269115955e-05, 8.672071271575987e-05, 4.4329230149742216e-05, -0.00036475478555075824, 0.00031248669256456196, -0.00017817213665693998, 0.0005849086446687579, 0.00047524480032734573, -0.0002688866516109556, 0.0003427792398724705, -0.0009627626277506351, -7.672989340790082e-06, -0.0001234847295563668, -0.0001020763666019775, 0.0013876587618142366], [7.100035873008892e-06, -0.0007854099967516959, -0.0001460592757211998, -0.0017404272221028805, -0.00016307790065184236, -0.000671774207148701, -0.002959249308332801, -8.234241249738261e-05, -0.0001091420344891958, -6.264629337238148e-05, 0.00015570729738101363, 0.0010611875914037228, 0.002288303105160594, 1.589342900842894e-05, -5.42510169907473e-05, -0.00022137044288683683, -0.0016505640232935548, 2.0768346075783484e-05, -4.8506364692002535e-05, -3.745626599993557e-05, 0.00022751357755623758, 0.0009883991442620754, 2.277218663948588e-05, 0.00010904658120125532, 0.0034308999311178923, 0.0007319299038499594, 0.0020832105074077845, 0.0008870503515936434, 1.459579016227508e-05, 0.00011285746586509049, 5.202476677368395e-05, 0.0015014653326943517], [0.002265295712277293, -0.17863592505455017, 0.017295602709054947, 0.0586298406124115, -0.0030327157583087683, 0.1351127028465271, -0.1618966907262802, 0.01607050560414791, 0.015892108902335167, 0.01092597097158432, -0.02172423154115677, -0.4204401969909668, 0.020976129919290543, -0.0012118096929043531, 0.002918631536886096, 0.03521538898348808, -0.08950186520814896, -0.0021972861140966415, 0.004377632401883602, 0.0034263625275343657, 0.004586838651448488, -0.09142404049634933, -0.011518497951328754, -0.00866380613297224, -0.14377838373184204, 0.009207207709550858, -0.06870251893997192, 0.03555496037006378, -0.006923889275640249, -0.004366420675069094, -0.002070438116788864, -0.0269154105335474], [2.861852408386767e-05, -0.00018873848603107035, -4.345542492956156e-06, -0.00033889879705384374, 4.389642708702013e-05, 7.29035964468494e-05, -0.00045648193918168545, 1.253256755262555e-06, 4.534858817351051e-06, 4.886409442406148e-06, 6.012626181473024e-05, -0.00012068557407474145, 0.00044564035488292575, 4.055224962939974e-06, -2.8310461857472546e-05, -1.3957490409666207e-05, -0.00020186578331049532, -1.481372873968212e-05, 1.9848432202707045e-05, 1.3635963114211336e-05, -4.391307447804138e-05, 0.0001774759730324149, -4.927547706756741e-05, 0.00025453537818975747, 0.0005044350982643664, 0.0002302595676155761, 0.0007301691803149879, -4.96747343277093e-05, -5.691487785952631e-06, 4.066324379436992e-07, -2.1166120859561488e-05, 0.0006203050725162029], [8.24713206384331e-05, -0.0007848081877455115, 1.2895628742626286e-06, -0.001046281075105071, 0.00011267433001194149, 0.00027382763801142573, -0.0016843666089698672, -3.901733634847915e-06, 1.691670695436187e-05, 7.987634489836637e-06, 0.00016479706391692162, 5.57647472305689e-05, 0.0021169674582779408, -2.4788264454400633e-06, -9.786387818166986e-05, -3.4488082746975124e-05, -0.00019834592239931226, -4.033513687318191e-05, 5.4324991651810706e-05, 3.1413615943165496e-05, -9.63768397923559e-05, 0.0005729749100282788, -0.0001392026897519827, 0.00026969873579218984, 0.0013724341988563538, -3.536150325089693e-05, 0.001902111223898828, -0.00046116055455058813, -1.0765486877062358e-05, -1.5315712516894564e-05, -6.0428548749769107e-05, 0.0018382840789854527], [3.319815004942939e-05, -0.00025170439039357007, -5.475516900332877e-06, -0.00046595287858508527, 3.2381940400227904e-05, 6.311086053756298e-07, -0.000818532076664269, -5.259495083009824e-06, 3.558320713636931e-07, -9.76334604274598e-08, 7.798832666594535e-05, -0.00010247114551020786, 0.0009023983730003238, 3.2404062721980154e-07, -3.959346213378012e-05, -2.1464942619786598e-05, -0.0001705868635326624, -1.5095547496457584e-05, 1.8628044927027076e-05, 1.1370155334589072e-05, -2.590408257674426e-05, 0.00025619796360842884, -5.0491631554905325e-05, 0.00011945491860387847, 0.0006897530402056873, 0.0002944268344435841, 0.0008388828719034791, 1.6170897652045824e-05, -3.1035776828503003e-06, -8.988779995888763e-07, -2.2083386284066364e-05, 0.0008064265130087733], [0.000852838798891753, -0.01182530913501978, -1.2405545021465514e-05, -0.008800008334219456, 0.0008361887303180993, -0.0007670719642192125, -0.01288817822933197, -0.00020374954328872263, 1.789545058272779e-05, -8.221149619203061e-05, 0.0013094900641590357, -0.0015080701559782028, 0.0113510238006711, 7.14262860128656e-05, -0.0016616544453427196, -0.0004296175902709365, -0.0024351621977984905, -0.0004151063330937177, 0.0004497853515204042, 0.00022244354477152228, -0.0006916787242516875, 0.005293019115924835, -0.0009622648358345032, -0.0017477819928899407, 0.008558256551623344, -0.0013278847327455878, 0.010388043709099293, -0.004371243994683027, 1.1966103556915186e-05, -0.0002744597150012851, -0.0007055472815409303, 0.01240219920873642], [0.0003327924641780555, -0.005934381391853094, -0.0016016372246667743, -0.0053961873054504395, -0.0005346792750060558, -0.011507016606628895, -0.009332654066383839, -0.0013357899151742458, -0.001356427208520472, -0.0010724060703068972, 0.0006550590042024851, -0.005015211179852486, -0.010591816157102585, 8.713769057067111e-05, -0.001203233259730041, -0.0024731147568672895, -0.008849709294736385, 0.00023702402540948242, -0.00042469659820199013, -0.000612937263213098, 0.001137281651608646, 0.0003840389254037291, -5.406400669016875e-05, -0.011176937259733677, 0.007378654554486275, -0.0004950883449055254, -0.01186852715909481, 0.008712708950042725, 0.0006958317244425416, 0.0006891142693348229, 0.00016783449973445386, -0.011639422737061977], [0.00027315234183333814, -0.0012551535619422793, 1.3808808034809772e-05, -0.003295987145975232, 0.0003971496771555394, 0.0024279113858938217, -0.0037031276151537895, 2.1098041543154977e-05, 5.8288595027988777e-05, 6.194736488396302e-05, 0.0005045869038440287, -0.0009062233148142695, 0.004753577057272196, -3.7582085496978834e-05, -0.0002840844390448183, -0.00010973653115797788, -0.00023798718757461756, -0.00015712202002760023, 0.00020738458260893822, 0.00013595000200439245, -0.0003928546793758869, 0.001828508684411645, -0.000487236597109586, 0.0016967273550108075, 0.0020897546783089638, -0.0002905616129282862, 0.004650076851248741, -0.0017823787638917565, -4.4927222916157916e-05, -4.3869600631296635e-05, -0.00024638441391289234, 0.0048967585898935795], [0.0030146162025630474, 0.1288135051727295, -0.002168983453884721, 0.03706910461187363, -0.02445864863693714, 0.04791800677776337, -0.18567289412021637, 0.007508294656872749, 0.0011979748960584402, 0.00703358743339777, 0.009949917905032635, 0.2523832619190216, 0.2279323935508728, -0.013172900304198265, -0.0015350147150456905, 0.004392045550048351, 0.13263660669326782, -0.005756494123488665, -0.0016318196430802345, 0.006343239918351173, 0.02388014830648899, -0.012860872782766819, 0.006024652160704136, -0.049779437482357025, 0.13436675071716309, 0.016226692125201225, 0.257477730512619, 0.015496524050831795, -0.010317550972104073, 0.014367768540978432, 0.0072359079495072365, 0.01612800359725952], [0.005701544228941202, 0.006386274937540293, -0.0011738314060494304, -0.03423232585191727, -0.0019708038307726383, 0.04131265729665756, -0.03670483082532883, 0.0028404758777469397, 0.0015408326871693134, 0.0028633917681872845, 0.004760206211358309, -0.08477313816547394, -0.041726771742105484, -0.0053261639550328255, -0.006475780159235001, 0.0020537683740258217, -0.005847525782883167, -0.004124481696635485, 0.0009848264744505286, 0.003053806023672223, 0.0031578477937728167, 0.006423986051231623, -0.004559582099318504, -0.021369943395256996, 0.018041502684354782, -0.04297582060098648, 0.11845240741968155, -0.02600371278822422, -0.003613297361880541, 0.004901661071926355, 0.000587967864703387, 0.04975378140807152], [-0.0017290320247411728, 0.0010508346604183316, -0.007394312880933285, 0.015838025137782097, 0.0006603406509384513, -0.0833258256316185, 0.12276006489992142, -0.002394729061052203, -0.00406631687656045, -0.0021542846225202084, -0.009723973460495472, -0.016109712421894073, -0.24444307386875153, 0.004864254966378212, 0.0019957146141678095, -0.008839244022965431, -0.0011263072956353426, 0.0020648925565183163, -0.00187129236292094, -0.002332038013264537, 0.00026481557870283723, 0.003670418867841363, -0.0004202384443487972, 0.0074044144712388515, 0.022027207538485527, 0.006217938847839832, -0.07293366640806198, 0.006298314314335585, 0.001384808449074626, 0.005070934537798166, 0.0019171477761119604, -0.05625332519412041], [0.014754608273506165, -0.17624959349632263, 0.01468457467854023, -0.014137469232082367, 0.009407269768416882, -0.039040736854076385, -0.26234930753707886, 0.017235834151506424, 0.017276817932724953, 0.015027671121060848, 0.01827840320765972, -0.045341894030570984, 0.12032927572727203, -0.005908521357923746, -0.01237757969647646, 0.01837521605193615, -0.04726960137486458, -0.010515328496694565, 0.011472818441689014, 0.01005688775330782, -0.008256915025413036, -0.009867082349956036, -0.019389202818274498, 0.048611074686050415, 0.16393201053142548, -0.06523116677999496, 0.12587089836597443, -0.15485957264900208, -0.0071433354169130325, -0.006017238833010197, -0.009189077652990818, 0.14205530285835266], [0.004061202518641949, 0.006037251092493534, -0.003321993863210082, -0.0683213472366333, 0.0074643646366894245, -0.030873296782374382, -0.00783340074121952, -0.0042654844000935555, -0.0021528047509491444, -0.0031498419120907784, 0.0017659757286310196, 0.0031452106777578592, -0.09357373416423798, 0.006569103803485632, -0.008165146224200726, -0.008210650645196438, 0.007737754378467798, 0.00046173593727871776, 0.0025662581901997328, -0.002047221176326275, -0.004706952255219221, 0.044728897511959076, -0.007160745561122894, -0.0013749859062954783, 0.02347763068974018, -9.923013567458838e-05, 0.041559796780347824, -0.01393566932529211, 0.0030267289839684963, -0.001677853986620903, -0.0047208210453391075, 0.06045249477028847], [4.324394467403181e-06, -0.0006241904920898378, 1.098759730666643e-05, -0.00017125168233178556, 3.912085958290845e-05, -0.00048627390060573816, -0.0003061359457205981, -8.982119652500842e-06, 3.211714329154347e-06, -7.495363661291776e-06, 2.798087734845467e-05, -0.0009745305287651718, 1.662855538597796e-05, 1.2211720786581282e-05, 2.629790515129571e-06, 1.6674991911713732e-06, -0.00022049563995096833, 1.0656212907633744e-06, 3.5003899938601535e-06, -1.2773242588082212e-06, -2.0547307940432802e-05, 0.00010216499504167587, -2.6611962312017567e-05, -0.00010076146281789988, 0.0005825610714964569, 0.0005132032092660666, -0.00033460280974395573, -1.0973642019962426e-05, 7.4861063694697805e-06, -2.2307065592030995e-05, -8.679089660290629e-06, 0.0003905639750882983], [0.00030377390794456005, -0.007934395223855972, 1.1997517503914423e-05, -0.003042627591639757, 0.0005301934434100986, -0.0026165952440351248, -0.00683913379907608, -0.00014579737035091966, 1.7416992704966106e-05, -8.634713594801724e-05, 0.0006383703439496458, -0.0029172857757657766, 0.004307185765355825, 7.59769172873348e-05, -0.00034082806087099016, -0.00021719685173593462, -0.0014965247828513384, -9.272422903450206e-05, 0.0001749515940900892, 2.0677430256910156e-06, -0.0004229241458233446, 0.002003250177949667, -0.000414229289162904, -0.0034970524720847607, 0.004011631477624178, -0.0013188256416469812, 0.0009908366482704878, -0.002915024757385254, 0.00010132246825378388, -0.00023821233480703086, -0.00027538972790353, 0.005607482511550188], [0.0001348369405604899, -0.0020163722801953554, 2.981877332786098e-05, -0.0015972268301993608, 0.000225725001655519, -3.311670297989622e-05, -0.0027477212715893984, -2.474710163369309e-05, 3.819444100372493e-05, -2.04898014999344e-06, 0.0002573972742538899, -0.000462034426163882, 0.002567676827311516, 1.3270074305182789e-05, -0.00017253436089958996, -5.2082752517890185e-05, -0.0002529719495214522, -5.9897167375311255e-05, 9.870457142824307e-05, 3.844387174467556e-05, -0.00021261304209474474, 0.0009295566705986857, -0.00021625949011649936, -0.00013210646284278482, 0.0019580069929361343, -0.00026460736989974976, 0.0019065814558416605, -0.0011855300981551409, 5.1813140089507215e-06, -8.822287782095373e-05, -0.00012419914128258824, 0.0028725164011120796], [0.012435516342520714, -0.18918904662132263, 0.00826404057443142, -0.047327350825071335, 0.012581893242895603, 0.01927870698273182, -0.1915162354707718, 0.008689383044838905, 0.00958413165062666, 0.008048969320952892, 0.007369228173047304, -0.04856858029961586, 0.14686769247055054, -0.0019311326323077083, -0.011281491257250309, 0.012095482088625431, -0.05112793296575546, -0.007496633101254702, 0.009766561910510063, 0.007102394942194223, -0.011500079184770584, -0.00016131160373333842, -0.018447188660502434, -0.004184621851891279, 0.08199971914291382, -0.018000449985265732, 0.10970988869667053, -0.09538376331329346, -0.00432129530236125, -0.004016853868961334, -0.009441363625228405, 0.12819404900074005], [-0.0014555337838828564, -0.0224591251462698, 0.0024764107074588537, 0.0013413146371021867, 0.004011229146271944, 0.02647535875439644, -0.007029381114989519, -7.060254574753344e-05, 0.001465383218601346, 0.00018453810480423272, 0.0035872331354767084, -0.015943804755806923, 0.0037266393192112446, 0.0011069891043007374, 0.0013264386216178536, 0.0014759617624804378, -0.0010267699835821986, 0.0010967915877699852, 0.0012124610366299748, -0.00076121068559587, -0.005063748452812433, 0.006026916205883026, 0.0002358485508011654, 0.010349530726671219, 0.018531929701566696, -0.012015711516141891, 0.004118356853723526, -0.03076394461095333, 0.0017472063191235065, -0.002575002145022154, -0.0018461626023054123, 0.03179601952433586], [0.012217394076287746, 1.1247327327728271, 0.049305934458971024, 0.19850905239582062, -0.07046547532081604, -0.32772815227508545, -0.4958516061306, 0.05571454018354416, 0.046904027462005615, 0.04919832944869995, -0.09812621772289276, 0.16622914373874664, 0.07701904326677322, -0.005337272305041552, 0.0051092589274048805, 0.0638517215847969, -1.815467357635498, -0.01985018514096737, 0.01816033385694027, 0.014893628656864166, 0.08505114167928696, -0.1040455624461174, 0.01151176169514656, 0.9788637161254883, -0.0641036182641983, -0.46871885657310486, -0.16360583901405334, -0.0038606037851423025, -0.0347224622964859, -0.02874315157532692, -0.009231673553586006, -0.17868098616600037], [0.003269618609920144, -0.02106631174683571, -0.0012274555629119277, 0.018139345571398735, 0.007424596697092056, 0.06675495207309723, 0.001832317328080535, 0.00148862658534199, 4.622471169568598e-05, 0.0019480673363432288, 0.003226061351597309, -0.021479880437254906, 0.015891127288341522, -0.0008728831307962537, -0.002081402810290456, -0.004132851958274841, 0.0024118858855217695, -0.002620466286316514, 0.0033802655525505543, 0.0033886053133755922, -0.008463523350656033, 0.020734671503305435, -0.00610765814781189, -0.009366814978420734, -0.0048914398066699505, 0.0026293019764125347, -0.047208238393068314, -0.053029123693704605, -0.002484068041667342, -0.0008244012133218348, -0.0032455679029226303, 0.03912912309169769], [-0.01427141111344099, -0.09336815774440765, -0.08419442176818848, -0.07054515182971954, -0.005718437489122152, -0.3010576367378235, 0.2304847091436386, -0.04980309680104256, -0.058907974511384964, -0.043603017926216125, 0.04654983431100845, 0.05452538654208183, -0.1794278770685196, -0.013676458038389683, -0.0009622737998142838, -0.10165608674287796, 0.24246846139431, 0.015000946819782257, -0.032889947295188904, -0.017828304320573807, 0.005807823501527309, 0.1806538850069046, 0.02373102679848671, -0.19726307690143585, -0.10402020812034607, -0.09720706194639206, 0.051356326788663864, -0.1069122701883316, 0.014379579573869705, 0.06194169819355011, 0.03165086731314659, 0.06709276884794235], [0.004994173999875784, -0.04314056411385536, 0.00836938340216875, 0.00176326185464859, 0.00751854432746768, 0.09044168889522552, 0.04229059815406799, 0.007607621140778065, 0.008422457613050938, 0.0067057800479233265, -0.004577707964926958, -0.0667513757944107, -0.03209621086716652, 0.002088093664497137, -0.004108883440494537, 0.010197468101978302, -0.045737892389297485, -0.003913577646017075, 0.008212519809603691, 0.004894255194813013, -0.013075892813503742, -0.026272190734744072, -0.008339871652424335, 0.0028231863398104906, 0.01741463504731655, -0.00992953684180975, -0.042281728237867355, -0.08021854609251022, -0.005661797244101763, -0.009624631144106388, -0.009437626227736473, 0.021809862926602364], [-0.00929728802293539, 0.7742273807525635, -0.10661046952009201, -0.24205738306045532, 0.03726213052868843, 0.01402501855045557, -0.08704401552677155, -0.09124477952718735, -0.08928663283586502, -0.07911579310894012, 0.12113378196954727, -0.2838440537452698, -0.32316333055496216, 0.011524138040840626, -0.02274109609425068, -0.1528131067752838, -0.00537215918302536, 0.022806745022535324, -0.050109222531318665, -0.035460736602544785, -0.040486060082912445, 0.299873948097229, -0.0022872365079820156, 0.6573354601860046, -0.05975284054875374, -0.0689796432852745, 0.36383482813835144, -0.16383233666419983, 0.029303038492798805, 0.06352316588163376, 0.038552604615688324, 0.29584991931915283], [0.007948669604957104, 0.30554211139678955, 0.03790906444191933, 0.07726871222257614, -0.017673669382929802, -0.1519959419965744, 0.09175863116979599, 0.011221992783248425, 0.02556508593261242, 0.013352547772228718, 0.011699039489030838, -0.07073565572500229, 0.21860548853874207, 0.001966211711987853, 0.0024509436916559935, 0.03352660685777664, -0.3631284236907959, -0.012049626559019089, 0.011046421714127064, 0.008136812597513199, 0.018745239824056625, -0.03422968462109566, 0.0065384479239583015, 0.8792572617530823, 0.24146491289138794, 0.014786490239202976, -0.18136149644851685, 0.008217104710638523, -0.013132165186107159, -0.036045316606760025, -0.009313034825026989, -0.04857467859983444], [0.0008986433385871351, -0.00996333360671997, -0.00025265023577958345, -0.002389415865764022, 0.0028161583468317986, -0.004096910823136568, 0.010047739371657372, -0.00043769515468738973, -4.3472249672049657e-05, 3.907540667569265e-05, 0.0065498449839651585, 0.0055519817396998405, 0.00013972935266792774, -0.00149453803896904, -1.8393831851426512e-05, -0.00209200382232666, 0.021560845896601677, -0.0008467049337923527, 0.0008429278968833387, 0.0009231079602614045, -0.0012011931976303458, 0.02214657887816429, -0.0015373185742646456, 0.021031206473708153, 0.006593014113605022, -0.004434496164321899, 0.033245477825403214, -0.018054718151688576, 0.000652963062748313, 0.0012848302721977234, -0.00022186340356711298, 0.046584535390138626], [0.002184038981795311, -0.015106250531971455, 2.6373805667390116e-05, 0.003808709792792797, 0.0052137007005512714, 0.02831622213125229, 0.002687042811885476, 0.000513714796397835, 0.00026893490576185286, 0.0009245448745787144, 0.0046820431016385555, -0.0168360136449337, 0.0030992028769105673, -0.001285641104914248, -0.0012380644911900163, -0.002156296046450734, 0.010875378735363483, -0.0017346048261970282, 0.0022452850826084614, 0.002166455378755927, -0.0056538390927016735, 0.01879417896270752, -0.003934875596314669, 0.007167222909629345, 0.0011429800651967525, -0.0027621579356491566, -0.007167314179241657, -0.03595060110092163, -0.0012338574742898345, -0.0006465898477472365, -0.00216504605486989, 0.045463282614946365], [0.0008822236559353769, -0.010149951092898846, -2.7531183150131255e-05, -0.0023024992551654577, 0.0032563279382884502, -5.1612551033031195e-05, 0.006416072137653828, -0.0005974783562123775, 3.6243594081497577e-07, -0.00017454507178626955, 0.005654395557940006, 0.0023645146284252405, -0.0002926615998148918, -0.0013771202648058534, -0.00027949572540819645, -0.00182416255120188, 0.017117103561758995, -0.0006657260237261653, 0.000914410687983036, 0.0006951072718948126, -0.0017783022485673428, 0.0201776921749115, -0.001716923201456666, 0.020014796406030655, 0.006531194783747196, -0.004679662175476551, 0.02858581207692623, -0.01806909777224064, 0.0008942285785451531, 0.0007439642213284969, -0.0005455017671920359, 0.04461635649204254], [0.0037014191038906574, -0.06610773503780365, 0.012502177618443966, -0.005103026982396841, 0.003374922089278698, 0.0321788527071476, -0.04138319939374924, 0.00996168702840805, 0.012337903492152691, 0.007719908840954304, -0.01675272360444069, 0.01246294379234314, 0.01987006701529026, 0.0001260286953765899, -0.004445184953510761, 0.02030022442340851, -0.06532610952854156, -0.002169238170608878, 0.006212725769728422, 0.0020825702231377363, -0.00394147215411067, -0.05052933469414711, -0.006284645292907953, 0.01713438518345356, 0.01431178953498602, -0.007265128660947084, 0.029631176963448524, -0.026059595867991447, -0.002500236965715885, -0.009402855299413204, -0.006401355378329754, -0.007948190905153751], [0.027798056602478027, 0.95594722032547, 0.018272440880537033, -0.03872082009911537, 0.08134248852729797, 0.04518834874033928, 0.2935405671596527, 0.004090487025678158, 0.015237358398735523, 0.006616587284952402, -0.011074976995587349, 0.49614882469177246, -0.2533716857433319, 0.00023896641505416483, -0.023483293130993843, 0.00712587172165513, 0.1209208220243454, -0.018623465672135353, 0.029270026832818985, 0.02035689167678356, -0.0854354053735733, -0.01516223605722189, -0.04724618047475815, 0.8189983367919922, 0.2191603034734726, -0.1278630495071411, 0.005241660866886377, -0.2498924732208252, -0.012389841489493847, -0.04574845731258392, -0.03741717338562012, 0.1031460240483284], [0.01138361543416977, -0.05064835026860237, -0.0021218617912381887, -0.13798226416110992, 0.012180756777524948, 0.27252399921417236, -0.39669522643089294, -0.0006340454565361142, 0.00029784406069666147, 0.0008678140002302825, 0.03959187865257263, 0.2570197880268097, 0.20435166358947754, -0.003590264357626438, -0.012150376103818417, -0.0027620643377304077, 0.08668415248394012, -0.005633936263620853, 0.003764186054468155, 0.003993870224803686, -0.012639553286135197, 0.059358928352594376, -0.018902940675616264, -0.008156852796673775, -0.007003859616816044, -0.028795883059501648, 0.2892026901245117, -0.05808467045426369, -0.0029748487286269665, 0.004156133159995079, -0.0033965539187192917, 0.23781590163707733], [0.003841876983642578, 0.002678676275536418, -0.0014053707709535956, -0.0028760679997503757, 0.0014599818969145417, 0.009732889011502266, 0.02125214785337448, 0.0005322601064108312, -0.000983991427347064, 0.0004779328592121601, -0.0026131542399525642, -0.004436034243553877, -0.010263086296617985, -0.003599785268306732, -0.003931201063096523, -0.0016862718621268868, -0.01764681003987789, -0.0028501106426119804, 0.0007476182072423398, 0.0026708997320383787, -0.0014467444270849228, -0.003095999825745821, -0.0026427938137203455, -0.005969035439193249, -0.005967626813799143, 0.007324418053030968, -0.022255485877394676, 0.007185884285718203, -0.0028456440195441246, -0.00028564405511133373, -0.000575582089368254, -0.01014191284775734], [0.005441128741949797, 0.016623683273792267, -0.003367607481777668, -0.010832023806869984, -0.00102614623028785, -0.047950007021427155, 0.013938856311142445, -0.0006521180621348321, -0.001713937963359058, -0.0007582939579151571, -0.004012016579508781, 0.012823348864912987, -0.017817137762904167, -0.004727623425424099, -0.006478014402091503, -0.0024866738822311163, 0.005890227854251862, -0.0030053018126636744, 6.339822721201926e-05, 0.0018825867446139455, 0.002793980995193124, -0.0004629896429833025, -0.003365957411006093, 0.010133929550647736, -0.027049342170357704, 0.012434536591172218, 0.02822898142039776, 0.03114880621433258, -0.0013700317358598113, 0.0034395563416182995, 0.00028210956952534616, -0.019209856167435646], [0.0031380956061184406, -0.016713591292500496, 0.000644971732981503, 0.008266332559287548, 0.007413915824145079, 0.0370330773293972, 0.012791670858860016, 0.002004961483180523, 0.0013788242358714342, 0.0023549101315438747, 0.005756105296313763, -0.009764222428202629, 0.013465793803334236, -0.001603107899427414, -0.0012200996279716492, -0.002148571191355586, 0.01877920888364315, -0.0028543921653181314, 0.003768316237255931, 0.00365620874799788, -0.008428756147623062, 0.024410897865891457, -0.006024382542818785, -0.0037695367354899645, -0.0058385469019412994, 0.001655301544815302, -0.014336884953081608, -0.051454201340675354, -0.002348487265408039, -0.0012575621949508786, -0.003430877346545458, 0.05510084703564644], [0.010091707110404968, 1.2598421573638916, 0.019177887588739395, -0.12109529227018356, -0.016365645453333855, -0.5527969002723694, -0.4016106128692627, 0.01533628348261118, 0.01456264965236187, 0.01564744859933853, -0.009375079534947872, -0.13590441644191742, -0.07588975131511688, 0.006702892016619444, -0.00018607309903018177, 0.011238816194236279, -1.132645845413208, -0.012130305171012878, 0.006776906084269285, 0.005005608778446913, 0.02352910116314888, 0.0007921726210042834, 0.0013175648637115955, 0.48678919672966003, 0.032770220190286636, 0.004265171941369772, 0.09132251143455505, -0.004923458211123943, -0.013846483081579208, -0.020167332142591476, -0.005381426308304071, 0.03012438490986824], [0.0011481610126793385, 0.013133149594068527, -0.0015084384940564632, -0.0007582259131595492, -0.00332243531011045, -0.012722750194370747, 0.007256161887198687, 0.0008294181316159666, -0.000672053312882781, 0.0006117525626905262, -0.0028504321817308664, 0.009260540828108788, -0.00022849951346870512, -0.00045970792416483164, -0.0009621150093153119, -0.0004945846158079803, -0.0029608504846692085, -0.001210490008816123, -0.0006622400251217186, 0.0011386722326278687, 0.0031955470331013203, -0.0086620282381773, 9.535776257507678e-07, -0.015835002064704895, -0.012002231553196907, 0.008283617906272411, -0.012859227135777473, 0.01911831460893154, -0.00242418609559536, 0.001273765810765326, 0.0011665485799312592, -0.027851639315485954], [0.0014014957705512643, -0.01845887117087841, 0.0013644536957144737, 0.00265611638315022, 0.00524908397346735, 0.036562833935022354, 0.008800407871603966, 0.0008243322372436523, 0.001270814216695726, 0.0010863610077649355, 0.0029788671527057886, -0.020890338346362114, -0.0013327808119356632, -0.0001854003348853439, -0.0008440263918600976, 2.773719188553514e-06, 0.004444155842065811, -0.0010589392622932792, 0.0023350571282207966, 0.0014142722357064486, -0.006191019434481859, 0.009798663668334484, -0.0030251843854784966, 0.016255272552371025, 0.00716797448694706, -0.006279756315052509, -0.0038615523371845484, -0.035557545721530914, -0.0006149573600850999, -0.001936518237926066, -0.0025895123835653067, 0.03979482129216194], [3.0098539355094545e-05, -0.012760740704834461, 0.0018134710844606161, -0.0010628278832882643, 0.004192284308373928, 0.011189342476427555, 0.003976224455982447, -0.00029841900686733425, 0.0012317367363721132, -9.274457988794893e-05, 0.002585307229310274, -0.006613445468246937, -0.002780590206384659, -6.767118611605838e-05, -4.3196963815717027e-05, 0.0009354049107059836, 0.005967527627944946, 0.00034924098872579634, 0.0013848927337676287, -0.00041817486635409296, -0.003624723991379142, 0.008543039672076702, -0.0011011826572939754, 0.0239318385720253, 0.01040074322372675, -0.007225594483315945, 0.024372659623622894, -0.02159825898706913, 0.002129176864400506, -0.0013337339041754603, -0.0016761845909059048, 0.03234606608748436], [-0.00676765525713563, 0.04690735787153244, -0.010677547194063663, -0.003790010930970311, -0.008318843320012093, -0.09840789437294006, -0.049678098410367966, -0.01043825875967741, -0.010872497223317623, -0.008875435218214989, 0.010510209016501904, 0.05839461460709572, 0.03579204902052879, -0.0019820521119982004, 0.004787989892065525, -0.014347191900014877, 0.051918480545282364, 0.005326421931385994, -0.010062053799629211, -0.006563406903296709, 0.01352150458842516, 0.034237090498209, 0.011731578968465328, -0.011430120095610619, -0.02218722179532051, 0.010612793266773224, 0.041824668645858765, 0.09611646085977554, 0.008182329125702381, 0.010771272704005241, 0.011326256208121777, -0.01707439124584198], [-0.0006061092135496438, 0.019338319078087807, -0.0037447880022227764, -0.040270306169986725, -0.0010835569119080901, 0.0300446767359972, -0.09460129588842392, -0.006328502669930458, -0.004694375209510326, -0.005734853912144899, 0.0005425424315035343, 0.008765249513089657, 0.01043013297021389, 0.0037382827140390873, -0.0037593464367091656, -0.005075736436992884, -0.056715887039899826, 0.0033491316717118025, -0.0030912936199456453, -0.004830575548112392, 0.0032516003120690584, -0.00413248036056757, 0.0009104213095270097, 0.002399308839812875, 0.03563474863767624, -0.003491907147690654, 0.009907001629471779, 0.0495348758995533, 0.003957340493798256, -0.0002444687415845692, 0.0010387749643996358, -0.015807827934622765], [-0.0022441232576966286, 0.045266442000865936, -0.004608496557921171, 0.004254190716892481, -0.0067840865813195705, -0.0457165502011776, -0.03363334760069847, -0.0031692837364971638, -0.004387924447655678, -0.0033063082955777645, -0.0026413057930767536, 0.021396096795797348, 0.012534736655652523, -0.0004003322101198137, 0.0020999133121222258, -0.004513492342084646, 0.01149135921150446, 0.002019711537286639, -0.004670219030231237, -0.002364260610193014, 0.009277086704969406, 0.00271548586897552, 0.001537324278615415, -0.015904050320386887, -0.03050055541098118, 0.018281087279319763, -0.019575491547584534, 0.06203524023294449, 0.0010866200318560004, 0.005016684997826815, 0.005263186059892178, -0.05170374736189842], [0.00334666995331645, 0.5845411419868469, 0.011408384889364243, -0.0789901539683342, 0.10748915374279022, -0.420646071434021, -0.2019064724445343, -0.04130588844418526, -0.013111228123307228, -0.034658852964639664, 0.09308723360300064, -0.20759174227714539, -0.0319942869246006, 0.013163692317903042, -0.02897927723824978, -0.00804468896239996, -0.737282395362854, 0.012191063724458218, -0.0008167146006599069, -0.015310656279325485, -0.12403778731822968, 0.05934461951255798, -0.04001167044043541, 0.18400803208351135, 0.08436679095029831, -0.011426315642893314, 0.035219162702560425, -0.19046522676944733, 0.04234956577420235, -0.04640553146600723, -0.019257795065641403, 0.1807791292667389], [-0.01577465981245041, -0.8114733099937439, -0.022171255201101303, -0.27496740221977234, 0.0199076309800148, -0.40888917446136475, -0.10106150060892105, -0.04818713665008545, -0.02795136533677578, -0.04041147977113724, 0.010203310288488865, 0.2685120105743408, -0.28747108578681946, 0.03155958279967308, 0.0007851923583075404, -0.0508340522646904, -0.1241857185959816, 0.020708773285150528, -0.015684379264712334, -0.027873359620571136, -0.005783731117844582, 0.17059382796287537, 0.02847931534051895, -0.7868650555610657, 0.42357131838798523, 0.07725919783115387, 0.26651671528816223, 0.2667261064052582, 0.041310496628284454, -0.0028059727046638727, 0.0035259260330349207, 0.09073177725076675], [-0.007201573811471462, 0.5941691994667053, -0.010352466255426407, -0.1499212086200714, -0.013506048358976841, 0.19609355926513672, 0.4080609083175659, -0.0043110023252666, -0.006040606647729874, -0.0033074929378926754, 0.015414020046591759, -0.05266162008047104, -0.04108927771449089, 0.01151182409375906, 0.01319144107401371, -0.013296635821461678, -0.16614791750907898, 0.0051228818483650684, -0.0033320067450404167, -0.0012545945355668664, 0.01212738361209631, 0.04812047630548477, -0.00370308430865407, 0.030748983845114708, -0.09322669357061386, 0.10715077817440033, 0.18255776166915894, 0.0665619745850563, -0.002444920130074024, 0.009717225097119808, 0.004352439194917679, 0.09201844036579132], [0.007075895089656115, 0.23570466041564941, 0.06994839012622833, 0.13611070811748505, 0.009494949132204056, 0.41294339299201965, -0.2566787600517273, 0.05275403708219528, 0.058338191360235214, 0.04448647424578667, -0.0260334350168705, 0.09823942929506302, 0.28850698471069336, 0.015257494524121284, 0.012967795133590698, 0.10000032931566238, -0.2657628357410431, -0.011899902485311031, 0.02763780951499939, 0.015742072835564613, -0.021259425207972527, -0.2022249400615692, -0.019289737567305565, 0.6109463572502136, 0.10122507065534592, 0.01807025633752346, -0.04272078722715378, 0.011054339818656445, -0.0160430446267128, -0.040549639612436295, -0.022771738469600677, -0.03239963948726654], [-0.04581651836633682, 0.27657368779182434, -0.06148187071084976, 0.10943581163883209, -0.05774608254432678, 0.21932397782802582, -0.03821469470858574, -0.020467137917876244, -0.04832691326737404, -0.025434190407395363, -0.06961223483085632, 0.1133628860116005, 0.07896926254034042, 0.00368077983148396, 0.03804946318268776, -0.05466378107666969, -0.13646480441093445, 0.03268727287650108, -0.04781617224216461, -0.027149155735969543, 0.06801282614469528, 0.032030750066041946, 0.05855396017432213, 0.17226994037628174, -0.022692186757922173, 0.22242678701877594, -0.1189640462398529, 0.24833516776561737, 0.012986762449145317, 0.06291366368532181, 0.05443217605352402, -0.24425898492336273], [6.327636947389692e-05, 0.0026272472459822893, -0.00012399566185195, 0.0017684578197076917, -0.0019502040231600404, 0.013074359856545925, 0.007074800319969654, 0.0011913072085008025, 0.00018439997802488506, 0.000829992932267487, -0.0026145130395889282, -0.004662854131311178, 0.002789141843095422, 0.0008789836429059505, -7.71822888054885e-05, 0.0005381937371566892, -0.011746888048946857, -0.00026183485169894993, 8.750049892114475e-05, 0.0006281894748099148, -0.0007099795620888472, -0.011615624651312828, -0.00018592848209664226, -0.02578367106616497, -0.014001898467540741, 0.008846032433211803, -0.036442339420318604, 0.006313421297818422, -0.002743517979979515, -0.0009836876997724175, -0.0005311686545610428, -0.020856093615293503], [-0.0028035177383571863, 0.0122460862621665, 0.004471967462450266, -0.05584568530321121, -0.007984955795109272, -0.11768518388271332, 0.011999362148344517, -0.00034453265834599733, 0.0026760599575936794, -0.0010752504458650947, -0.003969152458012104, 0.0359627902507782, -0.02485460229218006, 0.00026328887906856835, 0.0019279877888038754, 0.009318511933088303, 0.01581696979701519, 0.0024875011295080185, -0.0027346774004399776, -0.003940867260098457, 0.009874454699456692, -0.023936226963996887, 0.006719293538480997, 0.023926109075546265, -0.010254815220832825, -0.00912944320589304, 0.12107738107442856, 0.07079598307609558, 0.0041228304617106915, 0.00011092937347711995, 0.002678742865100503, -0.00866999663412571], [-0.001493285526521504, 0.01896810717880726, -0.0009637230541557074, -0.011664568446576595, -0.005118532571941614, -0.06214049085974693, -0.008219807408750057, -0.0014443740947172046, -0.0010638617677614093, -0.0017687695799395442, -0.0025326746981590986, 0.028179608285427094, -0.0018508366774767637, -0.00039897990063764155, 0.0009043606114573777, 0.0006786598241887987, 0.002045770874246955, 0.0014311093837022781, -0.0026054102927446365, -0.002150048268958926, 0.006574865896254778, -0.008750073611736298, 0.0034366631880402565, -0.004577248357236385, -0.010014556348323822, 0.004503102973103523, 0.03522182255983353, 0.045616552233695984, 0.0020548985339701176, 0.0022707290481776, 0.0026989944744855165, -0.033493772149086], [0.01772121712565422, -0.16939780116081238, 0.04661376401782036, 0.023504748940467834, 0.02117093838751316, 0.20600391924381256, -0.24476514756679535, 0.038453150540590286, 0.0463414341211319, 0.03339977189898491, -0.034054841846227646, -0.08236946910619736, 0.14136694371700287, 0.01077265851199627, -0.008223749697208405, 0.06351237744092941, -0.1899881660938263, -0.0146086560562253, 0.029811715707182884, 0.015590530820190907, -0.02038276381790638, -0.13139460980892181, -0.027276962995529175, 0.10072506219148636, 0.12010819464921951, -0.0011908554006367922, 0.04037186875939369, -0.10729384422302246, -0.012646956369280815, -0.036238979548215866, -0.029312867671251297, -0.0023154825903475285], [5.8096182328881696e-05, -7.279002602444962e-05, 2.2085541786509566e-05, -0.0005238015437498689, 0.00012449811038095504, 0.0005637320573441684, -0.00042932984069921076, 1.463643457100261e-05, 2.999557545990683e-05, 2.0866731574642472e-05, 9.334672358818352e-05, -0.00038231699727475643, 0.00043090476538054645, 8.244899163400987e-07, -4.518995774560608e-05, 4.7551438910886645e-06, -0.00021027149341534823, -3.616389585658908e-05, 5.463425623020157e-05, 3.816854950855486e-05, -0.00014923815615475178, 0.00025047725648619235, -0.00010805210331454873, 0.0007145291310735047, 0.00033373903715983033, 8.550655184080824e-05, 0.0010363281471654773, -0.0003878833958879113, -1.7100021068472415e-05, -2.398736251052469e-05, -5.6236254749819636e-05, 0.0010363149922341108], [0.008647676557302475, -0.015310215763747692, 0.00266440911218524, -0.27461883425712585, 0.023983841761946678, 0.44480574131011963, -0.7104649543762207, -0.007832610048353672, 0.00016063333896454424, -0.005039016716182232, 0.03304430842399597, 0.29258742928504944, 0.1572505086660385, 0.010432900860905647, -0.01296682097017765, -0.009325586259365082, -0.05598955601453781, -0.0015654676826670766, 0.00651373527944088, -0.000784456729888916, -0.02438759244978428, 0.14806652069091797, -0.018617728725075722, -0.015035077929496765, 0.3477916121482849, -0.039468757808208466, 0.27913376688957214, -0.051214393228292465, 0.002491811290383339, -0.015733394771814346, -0.0122345807030797, 0.31560152769088745], [3.070260208914988e-05, -0.001042154268361628, -4.77671783301048e-05, -0.0008540991111658514, 2.5663792257546447e-05, -0.0009116159053519368, -0.0013289294438436627, -4.512270970735699e-05, -3.369407568243332e-05, -3.192708390997723e-05, 0.00012956532009411603, -0.0007153875776566565, 0.0011140484130010009, 1.5771433027111925e-05, -5.872520341654308e-05, -0.00010214501526206732, -0.0011060851393267512, 7.28924973714129e-08, 6.8319177444209345e-06, -1.4021668903296813e-05, 1.989477368624648e-06, 0.0005280443001538515, -2.9964363420731388e-05, -5.1200317102484405e-05, 0.0015350949252024293, 0.0003266533021815121, 0.0005084800068289042, -9.979958849726245e-05, 1.8961634850711562e-05, 3.183346962032374e-06, -2.0390662029967643e-05, 0.001298119779676199], [0.001377803971990943, -0.013333684764802456, 0.007310398854315281, 0.029126735404133797, -0.0007909518899396062, -0.009750109165906906, -0.06936592608690262, 0.009911664761602879, 0.008524887263774872, 0.006787133403122425, -0.018348855897784233, 0.03316567838191986, -0.007164504379034042, 0.003389771329239011, -0.0013026221422478557, 0.01401971559971571, -0.061081767082214355, -0.0001441576605429873, 0.0022630111780017614, -5.192690514377318e-05, 0.002729285741224885, -0.0324675627052784, -0.0033290651626884937, 0.025468673557043076, 0.061224061995744705, -0.015028659254312515, -0.03373368829488754, -0.045093610882759094, -0.0008911836775951087, -0.004952169954776764, -0.0024401629343628883, -0.036101918667554855], [0.00018040830036625266, -0.006175103131681681, 9.067677456187084e-05, -0.004093687515705824, 0.0006986058433540165, -0.00028868645313195884, -0.0033097926061600447, -0.00011198397260159254, 4.9499769374961033e-05, -4.862625428359024e-05, 0.0004895838210359216, -0.0037470769602805376, 0.0019508579280227423, -4.767125938087702e-05, -0.00039432759513147175, -0.00017932818445842713, -0.0017547440947964787, -0.00010496783215785399, 0.00015405664453282952, 6.930914241820574e-05, -0.00054110714700073, 0.002512102946639061, -0.0003970139950979501, -1.087538566935109e-05, 0.0030333606991916895, 0.00014594499953091145, 0.0010216280352324247, -0.0026808695401996374, 7.535359327448532e-05, -0.00027581825270317495, -0.00022803321189712733, 0.004837198182940483], [-0.0020057796500623226, 0.24439920485019684, -0.005436232313513756, -0.062085721641778946, 0.010663643479347229, 0.03726207837462425, 0.2071724385023117, -0.007672819308936596, -0.004871723707765341, -0.006529469974339008, -0.00926709733903408, -0.003428550437092781, -0.031821828335523605, 0.012348556891083717, -2.841623199856258e-06, -0.01110438909381628, 0.008378379046916962, 0.0041931383311748505, -0.0003144829533994198, -0.004961178172379732, -0.008132921531796455, 0.03659217432141304, -0.0013869513059034944, 0.06301847100257874, 0.017922092229127884, 0.06847288459539413, -0.12099486589431763, 0.049233756959438324, 0.007109417114406824, -0.004294482991099358, -0.0028162188827991486, -0.000864162459038198], [0.00011923460988327861, -0.09970178455114365, -0.009659023955464363, -0.07010418176651001, -0.0025414021220058203, -0.1787245124578476, -0.02922884188592434, -0.0026603047735989094, -0.0053828079253435135, -0.0022332833614200354, -0.003609787207096815, 0.16608695685863495, -0.1052737832069397, 0.007295629940927029, -0.0017947094747796655, -0.011388381943106651, -0.03814924508333206, 0.0026547734159976244, -0.0015962081961333752, -0.003608250292018056, 0.0055700428783893585, 0.04481617361307144, -0.0030854549258947372, -0.044916946440935135, 0.09923546761274338, -0.03807022050023079, 0.042880427092313766, -0.03284642472863197, 0.0030471712816506624, 0.006549262907356024, 0.0012062099995091558, 0.08420223742723465], [2.9214210371719673e-05, -0.001038611400872469, 1.027360758598661e-05, -0.0005119997076690197, 1.0690358976717107e-05, -0.0009060690645128489, -0.0010053185978904366, -3.865176495310152e-06, 9.023992788570467e-06, 1.5801119843672495e-06, 6.809688056819141e-05, -0.001111262827180326, 0.00035918556386604905, -3.423465841478901e-06, -3.0042032449273393e-05, -1.1679650924634188e-05, -0.0009641490178182721, -1.6118834537337534e-05, 1.708737909211777e-05, 1.0399750863143709e-05, -7.969306352606509e-06, 0.0002852061588782817, -2.539998422435019e-05, 0.00015686306869611144, 0.00178336794488132, 0.0006973413983359933, 0.00013002203195355833, -0.00015422161959577352, -5.875073838979006e-06, -2.0881667296634987e-05, -1.935107502504252e-05, 0.0008965418674051762], [1.5478355635423213e-05, -0.00015061731392052025, -1.6738153135520406e-05, -0.000550141092389822, -1.8585285943117924e-05, -0.0003220794606022537, -0.0007371314568445086, -4.443681973498315e-06, -7.54003667680081e-06, -4.976638479092799e-07, 6.0260666941758245e-05, -9.702703391667455e-05, 0.0008904525311663747, 1.4015989791005268e-06, -2.3353970391326584e-05, -3.238283534301445e-05, -0.0007239993428811431, -6.723608294123551e-06, 6.5626518335193396e-06, 5.36290644959081e-06, 2.410723209322896e-05, 0.00028375344118103385, -1.5983159755705856e-05, 0.0004799934395123273, 0.001420434913598001, 0.00045854912605136633, 0.0008832309977151453, 9.641481301514432e-05, -7.0906771725276485e-06, 1.235614763572812e-05, -4.61334093415644e-06, 0.0008143437444232404], [2.3541355403722264e-05, -0.000625524262432009, 4.033186996821314e-06, -0.0003884058678522706, 1.746518250911322e-06, -0.0006033292738720775, -0.0007409175741486251, 2.6220737936455407e-07, 6.4031323745439295e-06, 3.758468892556266e-06, 5.304067235556431e-05, -0.0007117590866982937, 0.00047243363223969936, -1.174598423858697e-06, -2.6110523322131485e-05, -8.057059858401772e-06, -0.000626681256107986, -1.3105585821904242e-05, 1.3663719073520042e-05, 9.700836926640477e-06, -1.7857895500128507e-06, 0.00020806411339435726, -1.8633729268913157e-05, 0.0002495056251063943, 0.0013367896899580956, 0.0005765424575656652, 0.0004250347847118974, -2.944568041129969e-05, -6.639979346800828e-06, -7.87529097578954e-06, -1.3894654330215417e-05, 0.0007697201217524707], [0.0002505833690520376, -0.005126948468387127, -2.422464058327023e-05, -0.00017499613750260323, 0.00035507255233824253, -0.002017474267631769, -0.000880748382769525, -5.0924077186209615e-06, 1.1085652658948675e-05, 1.4987190297688358e-05, 0.0001981672248803079, 0.0001929284044308588, 0.0006133083952590823, -2.247781776532065e-05, -0.00027474199305288494, -8.383920066989958e-05, -0.0008741856436245143, -0.00012999049795325845, 0.00013455774751491845, 0.00010097400809172541, -0.0002780380309559405, -0.00026768335374072194, -0.00042232085252180696, -0.00338468118570745, -0.00044397677993401885, 2.9337468731682748e-05, -0.0034048205707222223, -0.0003537327575031668, 5.062049694970483e-06, -4.1116217630587926e-07, -0.00015608749527018517, -0.00023433714522980154], [0.009575809352099895, -0.08179435133934021, -0.0021390910260379314, -0.07898785173892975, 0.006533768028020859, 0.06244465336203575, -0.42388296127319336, -0.0036513274535536766, -0.0017961040139198303, -0.001221317914314568, 0.04025551676750183, -0.049569662660360336, 0.43120133876800537, -0.0030339714139699936, -0.007940086536109447, -0.007018763106316328, 0.17624296247959137, -0.005644232966005802, 0.003799301804974675, 0.005362022668123245, -0.006187853869050741, 0.055325835943222046, -0.014488942921161652, -0.022574767470359802, 0.06571399420499802, 0.004678515251725912, 0.28136512637138367, -0.021175792440772057, -0.0029386146925389767, 0.005615146830677986, -0.00222776853479445, 0.19726718962192535], [0.000427506398409605, 0.010210094042122364, -0.009464507922530174, -0.06556741148233414, 0.0022979946807026863, -0.04195111617445946, 0.06443048268556595, -0.002547046635299921, -0.0048804013058543205, -0.0020541001576930285, -0.0009913217509165406, 0.1288210153579712, -0.14108695089817047, 0.005565958097577095, -0.00024562174803577363, -0.011980650015175343, 0.011022652499377728, 0.0018562065670266747, -0.0009085818892344832, -0.001953471451997757, -0.0010307400953024626, 0.051001206040382385, -0.006289189215749502, 0.0020688234362751245, 0.05815001204609871, -0.015103192068636417, 0.06078985333442688, -0.03585897386074066, 0.0013491634745150805, 0.00691226776689291, 0.0008904912392608821, 0.05902256816625595], [-8.009923476492986e-06, -6.103360647102818e-05, -1.2501101991801988e-05, 3.8758895243518054e-05, 3.790274786297232e-05, -0.00013026346277911216, -0.00019758089911192656, -2.8834538170485757e-06, -4.323436257891444e-07, -2.2808255835116142e-06, -1.7451779058319516e-05, -0.00023545233125332743, -0.00039302746881730855, 2.81257107417332e-05, 1.8343733245274052e-05, -4.567329142446397e-06, -0.00031867314828559756, 1.896223920994089e-06, 5.621819809675799e-07, -6.018229896653793e-07, -3.820667552645318e-05, -2.3855860490584746e-05, 6.327392384264385e-06, 0.0006744835991412401, 0.000454932072898373, 0.0008637597202323377, -0.00013868742098566145, 0.00044591588084585965, 2.4977055090857903e-06, 2.544570634199772e-06, -3.429600155868684e-06, -9.313682312495075e-06], [4.70161103294231e-05, 0.00012351198529358953, 6.644575478276238e-05, -0.0003149147378280759, 0.00027692533330991864, 0.0003081655304413289, -6.902145105414093e-05, 8.857821740093641e-06, 4.36997834185604e-05, 1.4905654097674415e-05, 6.1002938309684396e-05, -0.0005493279313668609, -0.0009259505895897746, 1.613009771972429e-05, -2.8361426302581094e-05, 3.616274261730723e-05, -0.00012191941641503945, -2.953036891994998e-05, 6.166467937873676e-05, 3.1563224183628336e-05, -0.0002816315973177552, 9.204784146277234e-05, -0.00011307457316434011, 0.00058953114785254, 6.21069484623149e-05, -0.00010601460235193372, -0.0001558157237013802, -0.0006600563647225499, -5.001083536626538e-06, -9.645643149269745e-05, -7.14536290615797e-05, 0.0007180431275628507], [8.815703040454537e-06, -0.0011569495545700192, -0.00011471148172859102, -0.0011484255082905293, -9.940551535692066e-05, -0.001367557211779058, -0.0015737416688352823, -6.514331471407786e-05, -8.526832243660465e-05, -4.982024256605655e-05, 0.00012850601342506707, -0.0005227780202403665, 0.0006046216585673392, -6.35350579614169e-06, -4.0615796024212614e-05, -0.00017552293138578534, -0.002164762932807207, 1.0911794561252464e-05, -3.555249350029044e-05, -2.27891250688117e-05, 0.00014496671792585403, 0.0005912494380027056, 5.542090548260603e-06, 0.0007267699693329632, 0.003214933443814516, 0.0008253884152509272, 0.0008405268308706582, 0.000726225902326405, 6.129310349933803e-06, 8.200777665479109e-05, 3.591067434172146e-05, 0.001009587082080543], [0.003989371471107006, -0.01065488439053297, -0.007246833294630051, -0.2039606273174286, 0.009470619261264801, 0.05979859083890915, -0.19214391708374023, -0.007894212380051613, -0.0056773400865495205, -0.006053559482097626, 0.015065408311784267, 0.1926700472831726, 0.23429803550243378, 0.006117408163845539, -0.006198944058269262, -0.014577134512364864, -0.01499302126467228, 0.0016074749873951077, 0.0012656236067414284, -0.003158500185236335, -0.006580299232155085, 0.11290131509304047, -0.010059654712677002, -0.03653743863105774, 0.12936002016067505, -0.021750299260020256, 0.20773161947727203, -9.85964506980963e-05, 0.004925345070660114, 0.0004339743172749877, -0.003909779246896505, 0.16943970322608948], [2.3167518520494923e-05, -5.091256389277987e-05, -8.877709944954404e-08, -0.00024949826183728874, 3.769601971725933e-05, 0.00014024694974068552, -0.0002815828484017402, 4.786248609889299e-06, 6.704601219098549e-06, 7.185784397734096e-06, 4.61857853224501e-05, -0.00022033981804270297, 0.00021547047072090209, 2.807011696859263e-06, -2.0470341041800566e-05, -5.9832709666807204e-06, -0.000180659641046077, -1.3538084203901235e-05, 1.8062939489027485e-05, 1.388662258250406e-05, -3.859509160974994e-05, 0.00011910284956684336, -4.04974925913848e-05, 0.0003133466234430671, 0.0003247452259529382, 0.0002542054862715304, 0.0006115145515650511, -3.1296971428673714e-05, -7.292145255632931e-06, -2.6411333919895696e-07, -1.8161521438742056e-05, 0.0004908107221126556], [5.043023338657804e-05, -0.0002663374471012503, 1.0665695299394429e-05, -0.0006496731657534838, 6.802431744290516e-05, 0.0003343646239954978, -0.0009248916176147759, 5.121812591823982e-06, 1.926108234329149e-05, 1.1885883395734709e-05, 9.636953473091125e-05, -1.5720888768555596e-05, 0.0013041594065725803, -5.028892246627947e-06, -5.3296800615498796e-05, -9.269509973819368e-06, -0.00011519429972395301, -2.823754766723141e-05, 4.04007951146923e-05, 2.5768908017198555e-05, -6.569615652551875e-05, 0.00032937483047135174, -8.154646639013663e-05, 0.00041831497219391167, 0.0008240241440944374, 0.00010652313358150423, 0.0013021212071180344, -0.00028996446053497493, -1.180877097795019e-05, -1.5871210052864626e-05, -4.2137715354328975e-05, 0.00117491593118757], [3.100365574937314e-05, -0.0002083967556245625, 4.812559382116888e-07, -0.0003876851114910096, 3.153880970785394e-05, -3.8153880268509965e-06, -0.0007126880809664726, -1.253380560228834e-06, 4.512921805144288e-06, 2.9552293199230917e-06, 7.02418910805136e-05, -0.00027544901240617037, 0.0006647260743193328, -2.382612365181558e-06, -3.483963155304082e-05, -1.2317859727772884e-05, -0.00016708053590264171, -1.5820309272385202e-05, 1.8795130017679185e-05, 1.2957902072230354e-05, -2.5943536456907168e-05, 0.00020343941287137568, -4.6070872485870495e-05, 0.00018656668544281274, 0.0005909517058171332, 0.00031348943593911827, 0.0007193628698587418, -1.3053992915956769e-05, -5.340708867151989e-06, -3.877088602166623e-06, -2.1038611521362327e-05, 0.0007250153576023877], [0.0003239881480112672, -0.006298685446381569, 4.7297980927396566e-05, -0.005499571096152067, 0.000525728682987392, -0.0001038828122545965, -0.004535358399152756, -0.00013968898565508425, 6.799145012337249e-06, -7.138558430597186e-05, 0.0005657291621901095, -0.0017271707765758038, 0.003751472570002079, 7.54481789044803e-06, -0.0008506927988491952, -0.00021719031792599708, -0.0019204398849979043, -0.0001800201425794512, 0.00017676386050879955, 0.0001059257410815917, -0.0004644762084353715, 0.0032933021429926157, -0.00033350338344462216, -0.00030927069019526243, 0.004154510796070099, -2.3558986868010834e-05, 0.0046503255143761635, -0.002161364769563079, 3.128377647954039e-05, -0.00021525329793803394, -0.0002995294926222414, 0.0064798868261277676], [0.0005356908077374101, -0.013102556578814983, -0.001701601198874414, -0.00805352907627821, -1.7345801097690128e-05, -0.01869102567434311, -0.014720570296049118, -0.001532148802652955, -0.001426931470632553, -0.0012187939137220383, 0.0013779207365587354, -0.0053850519470870495, -0.01013012696057558, 0.0001817511219996959, -0.001567391213029623, -0.0027303416281938553, -0.01666112057864666, 0.00019491644343361259, -0.0003993648861069232, -0.0006605709786526859, 0.0006982029881328344, 0.0007424063514918089, -0.000443389086285606, -0.005503762513399124, 0.020166421309113503, -0.0013491098070517182, -0.009799557738006115, 0.00742079084739089, 0.0007830257527530193, 0.0005626185447908938, 5.558763223234564e-05, -0.006812970153987408], [0.00016656638763379306, -0.00033450478804297745, 3.60013400495518e-05, -0.002150974702090025, 0.00028806942282244563, 0.002327945316210389, -0.001693985192105174, 4.6876928536221385e-05, 5.9961552324239165e-05, 6.988026143517345e-05, 0.0002838540240190923, -0.001038297894410789, 0.0025473758578300476, -3.702479807543568e-05, -0.00014661121531389654, -3.4927161323139444e-05, -0.0002654409036040306, -0.00011168383935000747, 0.0001477129408158362, 0.00011250381066929549, -0.0003073043772019446, 0.001148686627857387, -0.000338254525559023, 0.0017589008202776313, 0.0007799324812367558, 1.7281659893342294e-05, 0.0029339075554162264, -0.0011150314239785075, -4.248217010172084e-05, -3.5176126402802765e-05, -0.0001667612959863618, 0.003026669379323721], [0.006631023250520229, 0.03271155059337616, 0.0008567120530642569, -0.12188058346509933, -0.01802770234644413, 0.007669644430279732, -0.28261303901672363, 0.00856045726686716, 0.004135000053793192, 0.008365096524357796, 0.018190348520874977, 0.13460318744182587, 0.8136973977088928, -0.010530631057918072, -0.005033028312027454, 0.00526122422888875, 0.07560468465089798, -0.006479327566921711, 0.0026724219787865877, 0.0066716657020151615, 0.020702047273516655, 0.035029392689466476, -0.0017023214604705572, -0.03157197684049606, 0.04642230272293091, 0.021854132413864136, 0.45487096905708313, -0.029437288641929626, -0.00836500246077776, 0.010179998353123665, 0.0020868806168437004, 0.2806205749511719], [0.006205773446708918, 0.17898158729076385, 0.0020308990497142076, -0.13524232804775238, -0.004448088817298412, 0.22992992401123047, -0.09785961359739304, -0.0012674368917942047, 0.0010942297521978617, -0.00047753608669154346, 0.010198370553553104, 0.084548220038414, 0.25186440348625183, -0.002888048766180873, -0.009443022310733795, -0.0038262626621872187, 0.002268398879095912, -0.002638036385178566, 0.0024497967679053545, 0.0008687585359439254, 0.008064600639045238, 0.07859253138303757, -0.005978200118988752, -0.019259784370660782, -0.10900872945785522, -0.04458267241716385, 0.321626216173172, -0.02351205237209797, -2.6127694582100958e-05, -0.000482737785205245, -0.0030343662947416306, 0.141096293926239], [-0.0035451273433864117, -0.03342851623892784, -0.010971145704388618, 0.048987776041030884, -0.0043090712279081345, -0.1372450441122055, 0.18820112943649292, 0.0002106946485582739, -0.00488219503313303, -0.0007030657143332064, -0.01681997999548912, -0.07589010894298553, -0.36731094121932983, 0.004749458283185959, 0.005241513717919588, -0.009813460521399975, -0.0023963237181305885, 0.0027388366870582104, -0.0037227333523333073, -0.0024716390762478113, 0.004610173404216766, -0.015435527078807354, 0.0002087202010443434, 0.013909487053751945, 0.02074378915131092, 0.008234122768044472, -0.11585217714309692, 0.011960459873080254, -0.0005274890572763979, 0.01020245160907507, 0.004943195730447769, -0.08939976990222931], [0.008021416142582893, -0.07654009759426117, 0.004785227123647928, -0.060361094772815704, 0.0017645445186644793, -0.022177159786224365, -0.20565937459468842, 0.007119266781955957, 0.006491577252745628, 0.005668736062943935, 0.003938740119338036, 0.1251610517501831, 0.10393097996711731, -0.001225366722792387, -0.008811959996819496, 0.007592155598104, -0.024337701499462128, -0.004287010058760643, 0.004014679696410894, 0.003366239834576845, 0.0007796651916578412, 0.02105019986629486, -0.011663704179227352, -0.029268331825733185, 0.17173677682876587, -0.03143018111586571, 0.17164865136146545, -0.06286126375198364, -0.0023759363684803247, 1.90031551028369e-05, -0.0031829290091991425, 0.10556024312973022], [0.0016117660561576486, -0.014546569436788559, -0.0014113140059635043, -0.01392329577356577, 0.004155891016125679, -0.02483999915421009, 0.03532285615801811, -0.0014777756296098232, -0.0005273703136481345, -0.0011793064186349511, -0.001219217898324132, -0.05184890329837799, -0.0773412212729454, 0.003319695359095931, -0.002884700195863843, -0.00343250366859138, 0.004831681493669748, 0.0002666725486051291, 0.0016012591077014804, -0.0008444481063634157, -0.003147565061226487, 0.009787107817828655, -0.003114868886768818, 0.00046954338904470205, -0.008024358190596104, 0.0051308670081198215, 0.014939290471374989, -0.002463366137817502, 0.0013583725085482001, -0.0008653384284116328, -0.002605635207146406, 0.009196425788104534], [4.451130735105835e-06, -0.0005466638831421733, 1.0306846888852306e-05, -0.00023315698490478098, 3.275943890912458e-05, -0.00041984935523942113, -0.00043428860954008996, -8.480080396111589e-06, 3.0020066787983524e-06, -6.9919742600177415e-06, 3.042856951651629e-05, -0.001024577533826232, 0.00015750979946460575, 1.1044139682780951e-05, 4.53454049420543e-07, 9.016089279612061e-07, -0.0002319380728295073, 7.666446890652878e-07, 2.9406828616629355e-06, -1.322890739174909e-06, -1.4526142877002712e-05, 0.0001255548995686695, -2.3713962946203537e-05, -8.589166100136936e-05, 0.0006632629665546119, 0.0005894016940146685, -0.0001949482102645561, 5.477266313391738e-06, 6.204427336342633e-06, -2.162183591281064e-05, -7.69583675719332e-06, 0.0005013603367842734], [0.0002171394880861044, -0.0062915063463151455, 3.3264601370319724e-05, -0.0015805603470653296, 0.0004476800677366555, -0.0022914442233741283, -0.004318608436733484, -0.00014271769032347947, 1.14098756966996e-05, -9.689127909950912e-05, 0.0004141479730606079, -0.0038482409436255693, 0.0020436933264136314, 6.0977406974416226e-05, -0.00021815106447320431, -0.00015305023407563567, -0.0012048832140862942, -5.055403380538337e-05, 0.0001220384074258618, -2.955045783892274e-05, -0.00035757405566982925, 0.001196485129185021, -0.0002808084827847779, -0.003544329199939966, 0.001740255276672542, -0.001299557858146727, -0.0017626256449148059, -0.0023009588476270437, 0.00011902052210643888, -0.00025266336160711944, -0.0002221602335339412, 0.003340404015034437], [7.124926924007013e-05, -0.0009686451521702111, 3.7360350688686594e-05, -0.000921029772143811, 0.00014655121776740998, 0.0001284268219023943, -0.001402854104526341, -1.7132979337475263e-05, 3.275261406088248e-05, -3.0180274279700825e-06, 0.0001312544773099944, -0.000406415609177202, 0.0012128216912969947, 5.940540631854674e-06, -7.934398308862001e-05, -1.878162584034726e-05, -9.677150228526443e-05, -3.151568671455607e-05, 6.70790032017976e-05, 2.0720135580631904e-05, -0.00015069256187416613, 0.0005311827408149838, -0.00010873074643313885, 8.92150910658529e-06, 0.0009438178967684507, -2.627824869705364e-05, 0.0007957619964145124, -0.0007666288292966783, 9.501951353740878e-06, -8.7327542132698e-05, -8.78159116837196e-05, 0.001644602743908763], [0.008498677983880043, -0.12121358513832092, 0.003122766735032201, -0.047118499875068665, 0.008806318044662476, 0.00031490158289670944, -0.14652042090892792, 0.004038248211145401, 0.004346936941146851, 0.003934079315513372, 0.005299386102706194, 0.10098373889923096, 0.12106908857822418, 0.00010187600128119811, -0.00869626272469759, 0.004946955479681492, 