{"lstm.weight_ih_l0": [[-0.009691791608929634, 0.4447435140609741], [-0.01069994643330574, 0.0921458750963211], [-0.00079331238521263, -0.005496513098478317], [0.003302676137536764, 0.006721974350512028], [0.029722396284341812, 1.5053763389587402], [-0.0005022487021051347, -0.008804848417639732], [0.005974195897579193, 0.708267331123352], [0.03857484459877014, 0.19531969726085663], [-0.0005247497465461493, 0.02762644737958908], [-0.016443245112895966, 0.6908906102180481], [-0.028798604384064674, 0.18832388520240784], [-0.012115229852497578, 0.05079895257949829], [0.0007869958644732833, -0.01733943074941635], [3.510787428240292e-05, -0.0018277914496138692], [0.0002526152820792049, -0.0026147528551518917], [-0.00017229242075700313, -0.0034672755282372236], [-0.006256418768316507, -0.1406846046447754], [-0.010008621029555798, 0.1416548490524292], [-0.0002710464468691498, -0.008980872109532356], [0.002345026470720768, 0.0064557562582194805], [0.013091920875012875, -0.03842334821820259], [-0.0003030695952475071, -0.011754958890378475], [-0.0030860065016895533, -0.16258011758327484], [0.06181224063038826, 0.10725027322769165], [0.002325759967789054, 0.08152677118778229], [0.0005297446041367948, -0.1041061133146286], [-0.0474933385848999, 0.12429017573595047], [-0.03134261444211006, -0.361630916595459], [0.0003808902984019369, -0.007915941067039967], [4.4790489482693374e-05, -0.001819525845348835], [0.00036212176200933754, -0.0030182059854269028], [-0.0005794377066195011, -0.0038905732799321413], [-0.17961840331554413, -0.000749490107409656], [0.18376176059246063, 0.06229083612561226], [0.01266547292470932, -0.04490067437291145], [0.032973092049360275, -0.08442455530166626], [3.6538681983947754, -0.007237387355417013], [-0.02533191256225109, 0.03964809328317642], [-0.32097604870796204, -0.0030466383323073387], [-0.6895467638969421, -0.9066938161849976], [0.018356438726186752, 0.2017558068037033], [3.8082261085510254, -0.0256972536444664], [-0.6644303202629089, 0.8709498047828674], [0.7706437110900879, 0.050442736595869064], [-0.0026230148505419493, 0.02691951021552086], [0.002975907176733017, 0.028763514012098312], [0.03712360933423042, -0.024300308898091316], [-0.030613355338573456, 0.02172289974987507], [-0.011660436168313026, 0.4753818213939667], [-0.010889608412981033, 0.09824219346046448], [-0.00027138699078932405, -0.007210659794509411], [0.0050368704833090305, 0.00580458203330636], [0.02631480246782303, 1.0948472023010254], [-0.0006926189525984228, -0.00905290711671114], [0.009160646237432957, 0.7393894195556641], [0.024867117404937744, 0.3764537274837494], [0.0017864262918010354, 0.06173660233616829], [-0.01670205220580101, 0.7003796100616455], [-0.020655222237110138, 0.38913804292678833], [-0.024746011942625046, -0.11834687739610672], [4.95947060699109e-05, -0.010985716246068478], [4.0614704630570486e-05, -0.0018135861027985811], [0.00029333311249502003, -0.002605669666081667], [-0.0002853974874597043, -0.0037317865062505007]], "lstm.weight_hh_l0": [[-0.004817172884941101, -0.007403348106890917, -0.030110664665699005, 0.014082247391343117, 0.0087245749309659, 0.02356579340994358, 0.02063625119626522, -0.07921800762414932, 0.016450464725494385, -0.001360412803478539, 0.02053724229335785, 0.0169542096555233, 0.021327868103981018, -0.0013747185003012419, -0.007817021571099758, -0.006336457096040249], [-0.006629928480833769, 0.010621124878525734, -0.006189327221363783, 0.00022198649821802974, -0.012561195529997349, 0.0030322778038680553, 0.0008792247390374541, -0.028042979538440704, 0.0329471081495285, -0.006565977819263935, 0.0453660786151886, -0.009290856309235096, 0.00404213834553957, -0.00010791920067276806, -0.0010445450898259878, -0.0016002784250304103], [-0.0016164982225745916, -0.0042242854833602905, -0.00039102204027585685, -0.0014837743947282434, 0.007071576081216335, 0.0008609730866737664, 0.005656392779201269, -0.003252920927479863, -0.0008744963561184704, -0.00019189112936146557, -0.013004112988710403, 0.008886761963367462, -0.0001977424690267071, -7.310485671041533e-05, -0.0010188556043431163, 0.0009433217928744853], [-0.0004502540687099099, -0.001580498763360083, -0.0015423528384417295, 0.00072070601163432, 0.004141764249652624, 0.0015408718027174473, -0.0035792363341897726, -0.005684503819793463, -0.0013741013826802373, 0.002856251085177064, -0.005864255595952272, 0.002796218963339925, 0.0007620284450240433, -0.0003354995569679886, -0.0006530709797516465, -0.0004719447751995176], [0.018993012607097626, 0.0628233477473259, -0.06213632598519325, -0.10416652262210846, -0.012446904554963112, 0.018629159778356552, -0.011144084855914116, -0.8819141387939453, 0.20964886248111725, 0.004867251962423325, 0.8924582600593567, 0.06508304178714752, 0.008838539011776447, 0.011895897798240185, 0.006143448408693075, 0.049107857048511505], [-0.0005980752757750452, -0.0030457281973212957, -0.000386414845706895, -0.0008331810240633786, 0.00570343341678381, 0.0002076322998618707, 0.001169052324257791, -0.0023507196456193924, -3.532246410031803e-05, 0.0003982543421443552, -0.006097873672842979, 0.005369115155190229, -0.000476741639431566, -3.0926305043976754e-05, -0.00043714913772419095, 0.0005017293151468039], [-0.003224448999390006, 0.004179405979812145, -0.03331659734249115, -0.05175445228815079, -0.002281785709783435, 0.009404260665178299, -0.002650046721100807, -0.5001996159553528, 0.2667827010154724, 0.008991532027721405, 0.490238219499588, 0.040044236928224564, 2.1491421648534015e-05, 0.0015539353480562568, -0.011621003970503807, 0.01790781319141388], [-0.038658712059259415, 0.0051994938403368, -0.020650295540690422, 0.015820657834410667, -0.03752019256353378, 0.015862775966525078, -0.06059662625193596, -0.0663682147860527, -0.0822116881608963, -0.04158518463373184, 0.06158175691962242, 0.03519578278064728, 0.014378868974745274, -0.0038863555528223515, -0.00203518639318645, -0.008944041095674038], [-0.002966793719679117, -0.004533341154456139, -0.009939861483871937, 0.02567772939801216, -0.016962924972176552, 0.013375675305724144, 0.000605541979894042, 0.1656777709722519, -0.09791962057352066, -0.005277568474411964, -0.15245291590690613, 0.00012182752834632993, 0.014349546283483505, -0.001676376210525632, -0.0032574059441685677, -0.00822022557258606], [0.019826697185635567, 0.03474421799182892, -0.03247892111539841, -0.10799786448478699, -0.003690438810735941, -0.016324033960700035, 0.008475322276353836, -1.012848138809204, 0.5602718591690063, -0.009277758188545704, 1.0690723657608032, 0.01014716550707817, -0.018529873341321945, 0.0015768044395372272, -0.0020612601656466722, 0.02749163843691349], [0.04874774068593979, 0.005852613132447004, -0.01809188909828663, 0.018092114478349686, 0.05169682204723358, 0.012592649087309837, 0.05347292125225067, -0.05717867612838745, -0.08733637630939484, 0.04927729442715645, 0.04857785999774933, -0.04975731670856476, 0.019150540232658386, -0.003526106011122465, -0.0026880083605647087, -0.009716073982417583], [-0.00998695194721222, -0.045101288706064224, -0.02973676100373268, 0.04978533461689949, 0.052177589386701584, 0.03758559003472328, -0.000412463559769094, 0.20387960970401764, -0.17536230385303497, 0.0102925980463624, -0.25612884759902954, 0.019440539181232452, 0.02716168761253357, -0.004385276697576046, -0.009243680164217949, -0.012500323355197906], [0.0018368064193055034, 0.002000595908612013, 0.00011039538367185742, 0.0007749967626295984, 0.0013867832021787763, -0.000287229020614177, 0.003918991889804602, 0.0002931889321189374, 0.002583001973107457, 0.002863433677703142, 0.0019626361317932606, -0.002858623629435897, 0.00033622694900259376, 1.5536969613094698e-06, -0.00011765344970626757, -0.0005114248488098383], [1.3862490959581919e-05, -5.8035243455378804e-06, 1.3485247109201737e-05, 1.4754541552974842e-05, 5.927337406319566e-05, -3.906982783519197e-06, 2.6162497306359e-05, 0.0007062568329274654, -0.00013872989802621305, 1.3605133517557988e-06, -0.0005222681793384254, -4.341216936154524e-06, 1.9298277038615197e-06, -9.361463639834255e-07, -2.4744194888626225e-06, -5.477084869198734e-06], [-0.0001509967987658456, -0.0015862289583310485, -0.0003831259673461318, -0.00027553236577659845, 0.002659627003595233, 0.00019201809482183307, 0.0017874054610729218, -0.0016468438552692533, -0.0003396742686163634, 0.0003841817087959498, -0.0032582583371549845, 0.0014614806277677417, 3.6715537135023624e-05, -1.3446327102428768e-05, -0.00028280337573960423, 0.0002111962967319414], [-8.159988647093996e-05, 0.0005463469424284995, -0.0001314531546086073, 0.0010917017934843898, -0.001640865346416831, 0.00047198307584039867, -0.0010701781138777733, 0.007848665118217468, -0.003465638030320406, 0.00030221015913411975, -0.009780779480934143, -0.0026444692630320787, 0.0004662982828449458, -0.00015421898569911718, -0.00036982353776693344, -0.0007057535112835467], [0.00654646335169673, -0.007193679455667734, 0.01465730182826519, -0.0046198866330087185, -0.018553242087364197, -0.009922566823661327, 0.012539015151560307, -0.04104821756482124, 0.018228238448500633, 0.002891452284529805, 0.03244009241461754, -0.012764143757522106, -0.008765004575252533, 0.00023799666087143123, -0.004553469829261303, -0.0012381357373669744], [-0.008340630680322647, 0.01804920844733715, -0.009712141007184982, -0.003431276185438037, -0.025906961411237717, 0.0033683613874018192, -0.003100845031440258, -0.0674523413181305, 0.058328550308942795, -0.0076126521453261375, 0.09126300364732742, -0.01434415765106678, 0.0053831529803574085, -0.00020831827714573592, -0.0011957356473430991, -0.0015434277011081576], [-0.0015227890107780695, -0.004430483561009169, -0.0003230453294236213, -0.0016571966698393226, 0.008131504990160465, 0.0007793196709826589, 0.006062263157218695, -0.0032805916853249073, -0.0008038594387471676, 0.00016096043691504747, -0.013407547026872635, 0.00921629834920168, -0.0002779739152174443, -6.822064460720867e-05, -0.0010243139695376158, 0.0010263710282742977], [-0.000682885991409421, -0.00159886060282588, -0.0015475355321541429, 0.0007956023910082877, 0.004436029586941004, 0.0015487101627513766, -0.0032991240732371807, -0.005594481248408556, -0.0015826213639229536, 0.0024949165526777506, -0.005554017145186663, 0.0029116577934473753, 0.0006734344060532749, -0.00036271708086133003, -0.0007045223610475659, -0.0004886787501163781], [0.054742295295000076, 0.07549949735403061, 0.04146524891257286, -0.029353203251957893, 0.011272091418504715, -0.046863410621881485, -0.001288247643969953, -0.10605518519878387, 0.04663582518696785, 0.0029499151278287172, 0.17560476064682007, -0.004757099784910679, -0.023716486990451813, 0.001799765508621931, 0.01540552917867899, -0.005129518918693066], [-0.0005323205259628594, -0.0028253160417079926, -0.0001901620125863701, -0.0007405700744129717, 0.005712728016078472, 3.966530130128376e-05, 0.0016171196475625038, -0.00231548841111362, -0.0004562260292004794, 0.0005303672514855862, -0.00448643509298563, 0.005289297550916672, -0.0005015290807932615, -5.1470036851242185e-05, -0.00038004614179953933, 0.00046578323235735297], [-0.013453705236315727, -0.02933429181575775, 0.021647319197654724, -0.026308825239539146, 0.015114007517695427, -0.01556406356394291, 0.015932580456137657, -0.08211371302604675, 0.10420040041208267, -0.013888605870306492, 0.1347392052412033, 0.00011009011359419674, -0.019250644370913506, 0.0017742827767506242, -0.00836267787963152, 0.007138936314731836], [0.011104459874331951, 0.04949766397476196, -0.015006200410425663, -0.006292714737355709, -0.017659712582826614, 0.00461828988045454, -0.07008744776248932, -0.36898598074913025, -0.03813420608639717, 0.04717690497636795, 0.3388683497905731, 0.07187508791685104, 0.0002816119813360274, -0.01013028621673584, -0.0024957386776804924, -0.009735445491969585], [-0.003509038593620062, -0.009967436082661152, -0.01689809188246727, 0.03822772204875946, -0.003988891839981079, 0.02175263874232769, 0.008783680386841297, 0.19221101701259613, -0.14782054722309113, -0.0028218193911015987, -0.18934689462184906, 0.014197291806340218, 0.021788891404867172, -0.0027656261809170246, -0.00493391789495945, -0.011898085474967957], [0.014977487735450268, 0.021368755027651787, 0.01151969376951456, -0.07064154744148254, 0.007238144986331463, -0.028118852525949478, 0.002731860149651766, -0.4307168424129486, 0.24173012375831604, 0.010425169952213764, 0.4411736726760864, -0.001686647767201066, -0.02793816290795803, 0.0019775384571403265, 0.004406337160617113, 0.02172546088695526], [0.049349550157785416, -0.023545823991298676, -0.019555294886231422, -0.012224805541336536, 0.12503725290298462, 0.001423923415131867, 0.09842318296432495, -0.3645370304584503, -0.042978476732969284, -0.02647494152188301, 0.4159297049045563, -0.09916851669549942, 0.009235306642949581, -0.007787608541548252, -0.0027905439492315054, -0.00018341765098739415], [0.004301141016185284, -0.024007905274629593, 0.007351715583354235, 0.013841395266354084, 0.024575630202889442, 0.0021811954211443663, -0.010690155439078808, 0.13759911060333252, -0.022417286410927773, 0.006580024026334286, -0.09982424229383469, -0.04406961053609848, -0.0022648372687399387, -0.0021740782540291548, -0.0023772758431732655, -0.005356615874916315], [0.001994989113882184, 0.0020998367108404636, 5.334804154699668e-05, 0.0011086072772741318, 0.0006756206275895238, -0.00021413032663986087, 0.0031391445081681013, -0.010519140399992466, 0.0010912616271525621, 0.002471818821504712, 0.014121083542704582, -0.0023337688762694597, 0.00014785572420805693, 1.6100104858196573e-06, -8.149343193508685e-05, -0.0006830394268035889], [1.7821663277572952e-05, -4.12304552810383e-06, 9.407939614902716e-06, 1.909378988784738e-05, 6.0214497352717444e-05, -4.084711235918803e-06, 2.7855468943016604e-05, 0.0006492373649962246, -0.00014515299699269235, 4.445020749699324e-06, -0.0005467324517667294, -2.833241978805745e-06, 1.9852998320857296e-06, -2.5545157313899836e-06, 1.739981257742329e-06, -6.449611191783333e-06], [8.861446258379146e-05, -0.0013572484022006392, -0.00036413082852959633, -0.00041822355706244707, 0.0031013162806630135, 0.0002656391297932714, 0.002329034497961402, -0.0027680201455950737, -8.196347334887832e-05, 0.0005949760670773685, -0.0021411259658634663, 0.001806225161999464, 4.0332492062589154e-05, -6.380475497280713e-06, -0.0002535373787395656, 0.00016979200881905854], [-0.00039076636312529445, 0.0004983991966582835, 1.7602116031412152e-06, 0.0008848464931361377, -0.0023396522738039494, 0.0003421606379561126, -0.0016025443328544497, 0.007647587917745113, -0.0030910102650523186, -0.00016611999308224767, -0.009296614676713943, -0.0025763444136828184, 0.00028721458511427045, -0.00015975479618646204, -0.0003768181777559221, -0.0006900381413288414], [-0.721872091293335, -0.02546309120953083, -0.09071091562509537, -0.04386226832866669, 0.11460201442241669, 0.024984631687402725, -0.019814761355519295, 0.3483463525772095, -0.05835273489356041, 1.5660068988800049, 0.4040583670139313, -0.15293823182582855, -0.12266674637794495, -0.007376756984740496, -4.3880383600480855e-05, 0.06322392076253891], [-0.016696495935320854, 0.13379493355751038, -0.016350606456398964, 0.008708382025361061, -0.2877402901649475, -0.013339637778699398, -0.18933378159999847, 0.010238179937005043, -0.011548043228685856, 0.015781667083501816, 0.09026375412940979, -0.19397081434726715, -0.010936195962131023, -0.00026034662732854486, 0.01069191936403513, -0.02384958602488041], [0.033402007073163986, 0.02889123558998108, -0.014376056380569935, 0.015834668651223183, -0.01923518255352974, 0.0014152154326438904, -0.04106263816356659, 0.05453303083777428, -0.009636501781642437, 0.016782650724053383, 0.03654070198535919, -0.06448140740394592, 0.006459455005824566, 0.0005997291882522404, 0.009031531400978565, -0.002981186378747225], [0.0125239547342062, 0.03706228733062744, 0.004502957686781883, 0.017621323466300964, -0.06662998348474503, 0.002410084242001176, -0.04458677023649216, 0.17967090010643005, -0.016838185489177704, 0.009301627986133099, -0.03648095577955246, -0.07977456599473953, 0.005858199670910835, -0.0006970810354687274, 0.01014034915715456, -0.0027670252602547407], [-0.37696897983551025, 0.019424622878432274, -0.07656252384185791, -0.03183740749955177, 0.5817368030548096, -0.011322589591145515, 0.12018080800771713, 0.27822092175483704, -0.028093280270695686, 3.0150249004364014, 0.2824245095252991, -0.7476128339767456, -0.034722574055194855, -0.003895420813933015, 0.019292520359158516, 0.06752364337444305], [-0.03182553872466087, -0.050752222537994385, -0.0280741136521101, -0.008679237216711044, 0.04620612785220146, -0.01992194354534149, -0.022012049332261086, 0.021678470075130463, -0.02781290002167225, -0.026849443092942238, -0.05187053978443146, 0.05339227244257927, -0.019278276711702347, 0.00036710710264742374, -0.006636730395257473, 0.0028829616494476795], [0.7428691983222961, 0.016368404030799866, -0.051472730934619904, -0.0364399291574955, 0.14648404717445374, 0.006249730009585619, 0.5588726997375488, -0.17965073883533478, 0.03387676551938057, 1.4729926586151123, -0.21540190279483795, -0.8114381432533264, 0.019854487851262093, 0.0007904679514467716, -0.014871153980493546, 0.02829642966389656], [-0.3351299464702606, -0.41782164573669434, -0.03355874866247177, -0.09301929920911789, -0.12882749736309052, 0.02687596157193184, 0.12449606508016586, 0.028987592086195946, 0.2351129800081253, -0.7069052457809448, -0.15518228709697723, -0.019259821623563766, -0.015919582918286324, -0.0013385111233219504, -0.06858378648757935, 0.10717026144266129], [0.01939256303012371, 0.06285513192415237, -0.03496652469038963, -0.0274062342941761, -0.08814533799886703, 0.003732691751793027, -0.01769203506410122, -0.4107426404953003, 0.25453636050224304, 0.01047868188470602, 0.342795193195343, -0.00819073524326086, 0.012792405672371387, 0.010697636753320694, 0.031003450974822044, 0.010593811050057411], [-0.8354414701461792, 0.05104193091392517, 0.014637554995715618, 0.010560550726950169, -0.00427799578756094, 0.04265308007597923, 0.011521459557116032, 0.17436638474464417, 0.02081255242228508, 0.008609030395746231, 0.19468966126441956, 0.02470363862812519, -0.06449199467897415, -0.010281281545758247, 0.016074422746896744, -0.0393405482172966], [-0.2287551760673523, -0.2971459627151489, -0.08764980733394623, -0.12150055170059204, -0.1292749047279358, 0.09653019160032272, 0.11811314523220062, -0.25702720880508423, -0.29830607771873474, -0.7694733142852783, 0.008740155026316643, -0.05704224482178688, -0.03341776877641678, -0.0019335717661306262, -0.0648493692278862, 0.060256365686655045], [0.16995389759540558, 0.09741096198558807, 0.04637688770890236, 0.024922426789999008, 1.3276464939117432, 0.027548084035515785, -0.6009865403175354, 0.03618881106376648, 0.03950861468911171, 0.5036289095878601, 0.033328764140605927, -0.017836755141615868, -0.026187658309936523, -0.003905883524566889, 0.031654421240091324, -0.08294332027435303], [0.09379852563142776, 0.02361449971795082, -0.05216899514198303, 0.026971178129315376, -0.03157778084278107, -0.04064519703388214, 0.07340806722640991, 0.09831797331571579, -0.018762651830911636, 0.042916662991046906, 0.020299647003412247, -0.0681561604142189, -0.03382085636258125, 0.005854278337210417, 0.014176419004797935, -0.01813962124288082], [0.005122389178723097, 0.002169335028156638, 0.004575223661959171, 0.003907554782927036, -0.003347858088091016, -0.0015278313076123595, 0.017451558262109756, 0.013205323368310928, -0.0035380839835852385, 0.007488137576729059, 0.008493245579302311, -0.00439872732385993, -6.072793621569872e-05, -0.0017484481213614345, -0.0019389786757528782, -0.004194393288344145], [-0.005695295985788107, 0.011588598601520061, 0.008806477300822735, 0.004414554685354233, -0.024482646957039833, -0.006037537474185228, -0.054421763867139816, 0.024554947391152382, -0.010034352540969849, -0.004794985521584749, 0.047345977276563644, -0.03525668382644653, -0.005105308722704649, -0.0033529021311551332, -0.004971967078745365, -0.009214292280375957], [-0.006188201252371073, -0.03162137046456337, 0.0046014804393053055, -0.008610278367996216, 0.03790822997689247, -0.002766617340967059, 0.07733573764562607, -0.07473471015691757, 0.005145632661879063, -0.006218846421688795, -0.009087253361940384, 0.0635518804192543, -0.005418532527983189, -0.0012965257046744227, -0.006686707958579063, -0.0032735541462898254], [-0.0037463668268173933, -0.004959226120263338, -0.030083466321229935, 0.010227571241557598, 0.00910857506096363, 0.021912042051553726, 0.02050052210688591, -0.1250210553407669, 0.031411804258823395, -0.005831012036651373, 0.0700240358710289, 0.017924366518855095, 0.020083943381905556, -0.0012954247649759054, -0.007597101386636496, -0.005267085507512093], [-0.0060041663236916065, 0.009845866821706295, -0.006922295317053795, 0.0002557431871537119, -0.012201793491840363, 0.003581915982067585, 0.004308425821363926, -0.023594362661242485, 0.03372009098529816, -0.004338087979704142, 0.044716816395521164, -0.009562725201249123, 0.004534017760306597, -0.00015809790056664497, -0.001213597017340362, -0.0016726598842069507], [-0.003347626654431224, -0.0044714114628732204, -0.0002239691384602338, -0.0015715615591034293, 0.003083802293986082, 0.0008416349883191288, 0.005833325441926718, -0.0014482400147244334, -0.0012056798441335559, -0.001692058052867651, -0.010706617496907711, 0.008987613022327423, -0.00033963500754907727, -9.905537444865331e-05, -0.0010537715861573815, 0.0009595701121725142], [-0.0005301463534124196, -0.0008986808243207633, -0.0014044673880562186, 0.0010140324011445045, 0.00645021628588438, 0.0014904028503224254, -0.00441520381718874, -0.005968521349132061, -0.0017234340775758028, 0.003155279438942671, -0.007262518163770437, 0.003855366026982665, 0.0008021858520805836, -0.0003488734073471278, -0.000524524599313736, -0.0006382857682183385], [0.010422139428555965, 0.017192132771015167, -0.06699935346841812, -0.05545088276267052, -0.00171524693723768, 0.031050290912389755, -0.004786270670592785, -0.5230105519294739, -0.05648242309689522, -0.020967401564121246, 0.5815892219543457, 0.05030585825443268, 0.025907188653945923, 0.003344188677147031, 0.01012474950402975, 0.032546959817409515], [-0.00040074330172501504, -0.003051999257877469, -0.0003646864788606763, -0.000854158541187644, 0.004720608238130808, 0.0001728759816614911, 0.0009500019368715584, -0.0016894565196707845, -7.814068521838635e-05, 0.00036305226967670023, -0.005713977850973606, 0.0035680036526173353, -0.0005392626626417041, -3.9017442759359255e-05, -0.0004782459873240441, 0.0005326449172571301], [-0.003824323182925582, 0.00978107564151287, -0.03107965737581253, -0.04870309680700302, -0.004348622169345617, 0.009983597323298454, -0.0164165198802948, -0.5142258405685425, 0.2602693438529968, 0.01167602464556694, 0.5084787607192993, 0.042443931102752686, -0.0005918886163271964, 0.002764480421319604, -0.00852609146386385, 0.01898105815052986], [-0.021819375455379486, 0.008404207415878773, -0.03344003111124039, 0.01500660553574562, -0.030781004577875137, 0.022617798298597336, -0.04073163494467735, -0.15131297707557678, -0.055783357471227646, -0.029344504699110985, 0.1406657099723816, 0.045949362218379974, 0.024631677195429802, -0.005380926188081503, -0.004135102033615112, -0.010768395848572254], [-0.006475808564573526, -0.022121043875813484, -0.01584480330348015, 0.03670657053589821, -0.024347033351659775, 0.022550884634256363, -0.00904818344861269, 0.2070954591035843, -0.15331868827342987, -0.0034265799913555384, -0.19366629421710968, 0.011622496880590916, 0.019570281729102135, -0.0026675823610275984, -0.0063416543416678905, -0.009914767928421497], [0.01875222660601139, 0.03262486681342125, -0.03432956337928772, -0.09287692606449127, -0.00622702669352293, -0.010591896250844002, -0.00040522037306800485, -0.9436518549919128, 0.4910213053226471, -0.01368508767336607, 1.0183442831039429, 0.0034732455387711525, -0.012776292860507965, 0.0009136065491475165, -0.0015348228625953197, 0.022095154970884323], [0.03085361234843731, 0.0013034157454967499, -0.03571850806474686, 0.010478558950126171, 0.05121220275759697, 0.022488290444016457, 0.043919093906879425, -0.1426728516817093, -0.05847100168466568, 0.02784791588783264, 0.1407449096441269, -0.040496859699487686, 0.022890573367476463, -0.00527104502543807, -0.007812988013029099, -0.007245843298733234], [-0.0027535315603017807, -0.04695530980825424, -0.022199809551239014, 0.0659710243344307, 0.0708470493555069, 0.0386992022395134, 0.004939111415296793, 0.32085689902305603, -0.21719685196876526, 0.0108623206615448, -0.34725943207740784, 0.0035700618755072355, 0.028480812907218933, -0.004343143664300442, -0.008223358541727066, -0.018691247329115868], [0.001216604607179761, 0.0009671786683611572, -4.9869719077833e-05, 0.0005497852107509971, 0.0028054360300302505, -0.0002066745510092005, 0.0039035154040902853, -0.003962032962590456, 0.0025257973466068506, 0.003524989588186145, -0.0006812691572122276, 0.00021818006644025445, 0.0002839009393937886, 1.2485390470828861e-05, -0.00020975235383957624, -0.00036398996599018574], [2.993047201016452e-05, -1.3479407243721653e-05, 7.691623068240006e-06, 1.2118294762331061e-05, 8.347792027052492e-05, -3.4033585052384296e-06, 4.925411121803336e-05, 0.0006734757334925234, -0.00011838193313451484, 6.671602932328824e-06, -0.0005512014031410217, -1.0277642104483675e-05, 7.76122760726139e-07, -1.1248802138652536e-06, -2.9404084216366755e-06, -3.6374290175444912e-06], [-0.0004094752366654575, -0.0015856834361329675, -0.00041572743793949485, -0.00030267107649706304, 0.0020678702276200056, 0.00020068894082214683, 0.0015332308830693364, -0.0017596468096598983, -0.0005119272391311824, 0.0003855675458908081, -0.0032218601554632187, 0.0013834371929988265, 2.9485907361959107e-05, -1.5118172086658888e-05, -0.00028869364177808166, 0.00021442487195599824], [0.00039675695006735623, 0.0010215291986241937, 7.582002581330016e-05, 0.001260170596651733, -0.00047478225314989686, 0.00039773061871528625, -0.0010955013567581773, 0.007550369948148727, -0.0034800474531948566, 0.0007774569094181061, -0.008620359003543854, -0.002845130395144224, 0.00043931565596722066, -0.0001724150642985478, -0.0003552769194357097, -0.00090285565238446]], "lstm.bias_ih_l0": [0.5162927508354187, 0.08184079080820084, -0.014040290378034115, 0.018264854326844215, 0.11229090392589569, -0.015318429097533226, 0.29889753460884094, 0.480142205953598, 0.1573069840669632, 0.14390312135219574, 0.487610399723053, 0.49394845962524414, -0.030892839655280113, -0.0018887731712311506, -0.0029715942218899727, -0.0027445086743682623, -0.22524462640285492, 0.12212426960468292, -0.01751159317791462, 0.0175166055560112, -0.470981627702713, -0.020155074074864388, -0.40323400497436523, 0.4024871289730072, 0.24751915037631989, -0.4344521164894104, 0.4313097894191742, -0.13017533719539642, -0.0283616054803133, -0.0017661342862993479, -0.004588347394019365, -0.0038562628906220198, -0.005401485599577427, -0.02846439927816391, -0.043859753757715225, 0.0707995742559433, 0.009417224675416946, 0.032277848571538925, 0.009684048593044281, 0.31595319509506226, -0.10753287374973297, 0.008529424667358398, -0.3253593444824219, -0.0019152972381561995, 0.037531737238168716, -0.014410419389605522, -0.004409445449709892, -0.02470894530415535, 0.5405406355857849, 0.0885353609919548, -0.01729872077703476, 0.01789775863289833, 0.30435967445373535, -0.01583097316324711, 0.252800852060318, 0.7145944833755493, 0.21981477737426758, 0.22179606556892395, 0.7239826917648315, 0.38491448760032654, -0.022776039317250252, -0.001806399435736239, -0.0030756560154259205, -0.0035357840824872255], "lstm.bias_hh_l0": [0.5162927508354187, 0.08184079080820084, -0.014040290378034115, 0.018264854326844215, 0.11229090392589569, -0.015318429097533226, 0.29889753460884094, 0.480142205953598, 0.1573069840669632, 0.14390312135219574, 0.487610399723053, 0.49394845962524414, -0.030892839655280113, -0.0018887731712311506, -0.0029715942218899727, -0.0027445086743682623, -0.22524462640285492, 0.12212426960468292, -0.01751159317791462, 0.0175166055560112, -0.470981627702713, -0.020155074074864388, -0.40323400497436523, 0.4024871289730072, 0.24751915037631989, -0.4344521164894104, 0.4313097894191742, -0.13017533719539642, -0.0283616054803133, -0.0017661342862993479, -0.004588347394019365, -0.0038562628906220198, -0.005185764282941818, -0.02846439927816391, -0.043859753757715225, 0.0707995742559433, 0.009638900868594646, 0.032277848571538925, 0.009684101678431034, 0.31595319509506226, -0.10753287374973297, 0.007970811799168587, -0.3253593444824219, -0.0019142780220136046, 0.037531737238168716, -0.014410419389605522, -0.004409445449709892, -0.02470894530415535, 0.5405406355857849, 0.0885353609919548, -0.01729872077703476, 0.01789775863289833, 0.30435967445373535, -0.01583097316324711, 0.252800852060318, 0.7145944833755493, 0.21981477737426758, 0.22179606556892395, 0.7239826917648315, 0.38491448760032654, -0.022776039317250252, -0.001806399435736239, -0.0030756560154259205, -0.0035357840824872255], "dense.weight": [[-0.8944820761680603, -0.012579195201396942, -0.051718369126319885, -0.0313822478055954, 2.796511173248291, 0.0010244121076539159, -1.5398448705673218, -0.13275673985481262, 0.031626421958208084, 0.37666139006614685, -0.10885484516620636, -0.7171270847320557, 0.010397857055068016, 0.0010176555952057242, -0.03578108176589012, 0.03522898629307747]], "dense.bias": [-0.0016056217718869448]}