{"lstm.weight_ih_l0": [[0.0005163088790141046, 0.0018228248227387667], [0.0003054901317227632, 0.0014343647053465247], [0.008257177658379078, 1.3162720203399658], [0.06625834107398987, 0.23367322981357574], [-0.03582167997956276, 0.1851593255996704], [0.00013912536087445915, 0.0006509290542453527], [-0.11555754393339157, 0.45650166273117065], [9.33425599214388e-06, 4.984379847883247e-05], [0.003659875364974141, 0.018943676725029945], [-3.827935870504007e-05, -4.661697312258184e-05], [4.83344447275158e-05, 0.00014095049118623137], [-6.0817968915216625e-05, -0.000359764089807868], [0.00015468051424250007, 0.0007662255666218698], [-0.01992027275264263, 0.14691251516342163], [0.0010133926989510655, -0.0025732973590493202], [3.577505049179308e-05, 2.4213153665186837e-05], [-0.006313810590654612, 0.2478172779083252], [0.04949721321463585, 0.3608822524547577], [3.527242824929999e-06, 1.90753835340729e-05], [-0.02386837638914585, 0.2658485472202301], [0.00010377004218753427, 0.000492445717100054], [2.0636858607758768e-05, -6.361207488225773e-05], [2.0765877707162872e-05, -0.00022570163127966225], [0.09092634916305542, 0.6414851546287537], [0.0004343016480561346, 0.0011529403273016214], [0.00023235552362166345, 0.0008739160257391632], [-0.01650739088654518, 0.07328775525093079], [0.05924772843718529, -0.1725645661354065], [-0.048346757888793945, 0.16102683544158936], [0.0001407805539201945, 0.0003095861175097525], [-0.054351091384887695, 0.018599409610033035], [1.092645925382385e-05, -2.7948963179369457e-06], [0.0029648670461028814, 0.01263257022947073], [-4.950414222548716e-05, -7.925794488983229e-05], [5.591097942669876e-05, 2.572966150182765e-05], [-5.5640339269302785e-05, -0.0003759066166821867], [0.00015675628674216568, 0.00037444583722390234], [-0.02629535086452961, 0.31227707862854004], [0.0012012881925329566, -0.0028490053955465555], [3.700665547512472e-05, 3.951145117753185e-06], [-0.010244891047477722, -0.2552797198295593], [-0.013782652094960213, 0.10973257571458817], [2.2856595478515374e-06, 6.05302693656995e-06], [-0.044760119169950485, 0.08667328953742981], [0.00010980563092743978, 0.0002058135432889685], [2.3349937691818923e-05, -0.00013273724471218884], [2.1011128410464153e-05, -0.00025550927966833115], [0.1008250042796135, -0.17368082702159882], [-0.0020064148120582104, 0.0031368129421025515], [-0.0019367891363799572, 0.003557337448000908], [-3.6820056438446045, 0.11812666058540344], [-0.14257575571537018, 0.19318892061710358], [0.28372323513031006, -0.9384257793426514], [-0.00323448795825243, -0.0024999596644192934], [1.1113510131835938, -0.4277103841304779], [0.001572756445966661, 0.005502527579665184], [0.005452544894069433, 0.008678517304360867], [-0.0014104503206908703, 0.012356364168226719], [0.0013528413837775588, 0.005024466663599014], [-0.0019122408702969551, 0.00796423852443695], [0.0031938739120960236, 0.002199570182710886], [-0.04686565697193146, 0.3676914572715759], [0.008741302415728569, -0.012039936147630215], [0.0033880409318953753, 0.0028216331265866756], [-0.3814404010772705, -0.07125217467546463], [-0.7694427967071533, 0.5287507176399231], [0.0004895894089713693, 0.0025392568204551935], [-0.12534937262535095, -0.194562166929245], [0.0034624850377440453, 0.003267420455813408], [-0.00010943414963549003, 0.0006953447591513395], [0.0009986271616071463, -0.006717499345541], [3.238809823989868, 0.5702480673789978], [0.0006073488621041179, 0.0018134510610252619], [0.0003716314095072448, 0.0014293635031208396], [0.00047961025848053396, 0.9837145209312439], [0.06015337258577347, 0.23731555044651031], [0.02799426205456257, 0.4290434420108795], [0.00016344610776286572, 0.0006489413208328187], [-0.1462622880935669, 0.4886665344238281], [1.0025254596257582e-05, 4.912107397103682e-05], [0.0044870879501104355, 0.01867545209825039], [-5.5129396059783176e-05, -5.2270748710725456e-05], [5.27923803019803e-05, 0.00013913192378822714], [-5.31753248651512e-05, -0.00037304245051927865], [0.00018318142974749207, 0.0007639309042133391], [-0.07656563073396683, 0.28585493564605713], [0.0010942562948912382, -0.002706367988139391], [3.8487225538119674e-05, 2.4125642084982246e-05], [0.005737007595598698, 0.127069890499115], [-0.022334620356559753, 0.38384684920310974], [4.30123236583313e-06, 1.9014663848793134e-05], [-0.054026007652282715, 0.23711009323596954], [0.00012042901653330773, 0.0004906168323941529], [2.4642857169965282e-05, -7.674534572288394e-05], [2.44239217863651e-05, -0.00023733192938379943], [0.22243532538414001, 0.625702440738678]], "lstm.weight_hh_l0": [[5.85667521590949e-06, 2.8780709726561327e-06, 0.0003952918923459947, 0.0002825348637998104, -0.0019236052175983787, -3.0849573704472277e-06, -0.000193435451365076, 1.0950985597446561e-05, 2.4918288545450196e-05, 1.7760787159204483e-05, 9.348465027869679e-06, 2.001342363655567e-05, 2.021164164034417e-06, 0.0020575260277837515, -5.69470867048949e-05, 8.544612683181185e-06, 0.0005785655812360346, 0.0011183838360011578, 2.2433216599893058e-06, -0.0007068943232297897, 4.117904609302059e-06, 8.468510714010336e-06, -1.8834287402569316e-05, 0.000548677344340831], [6.318216946965549e-06, 7.585107596241869e-06, 0.0003040145675186068, 0.000237270665820688, -0.0015161499613896012, 2.092065642500529e-06, -0.00018283772806171328, 6.90329807184753e-06, 1.3720165952690877e-05, 1.3320215657586232e-05, 4.6504728743457235e-06, 1.4035528693057131e-05, -3.2713044220145093e-06, 0.0016161531675606966, -3.140867192996666e-05, 6.124586889200145e-06, 0.00047249108320102096, 0.0008420132799074054, 1.0262176601827377e-06, -0.0006002093432471156, -7.564465818177268e-07, 6.373385986080393e-06, -1.2681766747846268e-05, 0.0004034354642499238], [0.0015156012959778309, 0.002308646449819207, 0.04516974091529846, 0.09413401037454605, -1.2149311304092407, -0.0006711835158057511, -0.41919031739234924, 0.0031126881949603558, 0.006085563451051712, 0.004693000577390194, 0.002546784933656454, 0.0027348720468580723, 0.0004083274689037353, 0.7173248529434204, -0.006670710165053606, 0.002595250029116869, -0.09528665989637375, 0.5008472204208374, 0.0005159362917765975, -0.11789919435977936, 0.0010417343582957983, -0.0014484983403235674, -0.0018333673942834139, 0.6505360007286072], [0.0029081476386636496, 0.0026243163738399744, -0.006130849942564964, -0.0276443213224411, -0.26516827940940857, 0.001365085830911994, 0.09339724481105804, 0.00046768697211518884, 0.01152358204126358, 0.0014828905696049333, 1.6714815501472913e-05, 0.0009862864390015602, -0.0015996720176190138, 0.038236573338508606, 0.0005392985767684877, 0.0007465823437087238, 0.062009066343307495, -0.09912163019180298, -0.00023917299404274672, -0.08358766883611679, -0.0010629352182149887, -0.00016614155902061611, -0.0006940010352991521, -0.07103293389081955], [-0.0019590286538004875, -0.0020922368858009577, 0.009771181270480156, -0.020879946649074554, -0.013203715905547142, -0.0009649710264056921, 0.024843014776706696, -0.0003863621095661074, -0.006581652909517288, -0.00030967663042247295, 6.762264092685655e-05, -0.0005362511146813631, 0.0011706193909049034, 0.02604573965072632, 0.0006299176020547748, -0.0009891086956486106, -0.019915863871574402, -0.057353321462869644, 0.00020372537255752832, -0.01703394204378128, 0.0007590858149342239, 8.343412628164515e-05, 0.00017089421453420073, -0.03576100617647171], [3.990550794696901e-06, 2.909537442974397e-06, -4.494152017286979e-05, 1.4433590877160896e-05, -0.0006767416489310563, 1.3696898122361745e-06, -0.00020177668193355203, 2.5122380975517444e-06, -1.6833200788823888e-05, 4.617894319380866e-06, 1.592257490301563e-06, 4.758205250254832e-06, -1.7269206864511943e-06, 0.0007680364651605487, -1.0815780115080997e-05, 1.8402396335659432e-06, 0.00010508147533982992, 0.0002938641991931945, -5.549487269718156e-08, -0.00027341124950908124, -7.581644467791193e-07, 4.023088990834367e-07, -3.896735506714322e-06, 0.0002289286785526201], [-0.0015432893997058272, -0.0011942979181185365, 0.0857492983341217, 0.018684500828385353, -0.4234868884086609, -0.0003922768519259989, -0.03131042420864105, 5.1978436204080936e-06, -0.006469600833952427, -0.0006871639634482563, 0.00025887886295095086, -0.0002602838503662497, 0.00046511058462783694, 0.10704512149095535, -0.0030048114713281393, -0.0002759937779046595, 0.025932203978300095, -0.07048683613538742, 2.571842196630314e-05, -0.00858518946915865, 0.000255297840340063, -0.0009096174617297947, 0.00031739857513457537, -0.08975151181221008], [-1.0046708212030353e-06, -1.597106574990903e-06, -4.8924426664598286e-05, -1.3961791410110891e-05, -5.812678500660695e-05, -6.787306574551621e-07, -3.1154817406786606e-05, 4.7132189706644567e-07, -3.0479757242574124e-06, 3.147249003632169e-07, 5.672806082657189e-07, -1.0877363365580095e-07, 7.007596991570608e-07, 4.339627776062116e-05, -1.3817426633977448e-06, 5.039646566729061e-07, -3.389896301086992e-05, -1.3742908777203411e-05, 2.0212489459936478e-07, 9.614684586267686e-07, 6.034253487996466e-07, 1.6700598237662234e-08, -8.860009614863884e-08, 2.8976564863114618e-05], [-0.00027828614111058414, -0.0003279354714322835, 0.0026608742773532867, 0.0009775880025699735, -0.019485648721456528, -0.00032583868596702814, -0.0007535683689638972, 0.00014624772302340716, 0.0008267423836514354, 0.0002043347922153771, 0.00015171778795775026, 0.0001790009846445173, 0.0002822459500748664, 0.015774857252836227, -0.0005435776547528803, 9.714115731185302e-05, 0.003656507935374975, 0.010336662642657757, 5.259065073914826e-05, -0.004918104037642479, 0.0002656784781720489, -9.359882824355736e-06, -0.0001554658665554598, 0.005226686131209135], [-2.6482555313123157e-06, -4.729097895506129e-07, 3.274691698607057e-05, 3.731807737494819e-05, -1.1525206900842022e-05, -2.6299458113498986e-06, -4.721178993349895e-05, 1.0526435971769388e-06, -1.166510810435284e-05, 7.981525982359017e-07, 1.4182764971337747e-06, 1.3526362181437435e-06, 2.6283846636943053e-06, 5.707326272386126e-05, -6.294446393440012e-06, 1.5252237517415779e-06, -2.9771108529530466e-05, 6.745108112227172e-05, -5.477189688463113e-07, -6.488781946245581e-05, 2.5934245968528558e-06, 8.485096003596482e-08, -1.839885271692765e-06, 8.033901394810528e-05], [-3.356567731316318e-06, -5.0233202273375355e-06, -9.357174712931737e-05, -3.002877019753214e-05, -0.00015498202992603183, -1.7860982097772649e-06, -6.237762863747776e-05, 1.049081220116932e-06, -1.3893341019866057e-05, 9.614016107661882e-07, 1.189736735796032e-06, 3.4541162108325807e-07, 1.8931127669929992e-06, 0.00012056892592227086, -5.367387529986445e-06, 8.930485932978627e-07, -5.4672578698955476e-05, 7.825643479009159e-06, 6.702620680698601e-07, -1.0061201464850456e-05, 1.4512806956190616e-06, 5.475121156450768e-07, -6.57020336802816e-07, 5.894702553632669e-05], [7.787471076881047e-06, 6.656973710050806e-06, 9.824486915022135e-05, 4.2623501940397546e-05, 0.00022063447977416217, 1.8761030560199288e-06, 2.4346954887732863e-05, 7.604577945130586e-07, 1.3131538253219333e-05, 1.8255152554047527e-06, -3.567141675375751e-07, 1.312983783918753e-07, -2.082246965073864e-06, -8.334960148204118e-05, 1.8308370499653392e-06, 8.118554433167446e-07, 7.50132676330395e-05, 6.652312004007399e-05, -2.766952320598648e-07, 4.428698048286606e-06, -1.5342628785219858e-06, -3.5722533198168094e-07, 1.1717128955979206e-07, -7.6217702371650375e-06], [3.1744909847475355e-06, 9.954229653885704e-07, -6.238953938009217e-05, 1.217840599565534e-05, -0.0007952335872687399, 9.726329608383821e-07, -0.0002274684520671144, 3.097343551416998e-06, -2.640419734234456e-05, 5.517505087482277e-06, 2.1242385628283955e-06, 5.523269464902114e-06, -1.3688065791939152e-06, 0.0008733947761356831, -1.294733738177456e-05, 2.1547184587689117e-06, 0.00011533554061315954, 0.00033180942409671843, 8.063967271709771e-08, -0.00031720305560156703, -3.332696110192046e-07, 4.479140329749498e-07, -4.817580247618025e-06, 0.0002535600506234914], [-0.002908955328166485, -0.002418810036033392, -0.06785611063241959, 0.011503496207296848, -0.14843390882015228, -0.0014613295206800103, -0.10407540202140808, 0.0002895894576795399, -0.010743453167378902, -0.00033485880703665316, 0.0006541491020470858, 0.0006558414897881448, 0.0015870354836806655, 0.10273443162441254, -0.003484054934233427, 9.629978012526408e-05, -0.022827105596661568, -0.02408556640148163, 0.00025008025113493204, -0.007001318037509918, 0.0012127067893743515, 0.0004476817266549915, -0.0008558878907933831, 0.011949135921895504], [-0.00013849901733919978, -8.973313379101455e-05, 0.00022968783741816878, -0.0008361686486750841, 0.0017844308167696, -2.684321407286916e-05, 0.0008266866207122803, 3.111792102572508e-05, -0.0001268672349397093, 8.633271136204712e-06, 5.9655754739651456e-05, -4.6857198867655825e-06, 2.7735652111005038e-05, -0.001180861727334559, 6.037979574102792e-07, 8.36378603707999e-06, -0.00010482747165951878, 0.0007851881091482937, 1.925272044900339e-05, 0.001286288141272962, 2.4062734155450016e-05, -1.7204867219788866e-07, 1.860360271166428e-06, -0.00013235337974037975], [-1.0028531960415421e-07, -6.049922518513995e-08, 8.172990419552661e-06, 7.568065939267399e-06, -2.4814889911795035e-05, 7.293118553519662e-09, -1.7602064872335177e-06, -8.083668490144191e-08, 2.2225687246191228e-07, -2.6186786072912582e-08, -5.768616162526996e-08, -1.2083059175438393e-07, 3.9187142419905285e-08, 2.109804336214438e-05, 3.4558857464617176e-07, 8.196526835035911e-08, 7.817762707418296e-06, 5.667556706612231e-06, -1.2449595132579816e-08, -4.382962401905388e-07, 1.0273448758368886e-08, -1.4365390654802468e-08, 4.851059287602766e-08, 4.549976893031271e-06], [0.0031335775274783373, 0.0023424532264471054, -0.027949342504143715, -0.06256464123725891, -0.1573709100484848, 0.001817934331484139, 0.15442411601543427, -0.0007502200314775109, 0.006772004533559084, -0.00033765644184313715, -0.0011202783789485693, -0.0007551208254881203, -0.0019284684676676989, -0.07715516537427902, 0.004026676528155804, -0.0005234252312220633, -0.008941220119595528, -0.16309545934200287, -0.0002785914111882448, 0.025670034810900688, -0.0015634642913937569, -0.00041001883801072836, 0.0006028104107826948, -0.17604003846645355], [-0.0028823036700487137, -0.0025879228487610817, -0.07391306757926941, 0.004067568574100733, -0.30468428134918213, -0.0017890743911266327, -0.1226523369550705, 0.0008088242029771209, -0.009410717524588108, 0.0009899752913042903, 0.0010574216721579432, 0.0011630767257884145, 0.0019201224204152822, 0.22446615993976593, -0.0032286937348544598, 0.0003082514158450067, 0.012421606108546257, -0.01615397073328495, 0.00036020934931002557, -0.10580682009458542, 0.0015260244254022837, 0.0005071352352388203, -0.0013369235675781965, 0.06564878672361374], [-2.4732270276217605e-07, -1.3746758042998408e-07, -1.6524179955013096e-05, -1.129944394051563e-06, -1.9447339582256973e-05, -9.215585805577575e-08, -6.861556357762311e-06, -1.5386238771952776e-07, -6.028894290466269e-07, -6.403788432862711e-08, -1.5375489681446197e-07, 3.727130604147533e-08, 1.0314852971760047e-07, 2.2463302229880355e-05, -2.339018010388827e-07, 4.350236082473202e-08, -7.236671990540344e-06, 6.963572104723426e-06, 2.9310203153443126e-09, -9.916765520756599e-06, 6.108820826966621e-08, 7.04780021010265e-08, 1.5565147748475283e-07, 7.232275947899325e-06], [0.0046263327822089195, 0.004615339450538158, 0.027915408834815025, 0.041232723742723465, -0.28690293431282043, 0.002839945489540696, -0.04883843660354614, 8.917560626287013e-05, 0.010614692233502865, 0.0008213649853132665, -0.0006017435225658119, 0.0006040917942300439, -0.0031637740321457386, 0.10499881207942963, 0.0003867290506605059, 0.0005621915915980935, 0.02546732686460018, 0.02586163580417633, -0.000707302475348115, -0.03435647487640381, -0.0023078962694853544, -0.0005907409358769655, -0.0002451088512316346, 0.00044128423905931413], [2.588875531728263e-06, 1.2073476227669744e-06, -7.441065099555999e-05, 3.7183908716542646e-06, -0.0005117321852594614, 1.0214909025307861e-06, -0.00016845138452481478, 1.8581168887976673e-06, -1.247666386916535e-05, 3.283599653514102e-06, 1.2355607168501592e-06, 3.3026321943907533e-06, -1.281696086152806e-06, 0.0005771464202553034, -7.770448064547963e-06, 1.108993160414684e-06, 4.7997011279221624e-05, 0.00019104474631603807, -4.043443198042951e-07, -0.0001901632931549102, -5.73140823689755e-07, 3.4796443060258753e-07, -2.695550847420236e-06, 0.00017613264208193868], [-3.327393642393872e-06, -2.440520802338142e-06, -3.036303041881183e-06, -1.2627942851395346e-05, 6.738657248206437e-06, -2.403537848749693e-07, 1.674256600381341e-05, 6.6676471988103e-07, 4.893698246632994e-07, 5.821721629217791e-07, 1.1140938340759021e-06, 1.3461715298035415e-07, 1.8727264716744685e-07, -7.419731900881743e-06, -5.374052989282063e-07, 4.138464930747432e-07, 7.1110480348579586e-06, 2.0269955712137744e-05, 4.934348680762923e-07, 2.433688905512099e-06, 2.6075272785419656e-07, 2.661564124650795e-08, -1.7584704892215086e-07, 5.168118377696373e-07], [-5.450471689982805e-06, -3.238217459511361e-06, 1.5405918020405807e-05, -2.2976882974035107e-05, 0.0001160048705060035, -1.8458230215401272e-06, 2.830953599186614e-05, 1.3586293334810762e-06, -8.365945177501999e-06, 1.1273232303210534e-06, 1.584646497576614e-06, 9.667083844533408e-08, 1.8376994148638914e-06, -5.1066672313027084e-05, 2.1284288109768568e-08, 1.1931733752135187e-06, -7.372838808805682e-06, 4.973738396074623e-05, 1.1622231568253483e-06, 3.450531585258432e-05, 1.6448228734589065e-06, -4.6076095827629615e-08, -1.6528633750567678e-07, 7.389848178718239e-06], [-0.0016130439471453428, -0.0014134476659819484, -0.1676560342311859, -0.04703164100646973, -0.5980756878852844, -0.0014997409889474511, -0.02116522192955017, 0.0011584797175601125, -0.005582321435213089, 0.0015199478948488832, 0.0012394986115396023, 0.0016945727402344346, 0.0015435926616191864, 0.377703458070755, -0.003926025703549385, 0.0009319957462139428, -0.07171711325645447, 0.03099256008863449, 0.00039383952389471233, -0.07287757843732834, 0.0013817154103890061, 0.0003007490886375308, -0.0018334934720769525, 0.08414150029420853], [3.0004891868884442e-06, 2.0437950354335044e-07, 0.0010683347936719656, 0.00039684114744886756, -0.0012102484470233321, -1.6427874243163387e-06, 6.847989197922288e-07, 6.263820523599861e-06, 3.466234193183482e-05, 1.1137044566567056e-05, 5.613213488686597e-06, 1.710793912934605e-05, 4.52368368542011e-07, 0.0016735829412937164, -4.111509770154953e-05, 4.200309376756195e-06, 0.0007827491499483585, 0.0013177942018955946, 2.10921953680554e-07, -0.0006288685835897923, 2.005798705795314e-06, 8.622294444649015e-06, -1.385201085213339e-05, 0.00023098844394553453], [4.232251285429811e-06, 5.783449068985647e-06, 0.0008615538245067, 0.0003292752953711897, -0.00092163315275684, 3.524890189510188e-06, -1.8064478354062885e-05, 3.2893797197175445e-06, 3.206644032616168e-05, 7.844933861633763e-06, 1.6402168512286153e-06, 1.199110829475103e-05, -4.773692126036622e-06, 0.0013095018221065402, -2.3171654902398586e-05, 2.766550778687815e-06, 0.0006619281484745443, 0.0010218853130936623, -4.939327027386753e-07, -0.0005059718969278038, -2.681034175111563e-06, 5.91048774367664e-06, -8.49940533953486e-06, 0.00015832087956368923], [0.0013143665855750442, 0.0008798763738013804, 0.07773280143737793, 0.05948307737708092, 0.011835193261504173, -0.0011855942429974675, -0.2312585860490799, 0.001329739228822291, 0.007428476586937904, 0.0028389450162649155, 0.001051420345902443, -0.001247883657924831, 0.001237642951309681, 0.1437629610300064, 0.005509397946298122, 0.0008397207129746675, -0.007635173853486776, 0.2215435653924942, 0.0005553092923946679, -0.026076775044202805, 0.0014999958220869303, 0.0008769995183683932, 0.0007552156457677484, 0.2262512892484665], [0.003324073040857911, 0.0026607061736285686, 0.1347712278366089, 0.004130940418690443, 0.12047667056322098, 0.0020738160237669945, 0.11049052327871323, -0.000306439062114805, 0.012707177549600601, 0.0005935198860242963, -0.0007559061632491648, 0.0010192444315180182, -0.002276146784424782, 0.029907140880823135, 0.001075964537449181, -0.0002481607662048191, 0.09247373789548874, 0.07990483939647675, -0.0004050979623571038, -0.054060857743024826, -0.0018484629690647125, 0.0004941714578308165, -0.0005968394689261913, 0.006727735511958599], [-0.0030334864277392626, -0.0032899153884500265, -0.0030938812997192144, -0.029506154358386993, 0.06732144206762314, -0.0013324558967724442, -0.027352215722203255, -0.0007543329265899956, -0.012025684118270874, -0.0009751392062753439, -4.344677290646359e-05, -0.0008585677132941782, 0.0016507627442479134, 0.17018459737300873, 0.001205342123284936, -0.0017505298601463437, -0.0817871168255806, -0.025016048923134804, 0.00030229147523641586, -0.029606491327285767, 0.001012973953038454, 5.085691373096779e-05, 0.0003313602937851101, 0.0344134196639061], [5.972175131319091e-06, 5.341327323549194e-06, 0.00028471308178268373, 7.648381870239973e-05, -0.00032755572465248406, 2.971385129058035e-06, -7.648420432815328e-05, 9.509241181149264e-07, 1.8452674339641817e-05, 2.523991042835405e-06, 1.2745161370730784e-07, 3.0014793992449995e-06, -3.40644169227744e-06, 0.0005380556685850024, -6.256527285586344e-06, 5.916686518503411e-07, 0.00024755089543759823, 0.00042282466893084347, -1.1551110219443217e-06, -0.00021914216631557792, -2.2128817818156676e-06, 4.870921657129657e-07, -1.9073995645157993e-06, 0.00010648661555023864], [-0.00025574525352567434, 0.0003075245476793498, 0.2551898658275604, 0.039649598300457, -0.029010877013206482, 0.0005089897313155234, -0.15365862846374512, -0.001423303852789104, -0.004387302789837122, -0.004232806619256735, -0.001219472847878933, -0.0010221351403743029, -0.0004118566866964102, 0.21313847601413727, -0.004415537696331739, -0.0005157352425158024, 0.04037300869822502, 0.30781280994415283, -0.00035037181805819273, 0.10619193315505981, -0.0006091978866606951, -0.0016325932228937745, 0.0008395914337597787, 0.20482170581817627], [-7.017937946329766e-07, -1.2200531500639045e-06, -2.029451025009621e-05, -6.305223905656021e-06, -7.347703103732783e-06, -4.902677233076247e-07, -1.8775286662275903e-05, 3.8699513993378787e-07, -1.9616936697275378e-06, 2.391344366969861e-07, 4.877036303696514e-07, 1.063775485476981e-07, 4.892016818303091e-07, 1.3233936442702543e-05, -1.495251353844651e-06, 4.7340938635898056e-07, -2.039068021986168e-05, 3.2153927804756677e-06, 2.0660361599311727e-07, 7.07786330167437e-06, 4.7468481056966993e-07, -1.2560430029395775e-08, -1.383335046512002e-07, 2.6191684810328297e-05], [-0.00020000380754936486, -0.00020661548478528857, 0.00604391610249877, 0.0022585627157241106, -0.013258623890578747, -0.00023865218099672347, 0.00022366932535078377, 0.00010581788956187665, 0.0008972149225883186, 0.00014724372886121273, 0.0001174032295239158, 0.0001368961384287104, 0.00020746325026266277, 0.013049551285803318, -0.0004357539291959256, 5.9757418057415634e-05, 0.004295874387025833, 0.010884178802371025, 3.0774721381021664e-05, -0.004718232434242964, 0.00019486004021018744, -1.0736593139881734e-05, -0.00010567821300355718, 0.002289731055498123], [-3.7166364563745447e-06, -2.0089210011065006e-06, 3.298482988611795e-05, 3.2278916478389874e-05, 1.3002974810660817e-05, -3.013689820363652e-06, -5.425910057965666e-05, 9.587474778527394e-07, -1.3257593309390359e-05, 7.095723049133085e-07, 1.3334793038666248e-06, 1.6189079588002642e-06, 3.0723956570000155e-06, 4.617483864421956e-05, -7.7527683970402e-06, 1.433469378753216e-06, -2.7874824809259735e-05, 6.983434286667034e-05, -3.2812928907333117e-07, -6.525274511659518e-05, 2.7321668767399387e-06, 3.918158597571164e-07, -2.233637587778503e-06, 0.00010558099893387407], [-2.3053635231917724e-06, -3.5131376989738783e-06, -1.1780493878177367e-05, -9.019349818117917e-06, -4.2836443753913045e-05, -1.2196952638987568e-06, -2.7760432203649543e-05, 7.672745709896844e-07, -9.363982826471329e-06, 7.010605713730911e-07, 9.284160000788688e-07, 4.2609312345121e-07, 1.2641471585084219e-06, 5.6110191508196294e-05, -3.978701442974852e-06, 7.077896384544147e-07, -1.5833027646294795e-05, 4.7168126911856234e-05, 5.794366870759404e-07, 2.8321117042651167e-06, 1.076040462066885e-06, 4.3222220824645774e-07, -4.477616641906934e-07, 3.5307697544340044e-05], [7.509454007958993e-06, 6.413024493667763e-06, 7.862626807764173e-05, 4.5398064685286954e-05, 0.0002364866522839293, 1.684107360233611e-06, 1.493701620347565e-05, 8.632508752270951e-07, 1.1996206922049168e-05, 1.66025415637705e-06, -7.499530596533077e-08, 1.0808955863694791e-07, -1.8783721316140145e-06, -9.248407150153071e-05, 1.8277766002938733e-06, 8.305182177537063e-07, 6.50989604764618e-05, 5.7779903727350757e-05, -2.3231427803693805e-07, 4.706269464804791e-06, -1.374546513943642e-06, -3.4155181083406205e-07, 1.2226075796206715e-07, -6.145992756501073e-06], [5.946736109763151e-06, 4.653672931453912e-06, 0.000309935916448012, 8.06362513685599e-05, -0.0003969586396124214, 2.762800249911379e-06, -8.565215102862567e-05, 1.3138741223883699e-06, 1.0239440598525107e-05, 3.133216978312703e-06, 4.3900186597056745e-07, 3.3917617656697985e-06, -3.1450308597413823e-06, 0.0006147964159026742, -7.944708158902358e-06, 7.691015184718708e-07, 0.0002801964001264423, 0.0004782211617566645, -1.1120251883767196e-06, -0.0002543312148191035, -1.9500835151120555e-06, 5.880670528313203e-07, -2.4903933990572114e-06, 0.00011403457028791308], [-0.006734281778335571, -0.005498920101672411, -0.12011843919754028, 0.025089740753173828, -0.33851489424705505, -0.00336073013022542, -0.200306236743927, 0.0008708895184099674, -0.025063112378120422, -2.022557964664884e-05, 0.001722576329484582, 0.001913591055199504, 0.0036404572892934084, 0.23038573563098907, -0.008814114145934582, 0.00010479678167030215, -0.06013455241918564, -0.027470653876662254, 0.0005282643251121044, -0.017012014985084534, 0.0027958890423178673, 0.0011551170609891415, -0.0023270584642887115, 0.031967438757419586], [-0.00012753249029628932, -7.771793025312945e-05, -0.001287174178287387, -0.001219817902892828, 0.0019937350880354643, -2.4181061235140078e-05, 0.00021250394638627768, 3.300224125268869e-05, -0.00010228004248347133, 1.0187819498241879e-05, 6.431230576708913e-05, -4.763608558278065e-06, 2.5016470317495987e-05, -0.0014644243055954576, 3.741815135072102e-06, 1.0794021363835782e-05, -0.0006283551920205355, 4.3738855310948566e-05, 1.8935003026854247e-05, 0.0011573360534384847, 2.235141619166825e-05, -1.7185383285323041e-06, 1.972632162505761e-06, 0.00018562018522061408], [-1.3815899535529752e-07, -1.452532814028018e-07, 5.132209025759948e-06, 5.87738941248972e-06, -3.884090801875573e-06, -4.7099288913443615e-09, -5.64525635127211e-06, -1.1730309523727556e-07, 4.6666957587149227e-07, -1.1532338106690077e-07, -7.945678248688637e-08, -1.1221057860666406e-07, 4.660903840658648e-08, 1.08567692223005e-05, 3.1661897992307786e-07, 3.3464175430708565e-08, 1.8981140783580486e-06, 5.248698926152429e-06, -7.30879223809211e-09, 1.26804877709219e-06, 6.675354491392227e-09, 1.3050867053721049e-08, -7.578366023608396e-08, 1.0563639989413787e-05], [0.006236471701413393, 0.004912675824016333, 0.013731691054999828, -0.03369821235537529, 0.2863696217536926, 0.004026129841804504, 0.09411445260047913, -0.001786289969459176, 0.013387957587838173, -0.0014388354029506445, -0.0025155218318104744, -0.0011997721157968044, -0.004125033505260944, -0.005519592668861151, 0.006703807041049004, -0.0015633499715477228, 0.010315519757568836, 0.008210689760744572, -0.0007897238247096539, 0.065697580575943, -0.00354185001924634, -0.0004608572053257376, 0.001328353537246585, -0.008329705335199833], [-0.010599429719150066, -0.009539494290947914, -0.11726094782352448, -0.031932082027196884, -0.07479579746723175, -0.0058155423030257225, -0.16251030564308167, 0.0006704049301333725, -0.03360028937458992, -0.000499510730151087, 0.001848364481702447, -0.0007866405067034066, 0.006336860358715057, 0.08099564164876938, -0.00354831013828516, -9.09867012524046e-05, -0.14118365943431854, -0.07106202095746994, 0.0011470690369606018, -0.04375505447387695, 0.0046818312257528305, 0.00047469360288232565, -0.00015405761951114982, -0.023948198184370995], [5.944445646832719e-08, 1.889189249482115e-08, -2.597737875476014e-06, 1.9293270270281937e-06, -7.282717888301704e-06, 5.013023596234234e-08, -2.813383161992533e-06, -1.588181817169243e-07, 5.540995289265993e-07, -9.304604020599072e-08, -1.7637756855037878e-07, 3.32100107414135e-08, -6.581764466773166e-08, 1.4993051991041284e-05, -4.0471249462825654e-08, 7.218210029691363e-09, 5.128736120241228e-07, 1.2113675438740756e-05, -9.187973049051834e-09, -8.249229722423479e-06, -9.064417838544614e-08, 6.07613017677977e-08, 1.2620215272818314e-07, 4.082766736246413e-06], [0.005328919738531113, 0.005254857707768679, 0.010023063980042934, 0.0852036103606224, -0.15310503542423248, 0.003594629932194948, -0.13715051114559174, -0.0005568753695115447, 0.012215865775942802, 0.0002461718104314059, -0.0013307285262271762, -0.00034227088326588273, -0.003948388155549765, 0.03387007489800453, 0.003321501426398754, 0.00046888741781003773, 0.038090188056230545, 0.01333460584282875, -0.0009129759855568409, -0.06968210637569427, -0.0030463077127933502, -0.0006480298470705748, 0.000715876929461956, 0.044829048216342926], [4.804042418982135e-06, 3.92761648981832e-06, 0.0001883155055111274, 5.6696964747970924e-05, -0.00022129624267108738, 2.3889963358669775e-06, -6.588358519366011e-05, 7.093685781001113e-07, 1.4974251826060936e-05, 1.7995071175391786e-06, 1.4462467845532956e-07, 2.061397481156746e-06, -2.712838977458887e-06, 0.0003795947995968163, -4.266009000275517e-06, 2.9885165986343054e-07, 0.00016325482283718884, 0.0002973769442178309, -1.0373880741099128e-06, -0.00015063330647535622, -1.729429072838684e-06, 3.2547248451919586e-07, -1.2350496945146006e-06, 8.446185529464856e-05], [-3.429288881307002e-06, -2.4462310648232233e-06, -3.550477049429901e-05, -2.2621185053139925e-05, 5.879407763131894e-05, -5.357054533305927e-07, 7.690485290368088e-06, 7.191443955889554e-07, -1.4995252968219575e-06, 5.556468067879905e-07, 1.206657657348842e-06, 2.2107233377255397e-08, 5.192687808630581e-07, -3.7998561310814694e-05, -4.1852950971588143e-07, 4.040340684241528e-07, -1.31238775793463e-05, -5.19323521075421e-06, 4.872745194006711e-07, 1.108719425246818e-05, 5.043173132435186e-07, 7.087424336305048e-08, -9.848162818570927e-08, 5.601289672085841e-07], [-6.090617716836277e-06, -3.485617753540282e-06, -3.409092823858373e-05, -3.0397783120861277e-05, 0.0001467050169594586, -1.9452450032986235e-06, 1.1485934919619467e-05, 1.478799731557956e-06, -8.602622983744368e-06, 1.1689601251418935e-06, 1.785092308637104e-06, 6.204390246011826e-08, 1.9272852114227135e-06, -7.303433812921867e-05, 2.0899713604194403e-07, 1.285810071749438e-06, -2.3786969904904254e-05, 2.5197236027452163e-05, 1.2063773056070204e-06, 3.6289802665123716e-05, 1.7380477856931975e-06, -7.571153304297695e-08, -1.3958860733964684e-07, 1.305547630181536e-05], [-0.0009126935619860888, -0.0010442344937473536, -0.19808778166770935, -0.07060511410236359, 0.15803880989551544, -0.0003625652752816677, 0.07224491983652115, -0.00041449314448982477, -0.003663415787741542, -0.0008769991109147668, -0.00034584177774377167, -0.00020615154062397778, 0.0004144548438489437, 0.18992727994918823, 0.0002919406397268176, -0.0004114591283723712, -0.05945512279868126, 0.1873931884765625, 4.072977026225999e-05, 0.05619519576430321, 0.0002095021482091397, 0.000439861963968724, -1.211563176184427e-05, 0.20780745148658752], [0.0008292322163470089, 0.0008063772111199796, 0.015287983231246471, 0.009339120239019394, 0.0051353746093809605, 0.0005055845831520855, 0.0195096917450428, -4.635607547243126e-05, 0.004231560043990612, 0.00010964422108372673, -0.00016048828547354788, -6.503168151539285e-06, -0.0005654312553815544, -0.001498083001933992, 0.0005084133590571582, 2.389178189332597e-05, 0.033543698489665985, 0.019976932555437088, -9.924875485012308e-05, -0.013618885539472103, -0.00041763592162169516, -9.837962716119364e-05, 8.903886919142678e-05, -0.01364979986101389], [0.0006635080208070576, 0.00063357810722664, 0.012168582528829575, 0.008012746460735798, 0.00192937848623842, 0.00040000121225602925, 0.016314562410116196, -3.26277113344986e-05, 0.003489993279799819, 0.00010109184222528711, -0.00012391839118208736, -2.49584581979434e-06, -0.0004470591666176915, -0.0021413625217974186, 0.00037477014120668173, 1.604268436494749e-05, 0.029015466570854187, 0.017276424914598465, -7.513451419072226e-05, -0.012078221887350082, -0.00033115383121185005, -7.398493471555412e-05, 6.846161704743281e-05, -0.012239167466759682], [0.01005014032125473, 0.008688624016940594, 0.7258227467536926, -0.14559338986873627, 0.2944125235080719, 0.004544524010270834, -0.8883729577064514, 0.002646844135597348, 0.029555676504969597, 0.0046655056066811085, 0.001066570053808391, 0.0009607626707293093, -0.004760861396789551, 0.15644599497318268, 0.0025719429831951857, -0.0006277408101595938, -0.8287881016731262, 0.8027044534683228, -0.00020045976270921528, -0.276919424533844, -0.0036174538545310497, -0.008038276806473732, -8.412944589508697e-05, -2.269737720489502], [-0.021197689697146416, -0.019765282049775124, 0.41449639201164246, -0.3166565001010895, 0.07990829646587372, -0.01708415523171425, -0.9418095946311951, 0.011966785416007042, -0.06030132994055748, 0.0221945121884346, 0.013825390487909317, 0.013843015767633915, 0.018391288816928864, 0.04908372089266777, -0.02231409028172493, 0.004616620484739542, -0.04104515165090561, 0.18309074640274048, 0.003785161068663001, -0.3947451114654541, 0.016272567212581635, 0.0034287506714463234, -0.012800843454897404, -0.9708338975906372], [0.0037571557331830263, 0.0036281999200582504, -0.20233339071273804, -0.0523325651884079, 0.02264196053147316, 0.0021286439150571823, 0.027738861739635468, -0.00024690519785508513, 0.016720829531550407, -0.0006133988499641418, -0.000961232406552881, -0.0002418687945464626, -0.002356752520427108, -0.1758580207824707, 0.0008366042748093605, 0.0015667943516746163, 0.2216566503047943, 0.051015302538871765, -0.000719978881534189, 0.05811131000518799, -0.0018011318752542138, 0.00036091223591938615, 0.0004731668159365654, -0.14495278894901276], [0.0004042419604957104, 0.00037890797830186784, 0.008999519050121307, 0.00723700737580657, 0.004345281515270472, 0.0002076202945318073, 0.008719263598322868, -1.4599081623600796e-06, 0.002075784606859088, 0.00010856242442969233, -4.702519436250441e-05, 8.623177336630761e-07, -0.00023380327911581844, 0.001735163968987763, 0.00015859000268392265, 1.742208405630663e-05, 0.017322978004813194, 0.009472820907831192, -3.674656545626931e-05, -0.009695682674646378, -0.0001644889562157914, -2.5501891286694445e-05, 3.100552567047998e-05, -0.011987165547907352], [0.003989298827946186, 0.00344373332336545, 0.3412870764732361, 0.09084624797105789, 0.44435107707977295, 0.0027471003122627735, -0.05989747866988182, -0.001447703572921455, 0.021324507892131805, -0.010177800431847572, -0.002473841654136777, -0.013608003966510296, -0.0031868864316493273, 0.21552018821239471, 0.031263094395399094, -0.00028250744799152017, -0.6666392683982849, 0.3856221139431, -0.0001700663415249437, -0.04201169312000275, -0.0025535968597978354, -0.010793336667120457, 0.011044501326978207, -1.4637936353683472], [-3.831444701063447e-05, -6.380947161233053e-05, -0.0011174259707331657, -0.0037437444552779198, -0.004884946625679731, -1.338135280093411e-05, 0.0004925591638311744, -1.8288379578734748e-05, -4.259410343365744e-05, -5.687174780177884e-05, -2.5201734388247132e-05, -1.1676888789224904e-05, 1.475454519095365e-05, -0.00167757214512676, 5.664398486260325e-05, -1.0781686796690337e-05, -0.003517728066071868, -0.0017581068677827716, 1.4426469533646014e-05, 0.0022160070948302746, 3.27366706187604e-06, -2.7624249923974276e-05, 1.2471182344597764e-05, 0.007743691094219685], [0.00448218360543251, 0.004174395464360714, 0.0547342486679554, 0.018037527799606323, -0.004602811299264431, 0.002373463474214077, 0.07362908869981766, -0.0001362496113870293, 0.011357669718563557, 0.0004506852419581264, -0.0005604477482847869, 6.349926115944982e-05, -0.0025706496089696884, -0.005215402226895094, 0.0028036024887114763, 0.00016065633099060506, 0.12103968858718872, 0.05334312468767166, -0.0004147712606936693, -0.034231748431921005, -0.00189695181325078, -0.000250304932706058, 0.00021970445232000202, -0.04170142859220505], [0.0001320925512118265, 1.639422043808736e-05, 0.004445958882570267, -0.00016924265946727246, -0.0026241254527121782, 0.00010789390216814354, 0.001955933403223753, -9.433848026674241e-05, 0.0008643870824016631, -0.0001968738652067259, -0.00013853258860763162, -7.773368997732177e-05, -0.00011665123020065948, -0.005305327009409666, 0.0004504104144871235, -6.0475107602542266e-05, -0.006162251811474562, 0.0014747788663953543, 2.951984242827166e-05, -0.004719106014817953, -0.00011390385043341666, -0.00012767189764417708, 9.621112985769287e-05, 0.010973394848406315], [-0.0002335826720809564, -0.00023902214888948947, -0.0029997362289577723, -0.004224367905408144, -0.004385803826153278, -0.00011070306209148839, -0.002619244623929262, -1.4811498658673372e-05, -0.0007442478672601283, -8.414779586018994e-05, -8.219673759413126e-07, -1.692499608907383e-05, 0.00012197933392599225, -0.0016469483962282538, -3.17932317557279e-05, -2.106452484440524e-05, -0.008412993513047695, -0.004091911483556032, 3.156652383040637e-05, 0.0034410010557621717, 7.893614383647218e-05, -8.590488505433314e-06, 1.625481331757328e-06, 0.0091385617852211], [-0.00012128973321523517, -7.963832467794418e-05, -2.20276433537947e-05, 0.0018314915942028165, 0.0009707597782835364, 3.52529386873357e-05, 0.0001057390181813389, -4.099883517483249e-05, 0.00045786122791469097, -9.402471914654598e-05, -3.7953090213704854e-05, -0.0003828928747680038, -5.148674608790316e-05, 0.006456333212554455, 0.001142058870755136, -3.13485725200735e-05, -0.004241619259119034, -0.0017036566277965903, 1.1060792530770414e-05, -0.0033268413972109556, -3.1725656299386173e-05, -0.0005836895434185863, 0.0004687338077928871, 0.002880409825593233], [-0.0004650279297493398, -0.00043834547977894545, -0.009821047075092793, -0.007576260715723038, -0.00369464629329741, -0.00023460228112526238, -0.009834034368395805, 2.150063210137887e-06, -0.0023069512099027634, -0.00012264971155673265, 5.3877945902058855e-05, -3.030491825484205e-06, 0.0002629193477332592, -0.001532680238597095, -0.00016170607705134898, -2.082292667182628e-05, -0.01901416666805744, -0.00987250730395317, 4.4034663005732e-05, 0.01023715641349554, 0.00018505525076761842, 2.4994629711727612e-05, -3.114545324933715e-05, 0.012909428216516972], [-0.005022915080189705, -0.004279470071196556, -0.023368705064058304, 0.10669520497322083, -0.10759452730417252, -0.002118760719895363, -0.17780548334121704, 0.000495756627060473, -0.023665092885494232, 0.0015706471167504787, 0.0013713320950046182, 0.004402992315590382, 0.0024922320153564215, 0.4424199163913727, -0.014089277945458889, -0.001333681051619351, -0.0025739609263837337, 0.265081524848938, 0.0004378487356007099, 0.05767234414815903, 0.0017132534412667155, 0.002608083887025714, -0.004217733629047871, 0.2050980031490326], [0.0017678897129371762, 0.0013401202159002423, 0.014596337452530861, -0.0038821734488010406, 0.002549967495724559, 0.0005929241306148469, 0.013821611180901527, -5.264236096991226e-05, 0.0024825497530400753, 0.00022471373085863888, -0.0002530506462790072, 0.0008133459486998618, -0.0005985483294352889, -0.01538300421088934, -0.0024870634078979492, 7.694835221627727e-05, 0.024853181093931198, 0.003739713691174984, -0.00015173434803728014, 0.0024076991248875856, -0.0005043595447205007, 0.00046361912973225117, -0.0007443056092597544, -0.0032803427893668413], [0.00016805643099360168, 0.00014555687084794044, -0.0014308302197605371, -0.0030696799512952566, -0.00827326625585556, 9.143150964519009e-05, 0.0024760460946708918, -1.1024178093066439e-05, 0.0006934574339538813, -6.777670023438986e-06, -3.196956458850764e-05, 1.804207386157941e-05, -0.00010177738295169547, -0.003222193568944931, 3.762154301512055e-05, 3.086424612774863e-06, 0.0036029282491654158, -1.5500159861403517e-05, -1.629971848160494e-05, 0.003206453286111355, -7.657251990167424e-05, -1.8166223526350223e-05, -2.915013055826421e-06, 0.0042883045971393585], [-0.020261291414499283, -0.016698548570275307, 1.3857649564743042, 0.43590793013572693, -0.11440136283636093, -0.005980100482702255, -0.059699732810258865, -0.002182015683501959, -0.06223706156015396, -0.005732886027544737, 0.0006441274308599532, 0.0031562268268316984, 0.006590170785784721, 0.03009156882762909, -0.020190145820379257, -0.003995223436504602, -0.217962384223938, 0.04998183622956276, 0.0008446730789728463, 0.016925178468227386, 0.0035306760109961033, 0.005855805706232786, -0.003763279877603054, -0.6660501956939697], [-0.013515444472432137, -0.01095560472458601, 0.3860858976840973, 0.13546375930309296, -0.36057716608047485, -0.003584905294701457, -0.31300273537635803, -0.0031848065555095673, -0.03775550052523613, -0.01863454468548298, -0.0016244155121967196, -0.007156189065426588, 0.00361259700730443, -0.03881325572729111, -0.0029758280143141747, -0.0019107883563265204, -0.707318127155304, 0.4895647168159485, 0.0006378761609084904, 0.013252471573650837, 0.0019890759140253067, -0.006847680546343327, 0.005395573563873768, -0.6773524284362793], [-5.3849274991080165e-05, -5.00709684274625e-05, -0.001254543662071228, -0.0015186702366918325, -7.419379835482687e-05, -2.3843949747970328e-05, -0.0016235378570854664, -5.364694516174495e-06, -0.0003248467401135713, -2.601095548016019e-05, 5.362616093407269e-07, -3.5772391129285097e-06, 2.910428520408459e-05, -0.0010672217467799783, -4.444719888851978e-05, -3.831839421764016e-06, -0.0026745919603854418, -0.0014881838578730822, 8.093007863863022e-07, 0.002066220622509718, 2.005570422625169e-05, 3.4840866192098474e-06, -3.368902071088087e-06, 0.0025998030323535204], [-0.02285679429769516, -0.019721535965800285, -0.7260263562202454, 0.21375499665737152, -0.025944549590349197, -0.006808933801949024, 0.2162148803472519, -0.0019163725664839149, -0.08592567592859268, -0.0024038648698478937, 0.0017189588397741318, -0.005415814928710461, 0.007587180007249117, 0.05242922902107239, -0.007559565361589193, -0.0072544040158391, 0.10180571675300598, 0.48369839787483215, 0.0005766645190306008, 0.19909313321113586, 0.003923880401998758, -0.00029729632660746574, 0.00366936344653368, -0.5295823812484741], [-0.00031929940450936556, -0.0003020634758286178, -0.007667463272809982, -0.006829944904893637, -0.003977567423135042, -0.0001601830153958872, -0.006808217614889145, -3.623611974035157e-06, -0.0016565157566219568, -0.0001001151031232439, 3.0229444746510126e-05, -1.5676540670028771e-06, 0.0001807232911232859, -0.001879062969237566, -0.00012643777881748974, -1.74181186594069e-05, -0.014041366055607796, -0.007661332841962576, 2.9502138204406947e-05, 0.008840654045343399, 0.00012473536480683833, 1.7087319065467454e-05, -2.3956672521308064e-05, 0.011657287366688251], [-0.0001325476769125089, -0.00012078081635991111, -0.001398253021761775, 0.0028806410264223814, 0.0004499663191381842, 5.500150564330397e-06, -0.0033655185252428055, -4.3025804188800976e-05, -0.00023525318829342723, -9.674627654021606e-05, -3.3562278986210003e-05, -9.290505113312975e-05, -3.2621564969304018e-06, 0.003117012558504939, 0.00026294533745385706, -3.873293462675065e-05, -0.006310050375759602, -0.0050346688367426395, 1.0724864978328696e-06, -0.001165691646747291, -1.4282498341344763e-05, -0.00017496578220743686, 0.00012343785783741623, 0.00038339104503393173], [0.00023758690804243088, 0.00022003924823366106, 0.0016476300079375505, -0.000731501670088619, -0.0012899901485070586, 4.330775118432939e-05, 0.001931951381266117, 2.4902134100557305e-05, 0.00016095394676085562, 7.818741869414225e-05, 8.777949915383942e-06, 0.0002183629694627598, -4.116680065635592e-05, -0.005578784272074699, -0.0006625737878493965, 3.39131111104507e-05, 0.005533838178962469, 0.00241306284442544, -2.992982990690507e-05, 0.0015631400747224689, -2.9916242056060582e-05, 0.0002614433760754764, -0.00027967820642516017, -0.0039040909614413977], [0.03173782676458359, 0.0283791646361351, -0.1327507644891739, 0.94573575258255, -0.20931455492973328, 0.019056033343076706, 0.1085735410451889, -0.005081693176180124, 0.08757966011762619, -0.0036802359391003847, -0.00877542793750763, 0.0034875653218477964, -0.020256461575627327, -0.07857140898704529, -0.013426609337329865, -0.002002675086259842, -0.13712744414806366, 0.38386663794517517, -0.003027403960004449, 0.3348022699356079, -0.016611095517873764, -0.004736260510981083, -0.00010479250340722501, 0.08401753008365631], [1.519421402917942e-05, 1.0292270417266991e-05, 0.00025724107399582863, 0.0002185805788030848, -0.0019085279200226068, 5.18538229243859e-07, -0.00036873400676995516, 1.1336554962326773e-05, 5.179426443646662e-05, 1.956307460204698e-05, 8.50718242872972e-06, 1.9887353118974715e-05, -1.8327607449464267e-06, 0.0020548005122691393, -5.5669799621682614e-05, 9.71390909398906e-06, 0.0006234869943000376, 0.0010881563648581505, 2.389052042417461e-06, -0.0007429554243572056, 1.4702358157592244e-06, 7.739540706097614e-06, -1.897434594866354e-05, 0.0007132960017770529], [1.3471720194502268e-05, 1.3451604900183156e-05, 0.000178576898179017, 0.0001872197462944314, -0.0015056562842801213, 4.9716554713086225e-06, -0.00031931017292663455, 7.210030616988661e-06, 2.7881411369889975e-05, 1.4797617041040212e-05, 4.007257302873768e-06, 1.3954920177638996e-05, -6.352763193717692e-06, 0.0016185425920411944, -2.856295759556815e-05, 6.972445135033922e-06, 0.0005115654785186052, 0.0008230523089878261, 1.1351193052178132e-06, -0.000636525044683367, -2.872163122447091e-06, 6.2723465816816315e-06, -1.298566803598078e-05, 0.0005170607473701239], [0.0019846674986183643, 0.002437319839373231, -0.039681222289800644, 0.013840600848197937, -0.9408732652664185, 0.00027886961470358074, -0.16853216290473938, 0.0015950554516166449, 0.0021915528923273087, 0.0030745328404009342, 0.0010952332522720098, 0.0006547491066157818, -0.00047990784514695406, 0.22795416414737701, -0.0006005385657772422, 0.00170371204148978, -0.06970767676830292, 0.17979849874973297, 0.0001872022548923269, -0.03336062654852867, 2.8238084269105457e-05, -0.0011975995730608702, -0.000459828763268888, 0.2137010544538498], [0.004357524681836367, 0.0038555592764168978, -0.013506482355296612, -0.02200259454548359, -0.2525067627429962, 0.0021385892760008574, 0.0737190768122673, 0.0002956330426968634, 0.016093039885163307, 0.001417294959537685, -0.00032900896621868014, 0.0009289993904531002, -0.0024225632660090923, 0.04996887966990471, 0.001432421850040555, 0.0007233029464259744, 0.07557997852563858, -0.09962216764688492, -0.0003723168629221618, -0.07939334958791733, -0.001694509875960648, -0.0003364786971360445, -0.0005592691013589501, -0.07433075457811356], [-0.00047636154340580106, -0.0007979980437085032, -0.041857726871967316, -0.01578070968389511, -0.2431221902370453, -0.0001279081334359944, 0.011092561297118664, -0.0005329714622348547, -0.0038197035901248455, -0.0004778300935868174, -0.0003575557784643024, -0.0010217942763119936, 0.00025910703698173165, 0.09634406119585037, 0.002674599178135395, -0.000978122465312481, -0.058909837156534195, -0.07068169862031937, 2.2576805349672213e-05, -0.006352184806019068, 6.217023474164307e-05, -0.0008797391783446074, 0.0009247172856703401, -0.053137123584747314], [5.186023372516502e-06, 3.4491670248826267e-06, -8.847293793223798e-05, -9.601490091881715e-06, -0.0006706560379825532, 1.6771793980296934e-06, -0.00026594355585984886, 2.783969193842495e-06, -2.8293448849581182e-05, 5.209077698964393e-06, 1.6382319927288336e-06, 4.687475211540004e-06, -2.060102133327746e-06, 0.0007692367653362453, -9.434527783014346e-06, 2.2155497845233185e-06, 0.00010869214020203799, 0.0002902798296418041, 3.830402306448377e-07, -0.00029696576530113816, -9.321458946942585e-07, -7.620381659023678e-09, -3.78805520995229e-06, 0.00028292281785979867], [-0.002495831111446023, -0.001996503211557865, 0.10072807967662811, 0.014381547458469868, -0.4682842791080475, -0.0007820315076969564, -0.11764290928840637, -2.0204452084726654e-05, -0.009427851997315884, -0.0013492456637322903, 0.00037376736872829497, -0.00047783259651623666, 0.0009213497396558523, 0.16664953529834747, -0.004151246044784784, -0.0003344052820466459, 0.04117068648338318, -0.07347556948661804, 0.00014487894077319652, -0.007622833363711834, 0.0005454446654766798, -0.0011646166676655412, 0.0006154894363135099, -0.04288796707987785], [-1.3016721140957088e-06, -1.787295104804798e-06, -4.0293387428391725e-05, -1.700914799585007e-05, -5.698369204765186e-05, -8.952448524723877e-07, -3.0148472433211282e-05, 5.325018719304353e-07, -3.874180947605055e-06, 3.034904807464045e-07, 7.11485768079001e-07, -9.88288917369573e-08, 9.220734114023799e-07, 4.309413634473458e-05, -1.5939499462547246e-06, 5.361481498766807e-07, -2.941853199445177e-05, -1.3872982890461572e-05, 2.139216519481124e-07, -1.9473866359476233e-06, 8.446305628240225e-07, 4.9402885338167835e-08, -1.1764193885710483e-07, 4.238798646838404e-05], [-0.000178557398612611, -0.0002349194255657494, 0.0021835521329194307, 0.0002907057642005384, -0.01913766749203205, -0.00032273048418574035, -0.0023285977076739073, 0.00015246859402395785, 0.0011106121819466352, 0.0002249678800581023, 0.00014725903747603297, 0.00017838258645497262, 0.0002698149473872036, 0.01563015766441822, -0.0005041173426434398, 0.00011085072765126824, 0.004120682366192341, 0.009703516028821468, 4.2474108340684325e-05, -0.004978532902896404, 0.0002628652728162706, -2.6946952857542783e-05, -0.0001510043948655948, 0.0069159409031271935], [-4.258532953826943e-06, -1.410037270943576e-06, 4.4047079427400604e-05, 3.8951169699430466e-05, -6.60797468299279e-06, -3.562214260455221e-06, -3.59497862518765e-05, 1.0359769930801122e-06, -1.8910141079686582e-05, 7.389707548099977e-07, 1.5525029084528796e-06, 1.5415065490742563e-06, 3.6505257412500214e-06, 5.692803460988216e-05, -7.16200929673505e-06, 1.523159312455391e-06, -2.3885748305474408e-05, 7.58430760470219e-05, -3.9306908661274065e-07, -6.505249621113762e-05, 3.2967866445687832e-06, 2.299256181004239e-07, -2.07368816518283e-06, 9.390299237566069e-05], [-3.661834398371866e-06, -5.476812475535553e-06, -8.146060281433165e-05, -3.317902883281931e-05, -0.0001519942015875131, -2.0000943550257944e-06, -6.76358031341806e-05, 1.127907012232754e-06, -1.4461704267887399e-05, 9.759362455952214e-07, 1.3219312222645385e-06, 3.60372496288619e-07, 2.113835307682166e-06, 0.00011941663979087025, -6.011279310769169e-06, 9.895953780869604e-07, -5.188025897950865e-05, 7.144773917389102e-06, 7.46930425066239e-07, -1.291758417210076e-05, 1.7027051626428147e-06, 5.795371293970675e-07, -6.85791235355282e-07, 8.012112812139094e-05], [7.943981472635642e-06, 6.615659003728069e-06, 8.92275566002354e-05, 4.474750312510878e-05, 0.0002282393688801676, 1.9112035261059646e-06, 2.1069898139103316e-05, 7.283802574420406e-07, 1.296792379434919e-05, 1.829016582632903e-06, -4.3153372075721563e-07, 1.3220926575741032e-07, -2.115209099429194e-06, -8.334073208970949e-05, 1.5974999314494198e-06, 7.453235753018816e-07, 8.620756852906197e-05, 6.335934449452907e-05, -3.16406158162863e-07, -1.978903128474485e-06, -1.5759979987706174e-06, -3.012601439422724e-07, 9.663180833285878e-08, 2.418104259049869e-06], [4.531085778580746e-06, 1.4162402521833428e-06, -0.00012047582276863977, -1.493238869443303e-05, -0.0007879426702857018, 1.4515748034682474e-06, -0.00030338537180796266, 3.3901171718753176e-06, -3.6292243748903275e-05, 6.206316811585566e-06, 2.1331768493837444e-06, 5.4502952480106615e-06, -1.91858816833701e-06, 0.0008745029917918146, -1.128778876591241e-05, 2.571889353930601e-06, 0.0001192258860100992, 0.00032554083736613393, 5.976738179924723e-07, -0.0003450311196502298, -6.389554982888512e-07, -4.116308716106687e-08, -4.679546236729948e-06, 0.0003129871911369264], [-0.0031286426819860935, -0.0025334791280329227, 0.051581546664237976, 0.053386103361845016, -0.29492756724357605, -0.0013701398856937885, -0.12125049531459808, 0.00038707428029738367, -0.01211582962423563, 2.6280347810825333e-05, 0.0007872713031247258, 0.001607048325240612, 0.0014877020148560405, 0.22909234464168549, -0.005923975724726915, -7.449209806509316e-05, 0.045770663768053055, 0.057992201298475266, 0.0001929731370182708, -0.04015210270881653, 0.0011069966712966561, 0.0006335900980047882, -0.0017241478199139237, -0.029256733134388924], [-0.0001284871541429311, -7.983073010109365e-05, -0.00036453691427595913, -0.0009847971377894282, 0.0018762991530820727, -2.303732981090434e-05, 0.0005954666412435472, 3.0387911465368234e-05, -0.00010054135782411322, 7.802274012647104e-06, 5.9363832406233996e-05, -4.993582024326315e-06, 2.380103433097247e-05, -0.0012378867249935865, 4.140535111218924e-06, 8.582511327404063e-06, -0.00023122828861232847, 0.0005087633617222309, 1.882156175270211e-05, 0.0011624491307884455, 2.099567609548103e-05, -1.116884391194617e-06, 2.5508222734060837e-06, 4.5039942051516846e-05], [6.575425004484714e-08, 3.825613603680722e-08, 6.565768671862315e-06, 2.2945800992602017e-06, -2.4730179575271904e-05, 7.14371566346017e-08, -5.132311343913898e-06, -8.291305420016215e-08, 1.0411007451693877e-06, -7.238649235574712e-09, -8.086821878805495e-08, -1.3154490829947463e-07, -4.475329618003343e-08, 2.0889685401925817e-05, 4.6263730268947256e-07, 1.0217241452892267e-07, 1.1639040167210624e-05, 9.109572829402168e-07, -1.4955276128603145e-08, -1.8751891275314847e-06, -4.996155311687289e-08, -4.232723327390886e-08, 7.96379708845052e-08, 9.837249308475293e-06], [0.00468743359670043, 0.0038439324125647545, -0.0635438859462738, -0.09521182626485825, -0.02620707079768181, 0.002867321949452162, 0.22781960666179657, -0.0007195515790954232, 0.01019720733165741, -0.00028510569245554507, -0.001376416184939444, -0.0001718187122605741, -0.002968776971101761, -0.12218247354030609, 0.0036991070955991745, -0.0005451961769722402, -0.026805361732840538, -0.21628016233444214, -0.0006302876281552017, 0.06213616952300072, -0.002452636370435357, -0.0003516993601806462, 0.0002578117127995938, -0.227339968085289], [-0.0005973403458483517, -0.0005729587282985449, 0.08683400601148605, 0.14729179441928864, -0.38281184434890747, -0.0002657624427229166, -0.17058663070201874, 0.0008765145321376622, -0.0014830215368419886, 0.002305788453668356, 0.000796941458247602, 0.0012753704795613885, 0.00029123335843905807, 0.36353814601898193, -0.003406066447496414, 9.735209459904581e-05, 0.1328289657831192, 0.15675576031208038, 0.0001334034895990044, -0.10224900394678116, 0.00014461687533184886, 0.0004309217329137027, -0.0008966043242253363, -0.021733999252319336], [-4.047579693633452e-07, -2.110895565010651e-07, -1.880184754554648e-05, -1.0925800779659767e-06, -1.9166976926499046e-05, -1.6063876273619826e-07, -8.651340976939537e-06, -1.4627761402152828e-07, -1.2364289432298392e-06, -6.754004999720564e-08, -1.2932119375363982e-07, 4.297004352338263e-08, 1.8709803839556116e-07, 2.24894356506411e-05, -3.3419399869671906e-07, 5.1730257411009006e-08, -7.162240763136651e-06, 6.787609436287312e-06, 7.776330690489885e-09, -1.138861171057215e-05, 1.3641414398080087e-07, 7.640637278427675e-08, 1.4713201323957037e-07, 8.464016900688875e-06], [0.003616445465013385, 0.003606651443988085, 0.041623108088970184, 0.043106816709041595, -0.2622881233692169, 0.0020695833954960108, -0.027839869260787964, 0.00013266492169350386, 0.00875592790544033, 0.0006427058251574636, -0.00041060548392124474, 0.00045744652743451297, -0.002318233484402299, 0.08449314534664154, 2.968092121591326e-05, 0.000662895618006587, 0.0035059682559221983, 0.03656419739127159, -0.000489557976834476, -0.021774034947156906, -0.001675069099292159, -0.000558157975319773, -0.0001779020094545558, -0.02343851886689663], [2.941153525171103e-06, 1.0412716164864833e-06, -9.620330820325762e-05, -1.2073216566932388e-05, -0.0005062440759502351, 1.0360129181208322e-06, -0.0002144330064766109, 2.0927336663589813e-06, -2.2696985979564488e-05, 3.6826988889515633e-06, 1.35628692987666e-06, 3.257534672229667e-06, -1.3042829323239857e-06, 0.0005775759927928448, -6.96187134963111e-06, 1.378027150167327e-06, 4.861304478254169e-05, 0.00018960179295390844, -4.824579846740562e-08, -0.0002064940781565383, -5.304782462189905e-07, 9.696091041178079e-08, -2.656702463355032e-06, 0.00021887666662223637], [-2.728907020355109e-06, -1.943310735441628e-06, -1.4097187886363827e-05, -1.8069162251777016e-05, 1.1991518476861529e-05, -3.539355830639579e-08, 1.465982677473221e-05, 6.308773095042852e-07, 2.0108000171603635e-06, 6.121042019913148e-07, 9.94143306343176e-07, 1.2362659163045464e-07, -3.074180199291732e-08, -8.120240636344533e-06, -2.668209333478444e-07, 4.409098437463399e-07, 1.3874852811568417e-05, 1.7783744624466635e-05, 4.422070674081624e-07, -1.4699572830068064e-06, 9.92826940660052e-08, -2.7331314100820236e-08, -1.3435278845008725e-07, 3.308336545160273e-06], [-4.886457645625342e-06, -2.863217559934128e-06, 9.040514669322874e-06, -2.5967616238631308e-05, 0.00012214739399496466, -1.8895270841312595e-06, 2.642450090206694e-05, 1.3452744269670802e-06, -8.934724064602051e-06, 1.126431470765965e-06, 1.5588050246151397e-06, 8.786864924559268e-08, 1.8910960761786555e-06, -5.1686005463125184e-05, -3.7309696665488445e-08, 1.1536262718436774e-06, 1.1095700074292836e-06, 4.376538345240988e-05, 1.1135072099932586e-06, 3.1190415029414e-05, 1.6731005416659173e-06, -2.211972471855006e-08, -1.62730600550276e-07, 2.7955984478467144e-05], [-0.0014103911817073822, -0.001019931398332119, -0.35710158944129944, -0.0791316032409668, -0.6374882459640503, -0.0015573359560221434, -0.12852686643600464, 0.001807661377824843, -0.002883958164602518, 0.002651274437084794, 0.0018010439816862345, 0.0024705457035452127, 0.0015620654448866844, 0.6128466725349426, -0.0060408469289541245, 0.001387145253829658, -0.16535033285617828, 0.19348661601543427, 0.00042969107744283974, -0.13958023488521576, 0.0015453537926077843, 0.0005808693240396678, -0.002439482370391488, 0.37272581458091736]], "lstm.bias_ih_l0": [0.0014225433114916086, 0.0011244196211919188, -0.04079664498567581, 0.40466025471687317, 0.3829515278339386, 0.0005318360053934157, 0.5232396721839905, 3.877322524203919e-05, 0.017713341861963272, -0.00016729773778934032, 0.00012074982078047469, -0.00039907603058964014, 0.0006371994968503714, 0.18175005912780762, -0.0024554473347961903, 1.9056646124226972e-05, 0.4591309726238251, 0.42031100392341614, 1.3841238796885591e-05, 0.24141815304756165, 0.0003975366416852921, -0.00010709878552006558, -0.0002892649208661169, 0.684826672077179, 0.0007599874516017735, 0.0005783544038422406, -0.3119697868824005, -0.10257955640554428, 0.48230427503585815, 0.00019505411910358816, -0.14703726768493652, -1.9089489796897396e-05, 0.010894903913140297, -0.00021066528279334307, -3.7649554087693105e-06, -0.0004118790093343705, 0.00024768398725427687, 0.3032056987285614, -0.002665348583832383, 2.0122743080719374e-06, -0.22956082224845886, 0.11305087804794312, 4.812542897525418e-07, 0.027445964515209198, 0.00011744131916202605, -0.00017825585382524878, -0.00031301681883633137, -0.27835601568222046, 0.002354332944378257, 0.0008750055567361414, -0.0745282918214798, -0.1161055937409401, 0.055352553725242615, 0.002653040224686265, 0.27129921317100525, -0.0028382872696965933, -0.0007541158702224493, -0.0026310051325708628, -0.002810197416692972, -0.003146899864077568, -0.0023761841002851725, -0.15680168569087982, 0.008049468509852886, -0.002949625253677368, -0.007316927891224623, -0.4047558605670929, -0.0009000020218081772, 0.020740536972880363, -0.0025569971185177565, -0.0007853620336391032, 0.0022586132399737835, -0.3696891963481903, 0.001412745681591332, 0.00111910211853683, 0.36421844363212585, 0.41843852400779724, 0.6668044328689575, 0.0005300589255057275, 0.5055215954780579, 3.812273280345835e-05, 0.017435817047953606, -0.00017359886260237545, 0.00011920124234165996, -0.00041351071558892727, 0.0006349916220642626, 0.29507166147232056, -0.0026114515494555235, 1.866023740149103e-05, 0.37845492362976074, 0.3231159746646881, 1.3759615285380278e-05, 0.21602550148963928, 0.0003960093017667532, -0.00012400872947182506, -0.00030391328618861735, 0.4551536738872528], "lstm.bias_hh_l0": [0.0014225433114916086, 0.0011244196211919188, -0.04079664498567581, 0.40466025471687317, 0.3829515278339386, 0.0005318360053934157, 0.5232396721839905, 3.877322524203919e-05, 0.017713341861963272, -0.00016729773778934032, 0.00012074982078047469, -0.00039907603058964014, 0.0006371994968503714, 0.18175005912780762, -0.0024554473347961903, 1.9056646124226972e-05, 0.4591309726238251, 0.42031100392341614, 1.3841238796885591e-05, 0.24141815304756165, 0.0003975366416852921, -0.00010709878552006558, -0.0002892649208661169, 0.684826672077179, 0.0007599874516017735, 0.0005783544038422406, -0.3119697868824005, -0.10257955640554428, 0.48230427503585815, 0.00019505411910358816, -0.14703726768493652, -1.9089489796897396e-05, 0.010894903913140297, -0.00021066528279334307, -3.7649554087693105e-06, -0.0004118790093343705, 0.00024768398725427687, 0.3032056987285614, -0.002665348583832383, 2.0122743080719374e-06, -0.22956082224845886, 0.11305087804794312, 4.812542897525418e-07, 0.027445964515209198, 0.00011744131916202605, -0.00017825585382524878, -0.00031301681883633137, -0.27835601568222046, 0.002354332944378257, 0.0008750055567361414, -0.054356448352336884, -0.108912393450737, 0.055352553725242615, 0.002653040224686265, 0.27861836552619934, -0.0028382872696965933, -0.0007541158702224493, -0.0026310051325708628, -0.002810197416692972, -0.003146899864077568, -0.0023761841002851725, -0.15680168569087982, 0.008049468509852886, -0.002949625253677368, -0.007316927891224623, -0.40475621819496155, -0.0009000020218081772, 0.020740507170557976, -0.0025569971185177565, -0.0007853620336391032, 0.0022586132399737835, -0.36156532168388367, 0.001412745681591332, 0.00111910211853683, 0.36421844363212585, 0.41843852400779724, 0.6668044328689575, 0.0005300589255057275, 0.5055215954780579, 3.812273280345835e-05, 0.017435817047953606, -0.00017359886260237545, 0.00011920124234165996, -0.00041351071558892727, 0.0006349916220642626, 0.29507166147232056, -0.0026114515494555235, 1.866023740149103e-05, 0.37845492362976074, 0.3231159746646881, 1.3759615285380278e-05, 0.21602550148963928, 0.0003960093017667532, -0.00012400872947182506, -0.00030391328618861735, 0.4551536738872528], "dense.weight": [[0.008084625005722046, 0.006458067800849676, -2.732105016708374, 0.6833682060241699, 0.022205699235200882, 0.0071531678549945354, 1.390201449394226, -0.0032601726707071066, 0.01028133649379015, 0.006259697023779154, -0.0030178946908563375, -0.0003448798379395157, -0.007374480366706848, -0.08744870871305466, 0.006118904799222946, -0.006960269995033741, 0.2115630805492401, 0.8133672475814819, -0.0014656076673418283, -0.5738962888717651, -0.007213518489152193, 0.002697522286325693, 0.0014843628741800785, 0.39774149656295776]], "dense.bias": [0.020990867167711258]}